<?xml version="1.0"?>
<MethodSetup Method="BDT::BDTG_Kpipipi_run2">
  <GeneralInfo>
    <Info name="TMVA Release" value="4.2.1 [262657]"/>
    <Info name="ROOT Release" value="6.06/02 [394754]"/>
    <Info name="Creator" value="pullen"/>
    <Info name="Date" value="Thu Nov 16 12:44:25 2017"/>
    <Info name="Host" value="Linux lcgapp-slc6-physical1.cern.ch 2.6.32-573.8.1.el6.x86_64 #1 SMP Wed Nov 11 15:27:45 CET 2015 x86_64 x86_64 x86_64 GNU/Linux"/>
    <Info name="Dir" value="/home/pullen/analysis/B02DKstar/BDT/Code"/>
    <Info name="Training events" value="22661"/>
    <Info name="TrainingTime" value="2.01042631e+01"/>
    <Info name="AnalysisType" value="Classification"/>
  </GeneralInfo>
  <Options>
    <Option name="V" modified="Yes">False</Option>
    <Option name="VerbosityLevel" modified="No">Default</Option>
    <Option name="VarTransform" modified="No">None</Option>
    <Option name="H" modified="Yes">False</Option>
    <Option name="CreateMVAPdfs" modified="No">False</Option>
    <Option name="IgnoreNegWeightsInTraining" modified="No">False</Option>
    <Option name="NTrees" modified="Yes">1000</Option>
    <Option name="MaxDepth" modified="Yes">2</Option>
    <Option name="MinNodeSize" modified="Yes">2.5%</Option>
    <Option name="nCuts" modified="Yes">20</Option>
    <Option name="BoostType" modified="Yes">Grad</Option>
    <Option name="AdaBoostR2Loss" modified="No">quadratic</Option>
    <Option name="UseBaggedBoost" modified="Yes">True</Option>
    <Option name="Shrinkage" modified="Yes">1.000000e-01</Option>
    <Option name="AdaBoostBeta" modified="No">5.000000e-01</Option>
    <Option name="UseRandomisedTrees" modified="No">False</Option>
    <Option name="UseNvars" modified="No">3</Option>
    <Option name="UsePoissonNvars" modified="No">True</Option>
    <Option name="BaggedSampleFraction" modified="Yes">5.000000e-01</Option>
    <Option name="UseYesNoLeaf" modified="No">True</Option>
    <Option name="NegWeightTreatment" modified="No">ignorenegweightsintraining</Option>
    <Option name="Css" modified="No">1.000000e+00</Option>
    <Option name="Cts_sb" modified="No">1.000000e+00</Option>
    <Option name="Ctb_ss" modified="No">1.000000e+00</Option>
    <Option name="Cbb" modified="No">1.000000e+00</Option>
    <Option name="NodePurityLimit" modified="No">5.000000e-01</Option>
    <Option name="SeparationType" modified="No">giniindex</Option>
    <Option name="DoBoostMonitor" modified="No">False</Option>
    <Option name="UseFisherCuts" modified="No">False</Option>
    <Option name="MinLinCorrForFisher" modified="No">8.000000e-01</Option>
    <Option name="UseExclusiveVars" modified="No">False</Option>
    <Option name="DoPreselection" modified="No">False</Option>
    <Option name="SigToBkgFraction" modified="No">1.000000e+00</Option>
    <Option name="PruneMethod" modified="No">nopruning</Option>
    <Option name="PruneStrength" modified="No">0.000000e+00</Option>
    <Option name="PruningValFraction" modified="No">5.000000e-01</Option>
    <Option name="nEventsMin" modified="No">0</Option>
    <Option name="UseBaggedGrad" modified="No">False</Option>
    <Option name="GradBaggingFraction" modified="No">5.000000e-01</Option>
    <Option name="UseNTrainEvents" modified="No">0</Option>
    <Option name="NNodesMax" modified="No">0</Option>
  </Options>
  <Variables NVar="9">
    <Variable VarIndex="0" Expression="acos(Bd_DIRA_OWNPV)" Label="acos(Bd_DIRA_OWNPV)" Title="acos(Bd_DIRA_OWNPV)" Unit="" Internal="acos_Bd_DIRA_OWNPV_" Type="F" Min="1.11240934e-06" Max="4.47024442e-02"/>
    <Variable VarIndex="1" Expression="Bd_IPCHI2_OWNPV" Label="Bd_IPCHI2_OWNPV" Title="Bd_IPCHI2_OWNPV" Unit="" Internal="Bd_IPCHI2_OWNPV" Type="F" Min="2.55859341e-05" Max="2.58338280e+01"/>
    <Variable VarIndex="2" Expression="Bd_LOKI_VFASPF_VCHI2VDOF" Label="Bd_LOKI_VFASPF_VCHI2VDOF" Title="Bd_LOKI_VFASPF_VCHI2VDOF" Unit="" Internal="Bd_LOKI_VFASPF_VCHI2VDOF" Type="F" Min="5.88576833e-04" Max="9.99803829e+00"/>
    <Variable VarIndex="3" Expression="log10(D0_IPCHI2_OWNPV)" Label="log10(D0_IPCHI2_OWNPV)" Title="log10(D0_IPCHI2_OWNPV)" Unit="" Internal="log10_D0_IPCHI2_OWNPV_" Type="F" Min="-2.63841105e+00" Max="4.68911362e+00"/>
    <Variable VarIndex="4" Expression="log10(KstarK_IPCHI2_OWNPV)" Label="log10(KstarK_IPCHI2_OWNPV)" Title="log10(KstarK_IPCHI2_OWNPV)" Unit="" Internal="log10_KstarK_IPCHI2_OWNPV_" Type="F" Min="5.18937588e-01" Max="5.27015400e+00"/>
    <Variable VarIndex="5" Expression="log10(KstarPi_IPCHI2_OWNPV)" Label="log10(KstarPi_IPCHI2_OWNPV)" Title="log10(KstarPi_IPCHI2_OWNPV)" Unit="" Internal="log10_KstarPi_IPCHI2_OWNPV_" Type="F" Min="6.02197766e-01" Max="4.96526289e+00"/>
    <Variable VarIndex="6" Expression="log10(KstarK_PT)" Label="log10(KstarK_PT)" Title="log10(KstarK_PT)" Unit="" Internal="log10_KstarK_PT_" Type="F" Min="2.20988035e+00" Max="4.96369886e+00"/>
    <Variable VarIndex="7" Expression="log10(KstarPi_PT)" Label="log10(KstarPi_PT)" Title="log10(KstarPi_PT)" Unit="" Internal="log10_KstarPi_PT_" Type="F" Min="2.00031137e+00" Max="4.61145830e+00"/>
    <Variable VarIndex="8" Expression="Bd_ptasy_1.50" Label="Bd_ptasy_1.50" Title="Bd_ptasy_1.50" Unit="" Internal="Bd_ptasy_1.50" Type="F" Min="-9.94741917e-01" Max="1.00000000e+00"/>
  </Variables>
  <Spectators NSpec="0"/>
  <Classes NClass="2">
    <Class Name="Signal" Index="0"/>
    <Class Name="Background" Index="1"/>
  </Classes>
  <Transformations NTransformations="0"/>
  <MVAPdfs/>
  <Weights NTrees="1000" AnalysisType="1">
    <BinaryTree type="DecisionTree" boostWeight="1.0000000000000000e+00" itree="0">
      <Node pos="s" depth="0" NCoef="0" IVar="0" Cut="4.2573786340653896e-03" cType="1" res="3.6672950955107808e-04" rms="4.9999985098838806e-01" purity="5.0036674737930298e-01" nType="0">
        <Node pos="l" depth="1" NCoef="0" IVar="5" Cut="1.4046249389648438e+00" cType="1" res="2.4398714303970337e-01" rms="4.3642899394035339e-01" purity="7.4398714303970337e-01" nType="0">
          <Node pos="l" depth="2" NCoef="0" IVar="-1" Cut="0.0000000000000000e+00" cType="1" res="-1.0010169818997383e-02" rms="4.9748206138610840e-01" purity="4.4988417625427246e-01" nType="-99"/>
          <Node pos="r" depth="2" NCoef="0" IVar="-1" Cut="0.0000000000000000e+00" cType="1" res="6.8031735718250275e-02" rms="3.6887314915657043e-01" purity="8.3753907680511475e-01" nType="-99"/>
        </Node>
        <Node pos="r" depth="1" NCoef="0" IVar="8" Cut="3.6768242716789246e-01" cType="1" res="-3.7366759777069092e-01" rms="3.3222359418869019e-01" purity="1.2633238732814789e-01" nType="0">
          <Node pos="l" depth="2" NCoef="0" IVar="-1" Cut="0.0000000000000000e+00" cType="1" res="-8.1380292773246765e-02" rms="2.8497874736785889e-01" purity="8.9162901043891907e-02" nType="-99"/>
          <Node pos="r" depth="2" NCoef="0" IVar="-1" Cut="0.0000000000000000e+00" cType="1" res="-1.6407283255830407e-03" rms="4.9993264675140381e-01" purity="4.9179369211196899e-01" nType="-99"/>
        </Node>
      </Node>
    </BinaryTree>
    <BinaryTree type="DecisionTree" boostWeight="1.0000000000000000e+00" itree="1">
      <Node pos="s" depth="0" NCoef="0" IVar="0" Cut="4.2476113885641098e-03" cType="1" res="-5.0452970899641514e-03" rms="4.7837010025978088e-01" purity="4.9493372440338135e-01" nType="0">
        <Node pos="l" depth="1" NCoef="0" IVar="2" Cut="2.8578217029571533e+00" cType="1" res="2.1523571014404297e-01" rms="4.3317142128944397e-01" purity="7.3967111110687256e-01" nType="0">
          <Node pos="l" depth="2" NCoef="0" IVar="-1" Cut="0.0000000000000000e+00" cType="1" res="6.1262853443622589e-02" rms="3.7214830517768860e-01" purity="8.2880628108978271e-01" nType="-99"/>
          <Node pos="r" depth="2" NCoef="0" IVar="-1" Cut="0.0000000000000000e+00" cType="1" res="-2.5615241378545761e-02" rms="4.8180714249610901e-01" purity="3.9062002301216125e-01" nType="-99"/>
        </Node>
        <Node pos="r" depth="1" NCoef="0" IVar="8" Cut="4.3276980519294739e-01" cType="1" res="-3.3623585104942322e-01" rms="3.2884690165519714e-01" purity="1.2697331607341766e-01" nType="0">
          <Node pos="l" depth="2" NCoef="0" IVar="-1" Cut="0.0000000000000000e+00" cType="1" res="-7.3489375412464142e-02" rms="2.8822934627532959e-01" purity="9.1810815036296844e-02" nType="-99"/>
          <Node pos="r" depth="2" NCoef="0" IVar="-1" Cut="0.0000000000000000e+00" cType="1" res="1.5486045740544796e-02" rms="4.9409008026123047e-01" purity="5.7643228769302368e-01" nType="-99"/>
        </Node>
      </Node>
    </BinaryTree>
    <BinaryTree type="DecisionTree" boostWeight="1.0000000000000000e+00" itree="2">
      <Node pos="s" depth="0" NCoef="0" IVar="0" Cut="4.2658643797039986e-03" cType="1" res="1.2030724901705980e-03" rms="4.5837214589118958e-01" purity="5.0230890512466431e-01" nType="0">
        <Node pos="l" depth="1" NCoef="0" IVar="3" Cut="1.7539809942245483e+00" cType="1" res="1.9879037141799927e-01" rms="4.2346692085266113e-01" purity="7.4515050649642944e-01" nType="0">
          <Node pos="l" depth="2" NCoef="0" IVar="-1" Cut="0.0000000000000000e+00" cType="1" res="-3.4431062638759613e-02" rms="4.6492102742195129e-01" purity="3.5797241330146790e-01" nType="-99"/>
          <Node pos="r" depth="2" NCoef="0" IVar="-1" Cut="0.0000000000000000e+00" cType="1" res="5.5903490632772446e-02" rms="3.7185746431350708e-01" purity="8.2389873266220093e-01" nType="-99"/>
        </Node>
        <Node pos="r" depth="1" NCoef="0" IVar="8" Cut="4.3075937032699585e-01" cType="1" res="-3.0891469120979309e-01" rms="3.1775429844856262e-01" purity="1.2116356939077377e-01" nType="0">
          <Node pos="l" depth="2" NCoef="0" IVar="-1" Cut="0.0000000000000000e+00" cType="1" res="-6.8967670202255249e-02" rms="2.7672886848449707e-01" purity="8.3898730576038361e-02" nType="-99"/>
          <Node pos="r" depth="2" NCoef="0" IVar="-1" Cut="0.0000000000000000e+00" cType="1" res="1.6715377569198608e-02" rms="4.9124807119369507e-01" purity="5.8948659896850586e-01" nType="-99"/>
        </Node>
      </Node>
    </BinaryTree>
    <BinaryTree type="DecisionTree" boostWeight="1.0000000000000000e+00" itree="3">
      <Node pos="s" depth="0" NCoef="0" IVar="1" Cut="4.7641386985778809e+00" cType="1" res="1.0222923010587692e-03" rms="4.4181779026985168e-01" purity="5.0167185068130493e-01" nType="0">
        <Node pos="l" depth="1" NCoef="0" IVar="3" Cut="1.7794193029403687e+00" cType="1" res="2.1136233210563660e-01" rms="3.9374315738677979e-01" purity="7.5810682773590088e-01" nType="0">
          <Node pos="l" depth="2" NCoef="0" IVar="-1" Cut="0.0000000000000000e+00" cType="1" res="-1.8866710364818573e-02" rms="4.5972219109535217e-01" purity="3.8369676470756531e-01" nType="-99"/>
          <Node pos="r" depth="2" NCoef="0" IVar="-1" Cut="0.0000000000000000e+00" cType="1" res="6.1821874231100082e-02" rms="3.2416665554046631e-01" purity="8.6484622955322266e-01" nType="-99"/>
        </Node>
        <Node pos="r" depth="1" NCoef="0" IVar="3" Cut="2.5453433990478516e+00" cType="1" res="-2.7418574690818787e-01" rms="3.3783662319183350e-01" purity="1.6615343093872070e-01" nType="0">
          <Node pos="l" depth="2" NCoef="0" IVar="-1" Cut="0.0000000000000000e+00" cType="1" res="-6.7889459431171417e-02" rms="2.7228185534477234e-01" purity="9.3501277267932892e-02" nType="-99"/>
          <Node pos="r" depth="2" NCoef="0" IVar="-1" Cut="0.0000000000000000e+00" cType="1" res="-4.2805569246411324e-03" rms="4.6976780891418457e-01" purity="5.0160896778106689e-01" nType="-99"/>
        </Node>
      </Node>
    </BinaryTree>
    <BinaryTree type="DecisionTree" boostWeight="1.0000000000000000e+00" itree="4">
      <Node pos="s" depth="0" NCoef="0" IVar="1" Cut="5.9636807441711426e+00" cType="1" res="1.3205315917730331e-03" rms="4.2539277672767639e-01" purity="5.0469589233398438e-01" nType="0">
        <Node pos="l" depth="1" NCoef="0" IVar="3" Cut="1.7273287773132324e+00" cType="1" res="1.6766561567783356e-01" rms="3.9745974540710449e-01" purity="7.2697210311889648e-01" nType="0">
          <Node pos="l" depth="2" NCoef="0" IVar="-1" Cut="0.0000000000000000e+00" cType="1" res="-2.9044739902019501e-02" rms="4.3718671798706055e-01" purity="3.1296554207801819e-01" nType="-99"/>
          <Node pos="r" depth="2" NCoef="0" IVar="-1" Cut="0.0000000000000000e+00" cType="1" res="5.4324392229318619e-02" rms="3.3572298288345337e-01" purity="8.4641402959823608e-01" nType="-99"/>
        </Node>
        <Node pos="r" depth="1" NCoef="0" IVar="8" Cut="2.4518287181854248e-01" cType="1" res="-2.7764016389846802e-01" rms="3.0867725610733032e-01" purity="1.3193866610527039e-01" nType="0">
          <Node pos="l" depth="2" NCoef="0" IVar="-1" Cut="0.0000000000000000e+00" cType="1" res="-6.7017219960689545e-02" rms="2.4926891922950745e-01" purity="7.8273639082908630e-02" nType="-99"/>
          <Node pos="r" depth="2" NCoef="0" IVar="-1" Cut="0.0000000000000000e+00" cType="1" res="-1.9640700891613960e-02" rms="4.5941090583801270e-01" purity="3.8436952233314514e-01" nType="-99"/>
        </Node>
      </Node>
    </BinaryTree>
    <BinaryTree type="DecisionTree" boostWeight="1.0000000000000000e+00" itree="5">
      <Node pos="s" depth="0" NCoef="0" IVar="1" Cut="3.6905686855316162e+00" cType="1" res="-5.9426727239042521e-04" rms="4.0998643636703491e-01" purity="4.9934530258178711e-01" nType="0">
        <Node pos="l" depth="1" NCoef="0" IVar="3" Cut="1.9717901945114136e+00" cType="1" res="1.8987455964088440e-01" rms="3.6832636594772339e-01" purity="7.7801054716110229e-01" nType="0">
          <Node pos="l" depth="2" NCoef="0" IVar="-1" Cut="0.0000000000000000e+00" cType="1" res="-6.2692416831851006e-03" rms="4.6095812320709229e-01" purity="4.6310096979141235e-01" nType="-99"/>
          <Node pos="r" depth="2" NCoef="0" IVar="-1" Cut="0.0000000000000000e+00" cType="1" res="6.1720807105302811e-02" rms="2.7111515402793884e-01" purity="9.1210627555847168e-01" nType="-99"/>
        </Node>
        <Node pos="r" depth="1" NCoef="0" IVar="8" Cut="2.7045387029647827e-01" cType="1" res="-1.9645100831985474e-01" rms="3.5463532805442810e-01" purity="2.1279719471931458e-01" nType="0">
          <Node pos="l" depth="2" NCoef="0" IVar="-1" Cut="0.0000000000000000e+00" cType="1" res="-5.3753439337015152e-02" rms="3.0477246642112732e-01" purity="1.3696026802062988e-01" nType="-99"/>
          <Node pos="r" depth="2" NCoef="0" IVar="-1" Cut="0.0000000000000000e+00" cType="1" res="3.0373511835932732e-03" rms="4.5422118902206421e-01" purity="5.2626788616180420e-01" nType="-99"/>
        </Node>
      </Node>
    </BinaryTree>
    <BinaryTree type="DecisionTree" boostWeight="1.0000000000000000e+00" itree="6">
      <Node pos="s" depth="0" NCoef="0" IVar="1" Cut="5.9631056785583496e+00" cType="1" res="5.9314852114766836e-04" rms="4.0096229314804077e-01" purity="5.0315093994140625e-01" nType="0">
        <Node pos="l" depth="1" NCoef="0" IVar="5" Cut="1.2148617506027222e+00" cType="1" res="1.3836663961410522e-01" rms="3.8767170906066895e-01" purity="7.2705549001693726e-01" nType="0">
          <Node pos="l" depth="2" NCoef="0" IVar="-1" Cut="0.0000000000000000e+00" cType="1" res="-2.9284730553627014e-02" rms="4.3371984362602234e-01" purity="3.6670118570327759e-01" nType="-99"/>
          <Node pos="r" depth="2" NCoef="0" IVar="-1" Cut="0.0000000000000000e+00" cType="1" res="4.7573298215866089e-02" rms="3.3481344580650330e-01" purity="8.2752335071563721e-01" nType="-99"/>
        </Node>
        <Node pos="r" depth="1" NCoef="0" IVar="1" Cut="9.6023416519165039e+00" cType="1" res="-2.2439253330230713e-01" rms="3.1027635931968689e-01" purity="1.3751229643821716e-01" nType="0">
          <Node pos="l" depth="2" NCoef="0" IVar="-1" Cut="0.0000000000000000e+00" cType="1" res="-2.4288672953844070e-02" rms="4.0217781066894531e-01" purity="2.7782276272773743e-01" nType="-99"/>
          <Node pos="r" depth="2" NCoef="0" IVar="-1" Cut="0.0000000000000000e+00" cType="1" res="-6.0740042477846146e-02" rms="2.4798433482646942e-01" purity="7.9137124121189117e-02" nType="-99"/>
        </Node>
      </Node>
    </BinaryTree>
    <BinaryTree type="DecisionTree" boostWeight="1.0000000000000000e+00" itree="7">
      <Node pos="s" depth="0" NCoef="0" IVar="0" Cut="2.1390614565461874e-03" cType="1" res="-6.4107170328497887e-03" rms="3.8862085342407227e-01" purity="4.9122911691665649e-01" nType="0">
        <Node pos="l" depth="1" NCoef="0" IVar="1" Cut="8.3247556686401367e+00" cType="1" res="1.8138842284679413e-01" rms="3.4582561254501343e-01" purity="8.1818187236785889e-01" nType="0">
          <Node pos="l" depth="2" NCoef="0" IVar="-1" Cut="0.0000000000000000e+00" cType="1" res="4.6984851360321045e-02" rms="3.2228174805641174e-01" purity="8.5518699884414673e-01" nType="-99"/>
          <Node pos="r" depth="2" NCoef="0" IVar="-1" Cut="0.0000000000000000e+00" cType="1" res="-4.4463481754064560e-02" rms="4.2654615640640259e-01" purity="2.6431408524513245e-01" nType="-99"/>
        </Node>
        <Node pos="r" depth="1" NCoef="0" IVar="2" Cut="1.4243175983428955e+00" cType="1" res="-1.5031597018241882e-01" rms="3.5689875483512878e-01" purity="2.4069432914257050e-01" nType="0">
          <Node pos="l" depth="2" NCoef="0" IVar="-1" Cut="0.0000000000000000e+00" cType="1" res="6.5725698368623853e-04" rms="4.1229566931724548e-01" purity="4.4032105803489685e-01" nType="-99"/>
          <Node pos="r" depth="2" NCoef="0" IVar="-1" Cut="0.0000000000000000e+00" cType="1" res="-5.4149761795997620e-02" rms="2.8410723805427551e-01" purity="1.2401939928531647e-01" nType="-99"/>
        </Node>
      </Node>
    </BinaryTree>
    <BinaryTree type="DecisionTree" boostWeight="1.0000000000000000e+00" itree="8">
      <Node pos="s" depth="0" NCoef="0" IVar="0" Cut="2.1369829773902893e-03" cType="1" res="-6.0916184447705746e-03" rms="3.7912312150001526e-01" purity="4.9281892180442810e-01" nType="0">
        <Node pos="l" depth="1" NCoef="0" IVar="3" Cut="1.8628911972045898e+00" cType="1" res="1.6511592268943787e-01" rms="3.4412819147109985e-01" purity="8.1942373514175415e-01" nType="0">
          <Node pos="l" depth="2" NCoef="0" IVar="-1" Cut="0.0000000000000000e+00" cType="1" res="-1.0920984670519829e-02" rms="4.6953395009040833e-01" purity="4.8322039842605591e-01" nType="-99"/>
          <Node pos="r" depth="2" NCoef="0" IVar="-1" Cut="0.0000000000000000e+00" cType="1" res="4.6918436884880066e-02" rms="3.0531346797943115e-01" purity="8.7329655885696411e-01" nType="-99"/>
        </Node>
        <Node pos="r" depth="1" NCoef="0" IVar="8" Cut="1.4511060714721680e-01" cType="1" res="-1.4054843783378601e-01" rms="3.5001832246780396e-01" purity="2.3632176220417023e-01" nType="0">
          <Node pos="l" depth="2" NCoef="0" IVar="-1" Cut="0.0000000000000000e+00" cType="1" res="-4.8196341842412949e-02" rms="2.9341775178909302e-01" purity="1.3584837317466736e-01" nType="-99"/>
          <Node pos="r" depth="2" NCoef="0" IVar="-1" Cut="0.0000000000000000e+00" cType="1" res="7.8235138207674026e-03" rms="4.2222142219543457e-01" purity="5.0801503658294678e-01" nType="-99"/>
        </Node>
      </Node>
    </BinaryTree>
    <BinaryTree type="DecisionTree" boostWeight="1.0000000000000000e+00" itree="9">
      <Node pos="s" depth="0" NCoef="0" IVar="1" Cut="7.1564116477966309e+00" cType="1" res="-2.5395192205905914e-03" rms="3.6867728829383850e-01" purity="4.9786695837974548e-01" nType="0">
        <Node pos="l" depth="1" NCoef="0" IVar="2" Cut="2.3804283142089844e+00" cType="1" res="1.0223297774791718e-01" rms="3.7053775787353516e-01" purity="7.0533001422882080e-01" nType="0">
          <Node pos="l" depth="2" NCoef="0" IVar="-1" Cut="0.0000000000000000e+00" cType="1" res="4.2031783610582352e-02" rms="3.2776275277137756e-01" purity="8.1406146287918091e-01" nType="-99"/>
          <Node pos="r" depth="2" NCoef="0" IVar="-1" Cut="0.0000000000000000e+00" cType="1" res="-2.6498321443796158e-02" rms="3.9656972885131836e-01" purity="3.9154553413391113e-01" nType="-99"/>
        </Node>
        <Node pos="r" depth="1" NCoef="0" IVar="3" Cut="2.7627513408660889e+00" cType="1" res="-2.0138514041900635e-01" rms="2.7007350325584412e-01" purity="1.0412692278623581e-01" nType="0">
          <Node pos="l" depth="2" NCoef="0" IVar="-1" Cut="0.0000000000000000e+00" cType="1" res="-5.4580021649599075e-02" rms="2.3228858411312103e-01" purity="6.8419598042964935e-02" nType="-99"/>
          <Node pos="r" depth="2" NCoef="0" IVar="-1" Cut="0.0000000000000000e+00" cType="1" res="-9.9079739302396774e-03" rms="4.5163637399673462e-01" purity="4.0103098750114441e-01" nType="-99"/>
        </Node>
      </Node>
    </BinaryTree>
    <BinaryTree type="DecisionTree" boostWeight="1.0000000000000000e+00" itree="10">
      <Node pos="s" depth="0" NCoef="0" IVar="3" Cut="2.2466053962707520e+00" cType="1" res="6.5779476426541805e-04" rms="3.6103510856628418e-01" purity="5.0125318765640259e-01" nType="0">
        <Node pos="l" depth="1" NCoef="0" IVar="2" Cut="1.4252121448516846e+00" cType="1" res="-1.2023518234491348e-01" rms="3.4631890058517456e-01" purity="2.7269107103347778e-01" nType="0">
          <Node pos="l" depth="2" NCoef="0" IVar="-1" Cut="0.0000000000000000e+00" cType="1" res="3.4413426183164120e-03" rms="3.9010629057884216e-01" purity="4.9254581332206726e-01" nType="-99"/>
          <Node pos="r" depth="2" NCoef="0" IVar="-1" Cut="0.0000000000000000e+00" cType="1" res="-5.0158366560935974e-02" rms="2.8316855430603027e-01" purity="1.3207004964351654e-01" nType="-99"/>
        </Node>
        <Node pos="r" depth="1" NCoef="0" IVar="1" Cut="1.0670042991638184e+01" cType="1" res="1.4705611765384674e-01" rms="3.2221275568008423e-01" purity="7.7803611755371094e-01" nType="0">
          <Node pos="l" depth="2" NCoef="0" IVar="-1" Cut="0.0000000000000000e+00" cType="1" res="4.7913517802953720e-02" rms="2.8708133101463318e-01" purity="8.7099009752273560e-01" nType="-99"/>
          <Node pos="r" depth="2" NCoef="0" IVar="-1" Cut="0.0000000000000000e+00" cType="1" res="-3.7258367985486984e-02" rms="3.6618939042091370e-01" purity="1.7930717766284943e-01" nType="-99"/>
        </Node>
      </Node>
    </BinaryTree>
    <BinaryTree type="DecisionTree" boostWeight="1.0000000000000000e+00" itree="11">
      <Node pos="s" depth="0" NCoef="0" IVar="1" Cut="3.6905686855316162e+00" cType="1" res="-2.1510405931621790e-03" rms="3.5399323701858521e-01" purity="4.9762430787086487e-01" nType="0">
        <Node pos="l" depth="1" NCoef="0" IVar="2" Cut="2.3813018798828125e+00" cType="1" res="1.2024387717247009e-01" rms="3.3868077397346497e-01" purity="7.8051841259002686e-01" nType="0">
          <Node pos="l" depth="2" NCoef="0" IVar="-1" Cut="0.0000000000000000e+00" cType="1" res="4.5048907399177551e-02" rms="2.9177209734916687e-01" purity="8.7278169393539429e-01" nType="-99"/>
          <Node pos="r" depth="2" NCoef="0" IVar="-1" Cut="0.0000000000000000e+00" cType="1" res="-2.0103506743907928e-02" rms="4.0566301345825195e-01" purity="4.4901835918426514e-01" nType="-99"/>
        </Node>
        <Node pos="r" depth="1" NCoef="0" IVar="3" Cut="2.2466053962707520e+00" cType="1" res="-1.2566024065017700e-01" rms="3.2502755522727966e-01" purity="2.1215468645095825e-01" nType="0">
          <Node pos="l" depth="2" NCoef="0" IVar="-1" Cut="0.0000000000000000e+00" cType="1" res="-4.8701919615268707e-02" rms="2.5438579916954041e-01" purity="9.0987905859947205e-02" nType="-99"/>
          <Node pos="r" depth="2" NCoef="0" IVar="-1" Cut="0.0000000000000000e+00" cType="1" res="3.2171460334211588e-03" rms="4.1145133972167969e-01" purity="4.8404413461685181e-01" nType="-99"/>
        </Node>
      </Node>
    </BinaryTree>
    <BinaryTree type="DecisionTree" boostWeight="1.0000000000000000e+00" itree="12">
      <Node pos="s" depth="0" NCoef="0" IVar="0" Cut="2.1369829773902893e-03" cType="1" res="-1.6913642175495625e-03" rms="3.4736049175262451e-01" purity="4.9937263131141663e-01" nType="0">
        <Node pos="l" depth="1" NCoef="0" IVar="3" Cut="1.5380935668945312e+00" cType="1" res="1.3108783960342407e-01" rms="3.2128319144248962e-01" purity="8.3105039596557617e-01" nType="0">
          <Node pos="l" depth="2" NCoef="0" IVar="-1" Cut="0.0000000000000000e+00" cType="1" res="-2.6458190754055977e-02" rms="4.4069075584411621e-01" purity="3.6578950285911560e-01" nType="-99"/>
          <Node pos="r" depth="2" NCoef="0" IVar="-1" Cut="0.0000000000000000e+00" cType="1" res="3.9284568279981613e-02" rms="3.0093553662300110e-01" purity="8.6705029010772705e-01" nType="-99"/>
        </Node>
        <Node pos="r" depth="1" NCoef="0" IVar="8" Cut="6.6873647272586823e-02" cType="1" res="-1.0862573236227036e-01" rms="3.3025473356246948e-01" purity="2.3225435614585876e-01" nType="0">
          <Node pos="l" depth="2" NCoef="0" IVar="-1" Cut="0.0000000000000000e+00" cType="1" res="-4.4431474059820175e-02" rms="2.7310031652450562e-01" purity="1.2292679399251938e-01" nType="-99"/>
          <Node pos="r" depth="2" NCoef="0" IVar="-1" Cut="0.0000000000000000e+00" cType="1" res="2.8721587732434273e-03" rms="3.9612838625907898e-01" purity="4.5340031385421753e-01" nType="-99"/>
        </Node>
      </Node>
    </BinaryTree>
    <BinaryTree type="DecisionTree" boostWeight="1.0000000000000000e+00" itree="13">
      <Node pos="s" depth="0" NCoef="0" IVar="8" Cut="-4.4864814728498459e-02" cType="1" res="-7.2409230051562190e-04" rms="3.4444800019264221e-01" purity="4.9835401773452759e-01" nType="0">
        <Node pos="l" depth="1" NCoef="0" IVar="3" Cut="2.0801067352294922e+00" cType="1" res="-1.2906849384307861e-01" rms="3.0120679736137390e-01" purity="2.3423710465431213e-01" nType="0">
          <Node pos="l" depth="2" NCoef="0" IVar="-1" Cut="0.0000000000000000e+00" cType="1" res="-5.2846018224954605e-02" rms="2.2900986671447754e-01" purity="7.8152231872081757e-02" nType="-99"/>
          <Node pos="r" depth="2" NCoef="0" IVar="-1" Cut="0.0000000000000000e+00" cType="1" res="-9.5813702791929245e-03" rms="3.6744278669357300e-01" purity="4.7211647033691406e-01" nType="-99"/>
        </Node>
        <Node pos="r" depth="1" NCoef="0" IVar="3" Cut="1.2176381349563599e+00" cType="1" res="8.8266365230083466e-02" rms="3.4447333216667175e-01" purity="6.8148541450500488e-01" nType="0">
          <Node pos="l" depth="2" NCoef="0" IVar="-1" Cut="0.0000000000000000e+00" cType="1" res="-4.5851167291402817e-02" rms="2.9805201292037964e-01" purity="1.4417096972465515e-01" nType="-99"/>
          <Node pos="r" depth="2" NCoef="0" IVar="-1" Cut="0.0000000000000000e+00" cType="1" res="3.3093441277742386e-02" rms="3.3122700452804565e-01" purity="7.6061540842056274e-01" nType="-99"/>
        </Node>
      </Node>
    </BinaryTree>
    <BinaryTree type="DecisionTree" boostWeight="1.0000000000000000e+00" itree="14">
      <Node pos="s" depth="0" NCoef="0" IVar="1" Cut="7.3811483383178711e+00" cType="1" res="-1.0029334807768464e-03" rms="3.3629393577575684e-01" purity="5.0114351511001587e-01" nType="0">
        <Node pos="l" depth="1" NCoef="0" IVar="5" Cut="1.2142523527145386e+00" cType="1" res="7.1499519050121307e-02" rms="3.4463948011398315e-01" purity="6.9768732786178589e-01" nType="0">
          <Node pos="l" depth="2" NCoef="0" IVar="-1" Cut="0.0000000000000000e+00" cType="1" res="-2.9493279755115509e-02" rms="3.7508985400199890e-01" purity="3.3326572179794312e-01" nType="-99"/>
          <Node pos="r" depth="2" NCoef="0" IVar="-1" Cut="0.0000000000000000e+00" cType="1" res="3.4036979079246521e-02" rms="3.1277474761009216e-01" purity="8.0325031280517578e-01" nType="-99"/>
        </Node>
        <Node pos="r" depth="1" NCoef="0" IVar="5" Cut="2.0062558650970459e+00" cType="1" res="-1.4872148633003235e-01" rms="2.6264938712120056e-01" purity="1.0069978237152100e-01" nType="0">
          <Node pos="l" depth="2" NCoef="0" IVar="-1" Cut="0.0000000000000000e+00" cType="1" res="-5.1688406616449356e-02" rms="2.0693594217300415e-01" purity="5.4949030280113220e-02" nType="-99"/>
          <Node pos="r" depth="2" NCoef="0" IVar="-1" Cut="0.0000000000000000e+00" cType="1" res="-2.1642992272973061e-02" rms="3.5848125815391541e-01" purity="2.1583598852157593e-01" nType="-99"/>
        </Node>
      </Node>
    </BinaryTree>
    <BinaryTree type="DecisionTree" boostWeight="1.0000000000000000e+00" itree="15">
      <Node pos="s" depth="0" NCoef="0" IVar="0" Cut="4.2460355907678604e-03" cType="1" res="-3.2382933422923088e-03" rms="3.3228972554206848e-01" purity="4.9912062287330627e-01" nType="0">
        <Node pos="l" depth="1" NCoef="0" IVar="5" Cut="1.8057708740234375e+00" cType="1" res="7.2259187698364258e-02" rms="3.4556755423545837e-01" purity="7.4160623550415039e-01" nType="0">
          <Node pos="l" depth="2" NCoef="0" IVar="-1" Cut="0.0000000000000000e+00" cType="1" res="-9.5404973253607750e-03" rms="4.0801069140434265e-01" purity="5.4163628816604614e-01" nType="-99"/>
          <Node pos="r" depth="2" NCoef="0" IVar="-1" Cut="0.0000000000000000e+00" cType="1" res="3.8421675562858582e-02" rms="2.8147226572036743e-01" purity="8.6111772060394287e-01" nType="-99"/>
        </Node>
        <Node pos="r" depth="1" NCoef="0" IVar="8" Cut="4.3075937032699585e-01" cType="1" res="-1.2176679819822311e-01" rms="2.7071836590766907e-01" purity="1.1842639744281769e-01" nType="0">
          <Node pos="l" depth="2" NCoef="0" IVar="-1" Cut="0.0000000000000000e+00" cType="1" res="-4.1271571069955826e-02" rms="2.4804125726222992e-01" purity="8.5141882300376892e-02" nType="-99"/>
          <Node pos="r" depth="2" NCoef="0" IVar="-1" Cut="0.0000000000000000e+00" cType="1" res="1.7520166933536530e-02" rms="4.2995095252990723e-01" purity="5.6051522493362427e-01" nType="-99"/>
        </Node>
      </Node>
    </BinaryTree>
    <BinaryTree type="DecisionTree" boostWeight="1.0000000000000000e+00" itree="16">
      <Node pos="s" depth="0" NCoef="0" IVar="8" Cut="6.6873647272586823e-02" cType="1" res="-5.6286561302840710e-03" rms="3.3060300350189209e-01" purity="4.9406555294990540e-01" nType="0">
        <Node pos="l" depth="1" NCoef="0" IVar="2" Cut="1.4282720088958740e+00" cType="1" res="-9.3317985534667969e-02" rms="3.0565768480300903e-01" purity="2.7054363489151001e-01" nType="0">
          <Node pos="l" depth="2" NCoef="0" IVar="-1" Cut="0.0000000000000000e+00" cType="1" res="-1.5137336449697614e-03" rms="3.4678843617439270e-01" purity="4.7235792875289917e-01" nType="-99"/>
          <Node pos="r" depth="2" NCoef="0" IVar="-1" Cut="0.0000000000000000e+00" cType="1" res="-4.5806724578142166e-02" rms="2.5898474454879761e-01" purity="1.3650347292423248e-01" nType="-99"/>
        </Node>
        <Node pos="r" depth="1" NCoef="0" IVar="3" Cut="8.7407737970352173e-01" cType="1" res="8.3152316510677338e-02" rms="3.3121058344841003e-01" purity="7.2036999464035034e-01" nType="0">
          <Node pos="l" depth="2" NCoef="0" IVar="-1" Cut="0.0000000000000000e+00" cType="1" res="-5.4222531616687775e-02" rms="2.6606982946395874e-01" purity="9.6547737717628479e-02" nType="-99"/>
          <Node pos="r" depth="2" NCoef="0" IVar="-1" Cut="0.0000000000000000e+00" cType="1" res="2.9271246865391731e-02" rms="3.2337448000907898e-01" purity="7.7160400152206421e-01" nType="-99"/>
        </Node>
      </Node>
    </BinaryTree>
    <BinaryTree type="DecisionTree" boostWeight="1.0000000000000000e+00" itree="17">
      <Node pos="s" depth="0" NCoef="0" IVar="1" Cut="4.7692542076110840e+00" cType="1" res="-4.1347476653754711e-03" rms="3.2672697305679321e-01" purity="4.9923866987228394e-01" nType="0">
        <Node pos="l" depth="1" NCoef="0" IVar="2" Cut="3.3324096202850342e+00" cType="1" res="7.0813849568367004e-02" rms="3.3208435773849487e-01" purity="7.5089728832244873e-01" nType="0">
          <Node pos="l" depth="2" NCoef="0" IVar="-1" Cut="0.0000000000000000e+00" cType="1" res="3.0683005228638649e-02" rms="3.1072315573692322e-01" purity="8.2229173183441162e-01" nType="-99"/>
          <Node pos="r" depth="2" NCoef="0" IVar="-1" Cut="0.0000000000000000e+00" cType="1" res="-3.3665373921394348e-02" rms="3.6564406752586365e-01" purity="3.5197487473487854e-01" nType="-99"/>
        </Node>
        <Node pos="r" depth="1" NCoef="0" IVar="5" Cut="2.5687360763549805e+00" cType="1" res="-1.0455800592899323e-01" rms="2.9053384065628052e-01" purity="1.6204246878623962e-01" nType="0">
          <Node pos="l" depth="2" NCoef="0" IVar="-1" Cut="0.0000000000000000e+00" cType="1" res="-3.8352619856595993e-02" rms="2.6791164278984070e-01" purity="1.1693796515464783e-01" nType="-99"/>
          <Node pos="r" depth="2" NCoef="0" IVar="-1" Cut="0.0000000000000000e+00" cType="1" res="6.6934358328580856e-03" rms="3.7889015674591064e-01" purity="4.4366800785064697e-01" nType="-99"/>
        </Node>
      </Node>
    </BinaryTree>
    <BinaryTree type="DecisionTree" boostWeight="1.0000000000000000e+00" itree="18">
      <Node pos="s" depth="0" NCoef="0" IVar="5" Cut="1.8260747194290161e+00" cType="1" res="-3.2778843888081610e-04" rms="3.2309961318969727e-01" purity="4.9535107612609863e-01" nType="0">
        <Node pos="l" depth="1" NCoef="0" IVar="2" Cut="1.4279125928878784e+00" cType="1" res="-8.2495562732219696e-02" rms="3.2156178355216980e-01" purity="2.8900417685508728e-01" nType="0">
          <Node pos="l" depth="2" NCoef="0" IVar="-1" Cut="0.0000000000000000e+00" cType="1" res="1.8532507820054889e-03" rms="3.6019897460937500e-01" purity="5.0354784727096558e-01" nType="-99"/>
          <Node pos="r" depth="2" NCoef="0" IVar="-1" Cut="0.0000000000000000e+00" cType="1" res="-4.1987441480159760e-02" rms="2.7901357412338257e-01" purity="1.5027736127376556e-01" nType="-99"/>
        </Node>
        <Node pos="r" depth="1" NCoef="0" IVar="4" Cut="1.2733329534530640e+00" cType="1" res="8.4400080144405365e-02" rms="3.0211737751960754e-01" purity="7.0812714099884033e-01" nType="0">
          <Node pos="l" depth="2" NCoef="0" IVar="-1" Cut="0.0000000000000000e+00" cType="1" res="-6.0178659856319427e-02" rms="2.5047138333320618e-01" purity="1.0058318078517914e-01" nType="-99"/>
          <Node pos="r" depth="2" NCoef="0" IVar="-1" Cut="0.0000000000000000e+00" cType="1" res="3.1588379293680191e-02" rms="2.9395431280136108e-01" purity="7.5199061632156372e-01" nType="-99"/>
        </Node>
      </Node>
    </BinaryTree>
    <BinaryTree type="DecisionTree" boostWeight="1.0000000000000000e+00" itree="19">
      <Node pos="s" depth="0" NCoef="0" IVar="3" Cut="1.8849440813064575e+00" cType="1" res="-1.0712345829233527e-03" rms="3.1955522298812866e-01" purity="4.9976634979248047e-01" nType="0">
        <Node pos="l" depth="1" NCoef="0" IVar="8" Cut="4.5269298553466797e-01" cType="1" res="-1.0047741979360580e-01" rms="2.9598462581634521e-01" purity="1.8978792428970337e-01" nType="0">
          <Node pos="l" depth="2" NCoef="0" IVar="-1" Cut="0.0000000000000000e+00" cType="1" res="-3.9288222789764404e-02" rms="2.6584723591804504e-01" purity="1.2706728279590607e-01" nType="-99"/>
          <Node pos="r" depth="2" NCoef="0" IVar="-1" Cut="0.0000000000000000e+00" cType="1" res="1.6810456290841103e-02" rms="4.0555596351623535e-01" purity="6.0646682977676392e-01" nType="-99"/>
        </Node>
        <Node pos="r" depth="1" NCoef="0" IVar="1" Cut="9.5410404205322266e+00" cType="1" res="6.0418237000703812e-02" rms="3.1811431050300598e-01" purity="6.9150906801223755e-01" nType="0">
          <Node pos="l" depth="2" NCoef="0" IVar="-1" Cut="0.0000000000000000e+00" cType="1" res="3.0190030112862587e-02" rms="3.0309763550758362e-01" purity="8.2122188806533813e-01" nType="-99"/>
          <Node pos="r" depth="2" NCoef="0" IVar="-1" Cut="0.0000000000000000e+00" cType="1" res="-3.3016871660947800e-02" rms="3.2137823104858398e-01" purity="1.4521516859531403e-01" nType="-99"/>
        </Node>
      </Node>
    </BinaryTree>
    <BinaryTree type="DecisionTree" boostWeight="1.0000000000000000e+00" itree="20">
      <Node pos="s" depth="0" NCoef="0" IVar="5" Cut="1.6220952272415161e+00" cType="1" res="-3.6141276359558105e-03" rms="3.1643328070640564e-01" purity="4.9660599231719971e-01" nType="0">
        <Node pos="l" depth="1" NCoef="0" IVar="6" Cut="3.3378999233245850e+00" cType="1" res="-8.8841654360294342e-02" rms="3.0841800570487976e-01" purity="2.5424423813819885e-01" nType="0">
          <Node pos="l" depth="2" NCoef="0" IVar="-1" Cut="0.0000000000000000e+00" cType="1" res="-4.8969030380249023e-02" rms="2.4405382573604584e-01" purity="1.0575994849205017e-01" nType="-99"/>
          <Node pos="r" depth="2" NCoef="0" IVar="-1" Cut="0.0000000000000000e+00" cType="1" res="-5.5088601075112820e-03" rms="3.4940704703330994e-01" purity="4.0664231777191162e-01" nType="-99"/>
        </Node>
        <Node pos="r" depth="1" NCoef="0" IVar="1" Cut="1.1927335739135742e+01" cType="1" res="5.9833884239196777e-02" rms="3.0728709697723389e-01" purity="6.7703330516815186e-01" nType="0">
          <Node pos="l" depth="2" NCoef="0" IVar="-1" Cut="0.0000000000000000e+00" cType="1" res="2.8008434921503067e-02" rms="2.9878950119018555e-01" purity="7.8437352180480957e-01" nType="-99"/>
          <Node pos="r" depth="2" NCoef="0" IVar="-1" Cut="0.0000000000000000e+00" cType="1" res="-3.3539388328790665e-02" rms="2.9798057675361633e-01" purity="1.1813437938690186e-01" nType="-99"/>
        </Node>
      </Node>
    </BinaryTree>
    <BinaryTree type="DecisionTree" boostWeight="1.0000000000000000e+00" itree="21">
      <Node pos="s" depth="0" NCoef="0" IVar="8" Cut="2.4009831249713898e-01" cType="1" res="2.2924756922293454e-04" rms="3.1241223216056824e-01" purity="5.0232762098312378e-01" nType="0">
        <Node pos="l" depth="1" NCoef="0" IVar="3" Cut="2.0801067352294922e+00" cType="1" res="-5.1183350384235382e-02" rms="3.0657601356506348e-01" purity="3.4345558285713196e-01" nType="0">
          <Node pos="l" depth="2" NCoef="0" IVar="-1" Cut="0.0000000000000000e+00" cType="1" res="-3.6732807755470276e-02" rms="2.6360076665878296e-01" purity="1.2652683258056641e-01" nType="-99"/>
          <Node pos="r" depth="2" NCoef="0" IVar="-1" Cut="0.0000000000000000e+00" cType="1" res="5.5243824608623981e-03" rms="3.3808752894401550e-01" purity="6.0221916437149048e-01" nType="-99"/>
        </Node>
        <Node pos="r" depth="1" NCoef="0" IVar="1" Cut="1.1891983032226562e+01" cType="1" res="9.2531129717826843e-02" rms="3.0136680603027344e-01" purity="7.8755319118499756e-01" nType="0">
          <Node pos="l" depth="2" NCoef="0" IVar="-1" Cut="0.0000000000000000e+00" cType="1" res="3.4228958189487457e-02" rms="2.8733012080192566e-01" purity="8.3811563253402710e-01" nType="-99"/>
          <Node pos="r" depth="2" NCoef="0" IVar="-1" Cut="0.0000000000000000e+00" cType="1" res="-3.9563167840242386e-02" rms="3.4846127033233643e-01" purity="1.6564114391803741e-01" nType="-99"/>
        </Node>
      </Node>
    </BinaryTree>
    <BinaryTree type="DecisionTree" boostWeight="1.0000000000000000e+00" itree="22">
      <Node pos="s" depth="0" NCoef="0" IVar="2" Cut="1.9044603109359741e+00" cType="1" res="-2.0793450530618429e-03" rms="3.1283235549926758e-01" purity="4.9371066689491272e-01" nType="0">
        <Node pos="l" depth="1" NCoef="0" IVar="8" Cut="-2.3484022915363312e-01" cType="1" res="5.3823105990886688e-02" rms="3.1616309285163879e-01" purity="6.6338592767715454e-01" nType="0">
          <Node pos="l" depth="2" NCoef="0" IVar="-1" Cut="0.0000000000000000e+00" cType="1" res="-2.6921544224023819e-02" rms="3.1426608562469482e-01" purity="2.7253550291061401e-01" nType="-99"/>
          <Node pos="r" depth="2" NCoef="0" IVar="-1" Cut="0.0000000000000000e+00" cType="1" res="2.7948457747697830e-02" rms="3.0639016628265381e-01" purity="7.6631337404251099e-01" nType="-99"/>
        </Node>
        <Node pos="r" depth="1" NCoef="0" IVar="5" Cut="2.4721601009368896e+00" cType="1" res="-7.8370355069637299e-02" rms="2.9140996932983398e-01" purity="2.6215195655822754e-01" nType="0">
          <Node pos="l" depth="2" NCoef="0" IVar="-1" Cut="0.0000000000000000e+00" cType="1" res="-3.6548998206853867e-02" rms="2.7878367900848389e-01" purity="1.7336547374725342e-01" nType="-99"/>
          <Node pos="r" depth="2" NCoef="0" IVar="-1" Cut="0.0000000000000000e+00" cType="1" res="1.7605612054467201e-02" rms="3.0166620016098022e-01" purity="6.2582373619079590e-01" nType="-99"/>
        </Node>
      </Node>
    </BinaryTree>
    <BinaryTree type="DecisionTree" boostWeight="1.0000000000000000e+00" itree="23">
      <Node pos="s" depth="0" NCoef="0" IVar="5" Cut="1.6411259174346924e+00" cType="1" res="8.7426841491833329e-04" rms="3.0460095405578613e-01" purity="5.0543248653411865e-01" nType="0">
        <Node pos="l" depth="1" NCoef="0" IVar="6" Cut="3.2530705928802490e+00" cType="1" res="-7.6206751167774200e-02" rms="3.0605620145797729e-01" purity="2.5224971771240234e-01" nType="0">
          <Node pos="l" depth="2" NCoef="0" IVar="-1" Cut="0.0000000000000000e+00" cType="1" res="-4.6343233436346054e-02" rms="2.3527431488037109e-01" purity="1.0062265396118164e-01" nType="-99"/>
          <Node pos="r" depth="2" NCoef="0" IVar="-1" Cut="0.0000000000000000e+00" cType="1" res="-8.7580811232328415e-03" rms="3.4376478195190430e-01" purity="3.6908894777297974e-01" nType="-99"/>
        </Node>
        <Node pos="r" depth="1" NCoef="0" IVar="3" Cut="1.6044470071792603e+00" cType="1" res="6.0921221971511841e-02" rms="2.8957790136337280e-01" purity="7.0266461372375488e-01" nType="0">
          <Node pos="l" depth="2" NCoef="0" IVar="-1" Cut="0.0000000000000000e+00" cType="1" res="-2.8640074655413628e-02" rms="3.1193232536315918e-01" purity="2.1260379254817963e-01" nType="-99"/>
          <Node pos="r" depth="2" NCoef="0" IVar="-1" Cut="0.0000000000000000e+00" cType="1" res="3.0513459816575050e-02" rms="2.7536183595657349e-01" purity="7.9331594705581665e-01" nType="-99"/>
        </Node>
      </Node>
    </BinaryTree>
    <BinaryTree type="DecisionTree" boostWeight="1.0000000000000000e+00" itree="24">
      <Node pos="s" depth="0" NCoef="0" IVar="1" Cut="3.5771243572235107e+00" cType="1" res="1.8593699496705085e-04" rms="3.0835810303688049e-01" purity="5.0218188762664795e-01" nType="0">
        <Node pos="l" depth="1" NCoef="0" IVar="3" Cut="1.0497962236404419e+00" cType="1" res="6.0394629836082458e-02" rms="3.0335405468940735e-01" purity="7.7847158908843994e-01" nType="0">
          <Node pos="l" depth="2" NCoef="0" IVar="-1" Cut="0.0000000000000000e+00" cType="1" res="-4.3510988354682922e-02" rms="3.0789569020271301e-01" purity="1.5537090599536896e-01" nType="-99"/>
          <Node pos="r" depth="2" NCoef="0" IVar="-1" Cut="0.0000000000000000e+00" cType="1" res="2.5228776037693024e-02" rms="2.9574462771415710e-01" purity="8.2423567771911621e-01" nType="-99"/>
        </Node>
        <Node pos="r" depth="1" NCoef="0" IVar="8" Cut="6.2259143590927124e-01" cType="1" res="-6.0810342431068420e-02" rms="3.0131834745407104e-01" purity="2.2227810323238373e-01" nType="0">
          <Node pos="l" depth="2" NCoef="0" IVar="-1" Cut="0.0000000000000000e+00" cType="1" res="-2.4514194577932358e-02" rms="2.9524362087249756e-01" purity="1.9354480504989624e-01" nType="-99"/>
          <Node pos="r" depth="2" NCoef="0" IVar="-1" Cut="0.0000000000000000e+00" cType="1" res="3.5610135644674301e-02" rms="3.3844146132469177e-01" purity="7.5349938869476318e-01" nType="-99"/>
        </Node>
      </Node>
    </BinaryTree>
    <BinaryTree type="DecisionTree" boostWeight="1.0000000000000000e+00" itree="25">
      <Node pos="s" depth="0" NCoef="0" IVar="2" Cut="1.9066579341888428e+00" cType="1" res="-3.1409126240760088e-03" rms="3.0410027503967285e-01" purity="4.9754422903060913e-01" nType="0">
        <Node pos="l" depth="1" NCoef="0" IVar="1" Cut="1.0692927360534668e+01" cType="1" res="4.7510158270597458e-02" rms="3.0769315361976624e-01" purity="6.7393976449966431e-01" nType="0">
          <Node pos="l" depth="2" NCoef="0" IVar="-1" Cut="0.0000000000000000e+00" cType="1" res="2.4538397789001465e-02" rms="3.0708852410316467e-01" purity="7.8476297855377197e-01" nType="-99"/>
          <Node pos="r" depth="2" NCoef="0" IVar="-1" Cut="0.0000000000000000e+00" cType="1" res="-3.3894546329975128e-02" rms="2.6837649941444397e-01" purity="1.0205946862697601e-01" nType="-99"/>
        </Node>
        <Node pos="r" depth="1" NCoef="0" IVar="5" Cut="2.3132536411285400e+00" cType="1" res="-7.3232121765613556e-02" rms="2.8455626964569092e-01" purity="2.5344714522361755e-01" nType="0">
          <Node pos="l" depth="2" NCoef="0" IVar="-1" Cut="0.0000000000000000e+00" cType="1" res="-3.5359278321266174e-02" rms="2.6881149411201477e-01" purity="1.5747955441474915e-01" nType="-99"/>
          <Node pos="r" depth="2" NCoef="0" IVar="-1" Cut="0.0000000000000000e+00" cType="1" res="5.7531627826392651e-03" rms="3.1342241168022156e-01" purity="5.6405776739120483e-01" nType="-99"/>
        </Node>
      </Node>
    </BinaryTree>
    <BinaryTree type="DecisionTree" boostWeight="1.0000000000000000e+00" itree="26">
      <Node pos="s" depth="0" NCoef="0" IVar="8" Cut="5.1265630871057510e-02" cType="1" res="-3.3160448074340820e-03" rms="2.9950481653213501e-01" purity="4.9199715256690979e-01" nType="0">
        <Node pos="l" depth="1" NCoef="0" IVar="3" Cut="2.2088053226470947e+00" cType="1" res="-6.2333747744560242e-02" rms="2.8158640861511230e-01" purity="2.6093083620071411e-01" nType="0">
          <Node pos="l" depth="2" NCoef="0" IVar="-1" Cut="0.0000000000000000e+00" cType="1" res="-3.6326821893453598e-02" rms="2.4075193703174591e-01" purity="1.0532540082931519e-01" nType="-99"/>
          <Node pos="r" depth="2" NCoef="0" IVar="-1" Cut="0.0000000000000000e+00" cType="1" res="-2.1165127400308847e-03" rms="3.3802762627601624e-01" purity="5.5079442262649536e-01" nType="-99"/>
        </Node>
        <Node pos="r" depth="1" NCoef="0" IVar="6" Cut="3.1051301956176758e+00" cType="1" res="5.2797667682170868e-02" rms="3.0519267916679382e-01" purity="7.1169382333755493e-01" nType="0">
          <Node pos="l" depth="2" NCoef="0" IVar="-1" Cut="0.0000000000000000e+00" cType="1" res="-1.6206983476877213e-02" rms="3.1844758987426758e-01" purity="4.6996939182281494e-01" nType="-99"/>
          <Node pos="r" depth="2" NCoef="0" IVar="-1" Cut="0.0000000000000000e+00" cType="1" res="2.8297118842601776e-02" rms="2.9289075732231140e-01" purity="7.8989964723587036e-01" nType="-99"/>
        </Node>
      </Node>
    </BinaryTree>
    <BinaryTree type="DecisionTree" boostWeight="1.0000000000000000e+00" itree="27">
      <Node pos="s" depth="0" NCoef="0" IVar="3" Cut="2.1342236995697021e+00" cType="1" res="-1.7202142626047134e-03" rms="3.0105426907539368e-01" purity="4.9924927949905396e-01" nType="0">
        <Node pos="l" depth="1" NCoef="0" IVar="2" Cut="9.5629191398620605e-01" cType="1" res="-5.6686934083700180e-02" rms="2.9708737134933472e-01" purity="2.4907614290714264e-01" nType="0">
          <Node pos="l" depth="2" NCoef="0" IVar="-1" Cut="0.0000000000000000e+00" cType="1" res="5.3994636982679367e-03" rms="3.5780024528503418e-01" purity="4.9644774198532104e-01" nType="-99"/>
          <Node pos="r" depth="2" NCoef="0" IVar="-1" Cut="0.0000000000000000e+00" cType="1" res="-3.1239682808518410e-02" rms="2.6472195982933044e-01" purity="1.5452471375465393e-01" nType="-99"/>
        </Node>
        <Node pos="r" depth="1" NCoef="0" IVar="4" Cut="2.0414471626281738e+00" cType="1" res="5.2909553050994873e-02" rms="2.9496556520462036e-01" purity="7.4788886308670044e-01" nType="0">
          <Node pos="l" depth="2" NCoef="0" IVar="-1" Cut="0.0000000000000000e+00" cType="1" res="-2.0863538607954979e-02" rms="3.5388991236686707e-01" purity="4.6153679490089417e-01" nType="-99"/>
          <Node pos="r" depth="2" NCoef="0" IVar="-1" Cut="0.0000000000000000e+00" cType="1" res="3.2325141131877899e-02" rms="2.6331391930580139e-01" purity="8.3736985921859741e-01" nType="-99"/>
        </Node>
      </Node>
    </BinaryTree>
    <BinaryTree type="DecisionTree" boostWeight="1.0000000000000000e+00" itree="28">
      <Node pos="s" depth="0" NCoef="0" IVar="0" Cut="6.3943583518266678e-03" cType="1" res="4.6840296126902103e-03" rms="2.9167756438255310e-01" purity="5.0069189071655273e-01" nType="0">
        <Node pos="l" depth="1" NCoef="0" IVar="2" Cut="2.8570532798767090e+00" cType="1" res="3.8533084094524384e-02" rms="3.1562992930412292e-01" purity="6.8727159500122070e-01" nType="0">
          <Node pos="l" depth="2" NCoef="0" IVar="-1" Cut="0.0000000000000000e+00" cType="1" res="2.3162122815847397e-02" rms="3.0322375893592834e-01" purity="7.9220068454742432e-01" nType="-99"/>
          <Node pos="r" depth="2" NCoef="0" IVar="-1" Cut="0.0000000000000000e+00" cType="1" res="-1.8501829355955124e-02" rms="3.3473882079124451e-01" purity="3.3415153622627258e-01" nType="-99"/>
        </Node>
        <Node pos="r" depth="1" NCoef="0" IVar="7" Cut="3.1315960884094238e+00" cType="1" res="-7.3400504887104034e-02" rms="2.0683114230632782e-01" purity="7.0281311869621277e-02" nType="0">
          <Node pos="l" depth="2" NCoef="0" IVar="-1" Cut="0.0000000000000000e+00" cType="1" res="-4.2095124721527100e-02" rms="1.7244826257228851e-01" purity="4.0101058781147003e-02" nType="-99"/>
          <Node pos="r" depth="2" NCoef="0" IVar="-1" Cut="0.0000000000000000e+00" cType="1" res="-1.5016321092844009e-02" rms="2.7179741859436035e-01" purity="1.4623764157295227e-01" nType="-99"/>
        </Node>
      </Node>
    </BinaryTree>
    <BinaryTree type="DecisionTree" boostWeight="1.0000000000000000e+00" itree="29">
      <Node pos="s" depth="0" NCoef="0" IVar="8" Cut="3.3823141455650330e-01" cType="1" res="-4.9030724912881851e-03" rms="3.0122169852256775e-01" purity="4.9091225862503052e-01" nType="0">
        <Node pos="l" depth="1" NCoef="0" IVar="4" Cut="1.9859215021133423e+00" cType="1" res="-3.5726077854633331e-02" rms="3.0066436529159546e-01" purity="3.6362174153327942e-01" nType="0">
          <Node pos="l" depth="2" NCoef="0" IVar="-1" Cut="0.0000000000000000e+00" cType="1" res="-3.4943107515573502e-02" rms="2.7491787075996399e-01" purity="1.7880621552467346e-01" nType="-99"/>
          <Node pos="r" depth="2" NCoef="0" IVar="-1" Cut="0.0000000000000000e+00" cType="1" res="5.7583412854000926e-04" rms="3.1070980429649353e-01" purity="4.8418068885803223e-01" nType="-99"/>
        </Node>
        <Node pos="r" depth="1" NCoef="0" IVar="7" Cut="2.5029559135437012e+00" cType="1" res="7.1665070950984955e-02" rms="2.8869548439979553e-01" purity="8.0711776018142700e-01" nType="0">
          <Node pos="l" depth="2" NCoef="0" IVar="-1" Cut="0.0000000000000000e+00" cType="1" res="-2.7760947123169899e-02" rms="3.4936752915382385e-01" purity="4.5378738641738892e-01" nType="-99"/>
          <Node pos="r" depth="2" NCoef="0" IVar="-1" Cut="0.0000000000000000e+00" cType="1" res="3.0946923419833183e-02" rms="2.7586364746093750e-01" purity="8.4341675043106079e-01" nType="-99"/>
        </Node>
      </Node>
    </BinaryTree>
    <BinaryTree type="DecisionTree" boostWeight="1.0000000000000000e+00" itree="30">
      <Node pos="s" depth="0" NCoef="0" IVar="5" Cut="1.3744069337844849e+00" cType="1" res="-2.3646932095289230e-03" rms="2.9343113303184509e-01" purity="4.9357968568801880e-01" nType="0">
        <Node pos="l" depth="1" NCoef="0" IVar="6" Cut="3.4597480297088623e+00" cType="1" res="-6.5992996096611023e-02" rms="2.8428575396537781e-01" purity="2.1461650729179382e-01" nType="0">
          <Node pos="l" depth="2" NCoef="0" IVar="-1" Cut="0.0000000000000000e+00" cType="1" res="-3.9162863045930862e-02" rms="2.4061822891235352e-01" purity="1.0734441131353378e-01" nType="-99"/>
          <Node pos="r" depth="2" NCoef="0" IVar="-1" Cut="0.0000000000000000e+00" cType="1" res="-4.0484047494828701e-03" rms="3.3901590108871460e-01" purity="3.9541038870811462e-01" nType="-99"/>
        </Node>
        <Node pos="r" depth="1" NCoef="0" IVar="1" Cut="1.0734604835510254e+01" cType="1" res="3.0656935647130013e-02" rms="2.9266411066055298e-01" purity="6.3835519552230835e-01" nType="0">
          <Node pos="l" depth="2" NCoef="0" IVar="-1" Cut="0.0000000000000000e+00" cType="1" res="1.9961150363087654e-02" rms="2.8944501280784607e-01" purity="7.6553612947463989e-01" nType="-99"/>
          <Node pos="r" depth="2" NCoef="0" IVar="-1" Cut="0.0000000000000000e+00" cType="1" res="-2.7218677103519440e-02" rms="2.8382375836372375e-01" purity="1.1800301820039749e-01" nType="-99"/>
        </Node>
      </Node>
    </BinaryTree>
    <BinaryTree type="DecisionTree" boostWeight="1.0000000000000000e+00" itree="31">
      <Node pos="s" depth="0" NCoef="0" IVar="8" Cut="-2.3484022915363312e-01" cType="1" res="5.2937339060008526e-03" rms="2.9361957311630249e-01" purity="5.1276999711990356e-01" nType="0">
        <Node pos="l" depth="1" NCoef="0" IVar="8" Cut="-3.4341046214103699e-01" cType="1" res="-7.5144425034523010e-02" rms="2.6160174608230591e-01" purity="1.7982366681098938e-01" nType="0">
          <Node pos="l" depth="2" NCoef="0" IVar="-1" Cut="0.0000000000000000e+00" cType="1" res="-3.9608817547559738e-02" rms="2.4898251891136169e-01" purity="1.4553974568843842e-01" nType="-99"/>
          <Node pos="r" depth="2" NCoef="0" IVar="-1" Cut="0.0000000000000000e+00" cType="1" res="-1.3684723526239395e-02" rms="2.8086823225021362e-01" purity="2.4919921159744263e-01" nType="-99"/>
        </Node>
        <Node pos="r" depth="1" NCoef="0" IVar="2" Cut="4.2655763626098633e+00" cType="1" res="3.1237866729497910e-02" rms="2.9864051938056946e-01" purity="6.2015688419342041e-01" nType="0">
          <Node pos="l" depth="2" NCoef="0" IVar="-1" Cut="0.0000000000000000e+00" cType="1" res="1.7945483326911926e-02" rms="2.9626104235649109e-01" purity="6.8767577409744263e-01" nType="-99"/>
          <Node pos="r" depth="2" NCoef="0" IVar="-1" Cut="0.0000000000000000e+00" cType="1" res="-2.8965935111045837e-02" rms="2.8696745634078979e-01" purity="2.0604296028614044e-01" nType="-99"/>
        </Node>
      </Node>
    </BinaryTree>
    <BinaryTree type="DecisionTree" boostWeight="1.0000000000000000e+00" itree="32">
      <Node pos="s" depth="0" NCoef="0" IVar="5" Cut="2.0300540924072266e+00" cType="1" res="-2.3137938114814460e-05" rms="2.9004457592964172e-01" purity="4.9942290782928467e-01" nType="0">
        <Node pos="l" depth="1" NCoef="0" IVar="2" Cut="1.4316508769989014e+00" cType="1" res="-3.9480250328779221e-02" rms="2.9460978507995605e-01" purity="3.2568895816802979e-01" nType="0">
          <Node pos="l" depth="2" NCoef="0" IVar="-1" Cut="0.0000000000000000e+00" cType="1" res="4.4728522188961506e-03" rms="3.2634049654006958e-01" purity="5.5864483118057251e-01" nType="-99"/>
          <Node pos="r" depth="2" NCoef="0" IVar="-1" Cut="0.0000000000000000e+00" cType="1" res="-3.1060947105288506e-02" rms="2.6361030340194702e-01" purity="1.6146969795227051e-01" nType="-99"/>
        </Node>
        <Node pos="r" depth="1" NCoef="0" IVar="6" Cut="2.8572993278503418e+00" cType="1" res="5.3368356078863144e-02" rms="2.7487611770629883e-01" purity="7.3451137542724609e-01" nType="0">
          <Node pos="l" depth="2" NCoef="0" IVar="-1" Cut="0.0000000000000000e+00" cType="1" res="-2.4888655170798302e-02" rms="3.3597177267074585e-01" purity="3.7867873907089233e-01" nType="-99"/>
          <Node pos="r" depth="2" NCoef="0" IVar="-1" Cut="0.0000000000000000e+00" cType="1" res="2.9369091615080833e-02" rms="2.5782799720764160e-01" purity="7.9235595464706421e-01" nType="-99"/>
        </Node>
      </Node>
    </BinaryTree>
    <BinaryTree type="DecisionTree" boostWeight="1.0000000000000000e+00" itree="33">
      <Node pos="s" depth="0" NCoef="0" IVar="3" Cut="1.2386401891708374e+00" cType="1" res="-1.2506833299994469e-03" rms="2.9372218251228333e-01" purity="4.9775183200836182e-01" nType="0">
        <Node pos="l" depth="1" NCoef="0" IVar="6" Cut="2.9130737781524658e+00" cType="1" res="-1.0559270530939102e-01" rms="2.0648385584354401e-01" purity="7.0315793156623840e-02" nType="0">
          <Node pos="l" depth="2" NCoef="0" IVar="-1" Cut="0.0000000000000000e+00" cType="1" res="-5.9246499091386795e-02" rms="1.7509479820728302e-01" purity="3.4310240298509598e-02" nType="-99"/>
          <Node pos="r" depth="2" NCoef="0" IVar="-1" Cut="0.0000000000000000e+00" cType="1" res="-3.5844516009092331e-02" rms="2.1448092162609100e-01" purity="8.5607230663299561e-02" nType="-99"/>
        </Node>
        <Node pos="r" depth="1" NCoef="0" IVar="8" Cut="-2.3484022915363312e-01" cType="1" res="1.5373491682112217e-02" rms="3.0201688408851624e-01" purity="5.6585258245468140e-01" nType="0">
          <Node pos="l" depth="2" NCoef="0" IVar="-1" Cut="0.0000000000000000e+00" cType="1" res="-2.5368791073560715e-02" rms="2.7805578708648682e-01" purity="1.9910474121570587e-01" nType="-99"/>
          <Node pos="r" depth="2" NCoef="0" IVar="-1" Cut="0.0000000000000000e+00" cType="1" res="1.4982488937675953e-02" rms="3.0527490377426147e-01" purity="6.8752121925354004e-01" nType="-99"/>
        </Node>
      </Node>
    </BinaryTree>
    <BinaryTree type="DecisionTree" boostWeight="1.0000000000000000e+00" itree="34">
      <Node pos="s" depth="0" NCoef="0" IVar="1" Cut="8.3491764068603516e+00" cType="1" res="3.7207533605396748e-03" rms="2.8710991144180298e-01" purity="5.0300079584121704e-01" nType="0">
        <Node pos="l" depth="1" NCoef="0" IVar="7" Cut="2.4473187923431396e+00" cType="1" res="3.2225552946329117e-02" rms="3.0163523554801941e-01" purity="6.8798661231994629e-01" nType="0">
          <Node pos="l" depth="2" NCoef="0" IVar="-1" Cut="0.0000000000000000e+00" cType="1" res="-2.7883393689990044e-02" rms="3.3096969127655029e-01" purity="3.0539858341217041e-01" nType="-99"/>
          <Node pos="r" depth="2" NCoef="0" IVar="-1" Cut="0.0000000000000000e+00" cType="1" res="1.8365975469350815e-02" rms="2.9259705543518066e-01" purity="7.4569684267044067e-01" nType="-99"/>
        </Node>
        <Node pos="r" depth="1" NCoef="0" IVar="0" Cut="2.2890651598572731e-03" cType="1" res="-6.0252171009778976e-02" rms="2.3942334949970245e-01" purity="8.7839670479297638e-02" nType="0">
          <Node pos="l" depth="2" NCoef="0" IVar="-1" Cut="0.0000000000000000e+00" cType="1" res="-3.5524163395166397e-02" rms="3.9902210235595703e-01" purity="3.0008733272552490e-01" nType="-99"/>
          <Node pos="r" depth="2" NCoef="0" IVar="-1" Cut="0.0000000000000000e+00" cType="1" res="-2.6986137032508850e-02" rms="2.1214507520198822e-01" purity="6.4560592174530029e-02" nType="-99"/>
        </Node>
      </Node>
    </BinaryTree>
    <BinaryTree type="DecisionTree" boostWeight="1.0000000000000000e+00" itree="35">
      <Node pos="s" depth="0" NCoef="0" IVar="8" Cut="4.5284041762351990e-01" cType="1" res="1.8536715069785714e-03" rms="2.8884452581405640e-01" purity="5.0067132711410522e-01" nType="0">
        <Node pos="l" depth="1" NCoef="0" IVar="2" Cut="1.4288563728332520e+00" cType="1" res="-2.0061820745468140e-02" rms="2.9577746987342834e-01" purity="4.0243914723396301e-01" nType="0">
          <Node pos="l" depth="2" NCoef="0" IVar="-1" Cut="0.0000000000000000e+00" cType="1" res="9.3805044889450073e-03" rms="3.1623217463493347e-01" purity="6.2392741441726685e-01" nType="-99"/>
          <Node pos="r" depth="2" NCoef="0" IVar="-1" Cut="0.0000000000000000e+00" cType="1" res="-2.3386137560009956e-02" rms="2.7346712350845337e-01" purity="2.2971060872077942e-01" nType="-99"/>
        </Node>
        <Node pos="r" depth="1" NCoef="0" IVar="6" Cut="3.0899045467376709e+00" cType="1" res="8.3342932164669037e-02" rms="2.4481382966041565e-01" purity="8.6593210697174072e-01" nType="0">
          <Node pos="l" depth="2" NCoef="0" IVar="-1" Cut="0.0000000000000000e+00" cType="1" res="-8.1755779683589935e-03" rms="3.0711928009986877e-01" purity="6.2190324068069458e-01" nType="-99"/>
          <Node pos="r" depth="2" NCoef="0" IVar="-1" Cut="0.0000000000000000e+00" cType="1" res="4.0728066116571426e-02" rms="2.2630222141742706e-01" purity="9.1019797325134277e-01" nType="-99"/>
        </Node>
      </Node>
    </BinaryTree>
    <BinaryTree type="DecisionTree" boostWeight="1.0000000000000000e+00" itree="36">
      <Node pos="s" depth="0" NCoef="0" IVar="1" Cut="4.7706532478332520e+00" cType="1" res="1.6809218795970082e-03" rms="2.8156992793083191e-01" purity="4.9612221121788025e-01" nType="0">
        <Node pos="l" depth="1" NCoef="0" IVar="5" Cut="1.0178893804550171e+00" cType="1" res="3.5469215363264084e-02" rms="2.8759956359863281e-01" purity="7.5045478343963623e-01" nType="0">
          <Node pos="l" depth="2" NCoef="0" IVar="-1" Cut="0.0000000000000000e+00" cType="1" res="-2.1931597962975502e-02" rms="3.5288336873054504e-01" purity="3.3902403712272644e-01" nType="-99"/>
          <Node pos="r" depth="2" NCoef="0" IVar="-1" Cut="0.0000000000000000e+00" cType="1" res="2.1791772916913033e-02" rms="2.6959890127182007e-01" purity="8.2361179590225220e-01" nType="-99"/>
        </Node>
        <Node pos="r" depth="1" NCoef="0" IVar="4" Cut="2.0738389492034912e+00" cType="1" res="-4.1989348828792572e-02" rms="2.6732638478279114e-01" purity="1.6740566492080688e-01" nType="0">
          <Node pos="l" depth="2" NCoef="0" IVar="-1" Cut="0.0000000000000000e+00" cType="1" res="-3.5157162696123123e-02" rms="2.2279323637485504e-01" purity="7.7737264335155487e-02" nType="-99"/>
          <Node pos="r" depth="2" NCoef="0" IVar="-1" Cut="0.0000000000000000e+00" cType="1" res="-4.1991681791841984e-03" rms="3.0199918150901794e-01" purity="2.5656026601791382e-01" nType="-99"/>
        </Node>
      </Node>
    </BinaryTree>
    <BinaryTree type="DecisionTree" boostWeight="1.0000000000000000e+00" itree="37">
      <Node pos="s" depth="0" NCoef="0" IVar="3" Cut="2.2466053962707520e+00" cType="1" res="3.8063337560743093e-03" rms="2.8575143218040466e-01" purity="5.0744730234146118e-01" nType="0">
        <Node pos="l" depth="1" NCoef="0" IVar="8" Cut="6.2184655666351318e-01" cType="1" res="-2.9883114621043205e-02" rms="2.9511737823486328e-01" purity="2.8479817509651184e-01" nType="0">
          <Node pos="l" depth="2" NCoef="0" IVar="-1" Cut="0.0000000000000000e+00" cType="1" res="-1.6751730814576149e-02" rms="2.9279974102973938e-01" purity="2.3644964396953583e-01" nType="-99"/>
          <Node pos="r" depth="2" NCoef="0" IVar="-1" Cut="0.0000000000000000e+00" cType="1" res="3.3609848469495773e-02" rms="2.8686574101448059e-01" purity="8.2778394222259521e-01" nType="-99"/>
        </Node>
        <Node pos="r" depth="1" NCoef="0" IVar="4" Cut="2.0137934684753418e+00" cType="1" res="4.4740907847881317e-02" rms="2.6830732822418213e-01" purity="7.7797859907150269e-01" nType="0">
          <Node pos="l" depth="2" NCoef="0" IVar="-1" Cut="0.0000000000000000e+00" cType="1" res="-1.5150754712522030e-02" rms="3.1353992223739624e-01" purity="4.7673720121383667e-01" nType="-99"/>
          <Node pos="r" depth="2" NCoef="0" IVar="-1" Cut="0.0000000000000000e+00" cType="1" res="2.9329739511013031e-02" rms="2.5039923191070557e-01" purity="8.5611045360565186e-01" nType="-99"/>
        </Node>
      </Node>
    </BinaryTree>
    <BinaryTree type="DecisionTree" boostWeight="1.0000000000000000e+00" itree="38">
      <Node pos="s" depth="0" NCoef="0" IVar="2" Cut="3.8075103759765625e+00" cType="1" res="-4.7853603027760983e-03" rms="2.8525131940841675e-01" purity="4.8987406492233276e-01" nType="0">
        <Node pos="l" depth="1" NCoef="0" IVar="5" Cut="1.0102792978286743e+00" cType="1" res="1.3588047586381435e-02" rms="2.9095694422721863e-01" purity="5.7870191335678101e-01" nType="0">
          <Node pos="l" depth="2" NCoef="0" IVar="-1" Cut="0.0000000000000000e+00" cType="1" res="-2.5825660675764084e-02" rms="2.9041153192520142e-01" purity="1.9480639696121216e-01" nType="-99"/>
          <Node pos="r" depth="2" NCoef="0" IVar="-1" Cut="0.0000000000000000e+00" cType="1" res="1.3295765966176987e-02" rms="2.8782853484153748e-01" purity="6.6916638612747192e-01" nType="-99"/>
        </Node>
        <Node pos="r" depth="1" NCoef="0" IVar="4" Cut="2.7498838901519775e+00" cType="1" res="-7.5368843972682953e-02" rms="2.4991920590400696e-01" purity="1.4863207936286926e-01" nType="0">
          <Node pos="l" depth="2" NCoef="0" IVar="-1" Cut="0.0000000000000000e+00" cType="1" res="-4.1543930768966675e-02" rms="2.3710656166076660e-01" purity="9.9264137446880341e-02" nType="-99"/>
          <Node pos="r" depth="2" NCoef="0" IVar="-1" Cut="0.0000000000000000e+00" cType="1" res="-5.8192214928567410e-03" rms="2.7840945124626160e-01" purity="3.0619770288467407e-01" nType="-99"/>
        </Node>
      </Node>
    </BinaryTree>
    <BinaryTree type="DecisionTree" boostWeight="1.0000000000000000e+00" itree="39">
      <Node pos="s" depth="0" NCoef="0" IVar="1" Cut="2.3852422237396240e+00" cType="1" res="-5.7317181490361691e-03" rms="2.8202968835830688e-01" purity="4.9617317318916321e-01" nType="0">
        <Node pos="l" depth="1" NCoef="0" IVar="7" Cut="2.4344854354858398e+00" cType="1" res="4.1918747127056122e-02" rms="2.7309814095497131e-01" purity="8.1301659345626831e-01" nType="0">
          <Node pos="l" depth="2" NCoef="0" IVar="-1" Cut="0.0000000000000000e+00" cType="1" res="-2.6325844228267670e-02" rms="3.5655423998832703e-01" purity="3.9702725410461426e-01" nType="-99"/>
          <Node pos="r" depth="2" NCoef="0" IVar="-1" Cut="0.0000000000000000e+00" cType="1" res="2.3109028115868568e-02" rms="2.6066812872886658e-01" purity="8.5196995735168457e-01" nType="-99"/>
        </Node>
        <Node pos="r" depth="1" NCoef="0" IVar="8" Cut="6.2050622701644897e-01" cType="1" res="-3.6954302340745926e-02" rms="2.8341999650001526e-01" purity="2.8856405615806580e-01" nType="0">
          <Node pos="l" depth="2" NCoef="0" IVar="-1" Cut="0.0000000000000000e+00" cType="1" res="-2.0378604531288147e-02" rms="2.8058582544326782e-01" purity="2.4536094069480896e-01" nType="-99"/>
          <Node pos="r" depth="2" NCoef="0" IVar="-1" Cut="0.0000000000000000e+00" cType="1" res="3.4331105649471283e-02" rms="2.8341856598854065e-01" purity="8.3374243974685669e-01" nType="-99"/>
        </Node>
      </Node>
    </BinaryTree>
    <BinaryTree type="DecisionTree" boostWeight="1.0000000000000000e+00" itree="40">
      <Node pos="s" depth="0" NCoef="0" IVar="2" Cut="9.5589911937713623e-01" cType="1" res="7.3930475628003478e-04" rms="2.8206026554107666e-01" purity="5.0114715099334717e-01" nType="0">
        <Node pos="l" depth="1" NCoef="0" IVar="1" Cut="1.0706288337707520e+01" cType="1" res="4.4107664376497269e-02" rms="2.7652144432067871e-01" purity="7.3722892999649048e-01" nType="0">
          <Node pos="l" depth="2" NCoef="0" IVar="-1" Cut="0.0000000000000000e+00" cType="1" res="2.6358973234891891e-02" rms="2.7076935768127441e-01" purity="8.3938390016555786e-01" nType="-99"/>
          <Node pos="r" depth="2" NCoef="0" IVar="-1" Cut="0.0000000000000000e+00" cType="1" res="-3.2516069710254669e-02" rms="2.7914726734161377e-01" purity="9.6349902451038361e-02" nType="-99"/>
        </Node>
        <Node pos="r" depth="1" NCoef="0" IVar="8" Cut="6.2674945592880249e-01" cType="1" res="-2.3530378937721252e-02" rms="2.8221946954727173e-01" purity="3.6903169751167297e-01" nType="0">
          <Node pos="l" depth="2" NCoef="0" IVar="-1" Cut="0.0000000000000000e+00" cType="1" res="-1.4795942232012749e-02" rms="2.8418394923210144e-01" purity="3.2041180133819580e-01" nType="-99"/>
          <Node pos="r" depth="2" NCoef="0" IVar="-1" Cut="0.0000000000000000e+00" cType="1" res="3.7293676286935806e-02" rms="2.2936415672302246e-01" purity="8.8076120615005493e-01" nType="-99"/>
        </Node>
      </Node>
    </BinaryTree>
    <BinaryTree type="DecisionTree" boostWeight="1.0000000000000000e+00" itree="41">
      <Node pos="s" depth="0" NCoef="0" IVar="1" Cut="2.3854875564575195e+00" cType="1" res="-2.4029475171118975e-03" rms="2.8287824988365173e-01" purity="4.9826556444168091e-01" nType="0">
        <Node pos="l" depth="1" NCoef="0" IVar="3" Cut="1.2126317024230957e+00" cType="1" res="3.4671865403652191e-02" rms="2.6951429247856140e-01" purity="8.0941349267959595e-01" nType="0">
          <Node pos="l" depth="2" NCoef="0" IVar="-1" Cut="0.0000000000000000e+00" cType="1" res="-2.3435082286596298e-02" rms="3.1669345498085022e-01" purity="2.4632489681243896e-01" nType="-99"/>
          <Node pos="r" depth="2" NCoef="0" IVar="-1" Cut="0.0000000000000000e+00" cType="1" res="2.0143251866102219e-02" rms="2.6211091876029968e-01" purity="8.6151367425918579e-01" nType="-99"/>
        </Node>
        <Node pos="r" depth="1" NCoef="0" IVar="6" Cut="3.9308097362518311e+00" cType="1" res="-2.6929587125778198e-02" rms="2.8877818584442139e-01" purity="2.9242733120918274e-01" nType="0">
          <Node pos="l" depth="2" NCoef="0" IVar="-1" Cut="0.0000000000000000e+00" cType="1" res="-8.7421648204326630e-03" rms="2.8347891569137573e-01" purity="2.8992989659309387e-01" nType="-99"/>
          <Node pos="r" depth="2" NCoef="0" IVar="-1" Cut="0.0000000000000000e+00" cType="1" res="-4.8012603074312210e-02" rms="3.4938079118728638e-01" purity="3.3748710155487061e-01" nType="-99"/>
        </Node>
      </Node>
    </BinaryTree>
    <BinaryTree type="DecisionTree" boostWeight="1.0000000000000000e+00" itree="42">
      <Node pos="s" depth="0" NCoef="0" IVar="3" Cut="2.4847483634948730e+00" cType="1" res="5.3064920939505100e-03" rms="2.8099530935287476e-01" purity="5.0671118497848511e-01" nType="0">
        <Node pos="l" depth="1" NCoef="0" IVar="8" Cut="3.4681156277656555e-01" cType="1" res="-1.7968170344829559e-02" rms="2.9316467046737671e-01" purity="3.3670556545257568e-01" nType="0">
          <Node pos="l" depth="2" NCoef="0" IVar="-1" Cut="0.0000000000000000e+00" cType="1" res="-1.5276874415576458e-02" rms="2.8701624274253845e-01" purity="2.2980511188507080e-01" nType="-99"/>
          <Node pos="r" depth="2" NCoef="0" IVar="-1" Cut="0.0000000000000000e+00" cType="1" res="1.5002929605543613e-02" rms="3.0682289600372314e-01" purity="7.2458434104919434e-01" nType="-99"/>
        </Node>
        <Node pos="r" depth="1" NCoef="0" IVar="4" Cut="2.1263637542724609e+00" cType="1" res="4.9613408744335175e-02" rms="2.5032553076744080e-01" purity="8.3034312725067139e-01" nType="0">
          <Node pos="l" depth="2" NCoef="0" IVar="-1" Cut="0.0000000000000000e+00" cType="1" res="-1.5056007541716099e-02" rms="3.1883296370506287e-01" purity="5.3969347476959229e-01" nType="-99"/>
          <Node pos="r" depth="2" NCoef="0" IVar="-1" Cut="0.0000000000000000e+00" cType="1" res="3.4137368202209473e-02" rms="2.2634604573249817e-01" purity="8.9811515808105469e-01" nType="-99"/>
        </Node>
      </Node>
    </BinaryTree>
    <BinaryTree type="DecisionTree" boostWeight="1.0000000000000000e+00" itree="43">
      <Node pos="s" depth="0" NCoef="0" IVar="2" Cut="3.8075978755950928e+00" cType="1" res="-3.3376589417457581e-03" rms="2.8066420555114746e-01" purity="4.9362483620643616e-01" nType="0">
        <Node pos="l" depth="1" NCoef="0" IVar="7" Cut="2.2437312602996826e+00" cType="1" res="1.2524887919425964e-02" rms="2.8971922397613525e-01" purity="5.8253639936447144e-01" nType="0">
          <Node pos="l" depth="2" NCoef="0" IVar="-1" Cut="0.0000000000000000e+00" cType="1" res="-4.2304981499910355e-02" rms="2.4848204851150513e-01" purity="1.4003826677799225e-01" nType="-99"/>
          <Node pos="r" depth="2" NCoef="0" IVar="-1" Cut="0.0000000000000000e+00" cType="1" res="9.0129468590021133e-03" rms="2.9082185029983521e-01" purity="6.1636596918106079e-01" nType="-99"/>
        </Node>
        <Node pos="r" depth="1" NCoef="0" IVar="4" Cut="2.5283679962158203e+00" cType="1" res="-6.5338954329490662e-02" rms="2.3185594379901886e-01" purity="1.4609985053539276e-01" nType="0">
          <Node pos="l" depth="2" NCoef="0" IVar="-1" Cut="0.0000000000000000e+00" cType="1" res="-3.9280038326978683e-02" rms="2.2231988608837128e-01" purity="8.9352756738662720e-02" nType="-99"/>
          <Node pos="r" depth="2" NCoef="0" IVar="-1" Cut="0.0000000000000000e+00" cType="1" res="-1.4741873368620872e-02" rms="2.4797029793262482e-01" purity="2.6607847213745117e-01" nType="-99"/>
        </Node>
      </Node>
    </BinaryTree>
    <BinaryTree type="DecisionTree" boostWeight="1.0000000000000000e+00" itree="44">
      <Node pos="s" depth="0" NCoef="0" IVar="8" Cut="2.4101249873638153e-01" cType="1" res="-2.3031905293464661e-03" rms="2.8041860461235046e-01" purity="5.0343972444534302e-01" nType="0">
        <Node pos="l" depth="1" NCoef="0" IVar="6" Cut="3.8514311313629150e+00" cType="1" res="-2.8272924944758415e-02" rms="2.8381422162055969e-01" purity="3.3219024538993835e-01" nType="0">
          <Node pos="l" depth="2" NCoef="0" IVar="-1" Cut="0.0000000000000000e+00" cType="1" res="-9.7479512915015221e-03" rms="2.7948468923568726e-01" purity="3.3340513706207275e-01" nType="-99"/>
          <Node pos="r" depth="2" NCoef="0" IVar="-1" Cut="0.0000000000000000e+00" cType="1" res="-5.3239088505506516e-02" rms="3.3056116104125977e-01" purity="3.1037363409996033e-01" nType="-99"/>
        </Node>
        <Node pos="r" depth="1" NCoef="0" IVar="6" Cut="2.8888599872589111e+00" cType="1" res="4.2080432176589966e-02" rms="2.6877057552337646e-01" purity="7.9611396789550781e-01" nType="0">
          <Node pos="l" depth="2" NCoef="0" IVar="-1" Cut="0.0000000000000000e+00" cType="1" res="-3.2307203859090805e-02" rms="3.3407354354858398e-01" purity="4.5298796892166138e-01" nType="-99"/>
          <Node pos="r" depth="2" NCoef="0" IVar="-1" Cut="0.0000000000000000e+00" cType="1" res="2.3026619106531143e-02" rms="2.5989478826522827e-01" purity="8.2328718900680542e-01" nType="-99"/>
        </Node>
      </Node>
    </BinaryTree>
    <BinaryTree type="DecisionTree" boostWeight="1.0000000000000000e+00" itree="45">
      <Node pos="s" depth="0" NCoef="0" IVar="6" Cut="2.9966857433319092e+00" cType="1" res="2.7027369942516088e-03" rms="2.8318968415260315e-01" purity="5.0257700681686401e-01" nType="0">
        <Node pos="l" depth="1" NCoef="0" IVar="3" Cut="1.0788455009460449e+00" cType="1" res="-5.9229493141174316e-02" rms="2.5771185755729675e-01" purity="2.6767429709434509e-01" nType="0">
          <Node pos="l" depth="2" NCoef="0" IVar="-1" Cut="0.0000000000000000e+00" cType="1" res="-6.2938570976257324e-02" rms="1.5354646742343903e-01" purity="1.8138632178306580e-02" nType="-99"/>
          <Node pos="r" depth="2" NCoef="0" IVar="-1" Cut="0.0000000000000000e+00" cType="1" res="-1.7236674204468727e-02" rms="2.7573367953300476e-01" purity="3.3556213974952698e-01" nType="-99"/>
        </Node>
        <Node pos="r" depth="1" NCoef="0" IVar="8" Cut="5.0122898072004318e-02" cType="1" res="1.8305739387869835e-02" rms="2.8715598583221436e-01" purity="5.6175756454467773e-01" nType="0">
          <Node pos="l" depth="2" NCoef="0" IVar="-1" Cut="0.0000000000000000e+00" cType="1" res="-7.7483286149799824e-03" rms="2.8650462627410889e-01" purity="3.0782258510589600e-01" nType="-99"/>
          <Node pos="r" depth="2" NCoef="0" IVar="-1" Cut="0.0000000000000000e+00" cType="1" res="1.9904302433133125e-02" rms="2.8441721200942993e-01" purity="7.7053862810134888e-01" nType="-99"/>
        </Node>
      </Node>
    </BinaryTree>
    <BinaryTree type="DecisionTree" boostWeight="1.0000000000000000e+00" itree="46">
      <Node pos="s" depth="0" NCoef="0" IVar="3" Cut="2.0512335300445557e+00" cType="1" res="-3.1932010315358639e-03" rms="2.7644878625869751e-01" purity="4.9591696262359619e-01" nType="0">
        <Node pos="l" depth="1" NCoef="0" IVar="6" Cut="3.0551946163177490e+00" cType="1" res="-3.5504814237356186e-02" rms="2.6996976137161255e-01" purity="2.2569663822650909e-01" nType="0">
          <Node pos="l" depth="2" NCoef="0" IVar="-1" Cut="0.0000000000000000e+00" cType="1" res="-3.8482010364532471e-02" rms="2.3175531625747681e-01" purity="1.2574213743209839e-01" nType="-99"/>
          <Node pos="r" depth="2" NCoef="0" IVar="-1" Cut="0.0000000000000000e+00" cType="1" res="-4.1958685033023357e-03" rms="2.8567051887512207e-01" purity="2.8087431192398071e-01" nType="-99"/>
        </Node>
        <Node pos="r" depth="1" NCoef="0" IVar="4" Cut="2.0414471626281738e+00" cType="1" res="2.4555547162890434e-02" rms="2.7892231941223145e-01" purity="7.2797828912734985e-01" nType="0">
          <Node pos="l" depth="2" NCoef="0" IVar="-1" Cut="0.0000000000000000e+00" cType="1" res="-1.6724042594432831e-02" rms="3.1766432523727417e-01" purity="4.4595152139663696e-01" nType="-99"/>
          <Node pos="r" depth="2" NCoef="0" IVar="-1" Cut="0.0000000000000000e+00" cType="1" res="2.2891892120242119e-02" rms="2.5958400964736938e-01" purity="8.2792121171951294e-01" nType="-99"/>
        </Node>
      </Node>
    </BinaryTree>
    <BinaryTree type="DecisionTree" boostWeight="1.0000000000000000e+00" itree="47">
      <Node pos="s" depth="0" NCoef="0" IVar="7" Cut="2.4888055324554443e+00" cType="1" res="5.7188281789422035e-03" rms="2.7353888750076294e-01" purity="5.1055085659027100e-01" nType="0">
        <Node pos="l" depth="1" NCoef="0" IVar="6" Cut="3.4915771484375000e+00" cType="1" res="-5.9869952499866486e-02" rms="2.5651317834854126e-01" purity="1.9720108807086945e-01" nType="0">
          <Node pos="l" depth="2" NCoef="0" IVar="-1" Cut="0.0000000000000000e+00" cType="1" res="-3.6211114376783371e-02" rms="2.4326871335506439e-01" purity="1.3823707401752472e-01" nType="-99"/>
          <Node pos="r" depth="2" NCoef="0" IVar="-1" Cut="0.0000000000000000e+00" cType="1" res="2.9077145736664534e-03" rms="3.0121883749961853e-01" purity="4.6907547116279602e-01" nType="-99"/>
        </Node>
        <Node pos="r" depth="1" NCoef="0" IVar="1" Cut="9.8416223526000977e+00" cType="1" res="1.9985703751444817e-02" rms="2.7504044771194458e-01" purity="5.7871067523956299e-01" nType="0">
          <Node pos="l" depth="2" NCoef="0" IVar="-1" Cut="0.0000000000000000e+00" cType="1" res="1.6554282978177071e-02" rms="2.8245377540588379e-01" purity="7.2958469390869141e-01" nType="-99"/>
          <Node pos="r" depth="2" NCoef="0" IVar="-1" Cut="0.0000000000000000e+00" cType="1" res="-2.3227775469422340e-02" rms="2.3883716762065887e-01" purity="8.7016649544239044e-02" nType="-99"/>
        </Node>
      </Node>
    </BinaryTree>
    <BinaryTree type="DecisionTree" boostWeight="1.0000000000000000e+00" itree="48">
      <Node pos="s" depth="0" NCoef="0" IVar="7" Cut="2.4767882823944092e+00" cType="1" res="-8.0712995259091258e-04" rms="2.7279084920883179e-01" purity="5.0686967372894287e-01" nType="0">
        <Node pos="l" depth="1" NCoef="0" IVar="6" Cut="3.4368591308593750e+00" cType="1" res="-6.4583525061607361e-02" rms="2.5699430704116821e-01" purity="1.7565715312957764e-01" nType="0">
          <Node pos="l" depth="2" NCoef="0" IVar="-1" Cut="0.0000000000000000e+00" cType="1" res="-4.0430512279272079e-02" rms="2.4368485808372498e-01" purity="1.1320997774600983e-01" nType="-99"/>
          <Node pos="r" depth="2" NCoef="0" IVar="-1" Cut="0.0000000000000000e+00" cType="1" res="-3.0713663436472416e-03" rms="2.9142221808433533e-01" purity="3.9174637198448181e-01" nType="-99"/>
        </Node>
        <Node pos="r" depth="1" NCoef="0" IVar="6" Cut="2.8658471107482910e+00" cType="1" res="1.2772533111274242e-02" rms="2.7412825822830200e-01" purity="5.7739347219467163e-01" nType="0">
          <Node pos="l" depth="2" NCoef="0" IVar="-1" Cut="0.0000000000000000e+00" cType="1" res="-3.3445816487073898e-02" rms="2.6705825328826904e-01" purity="2.4526585638523102e-01" nType="-99"/>
          <Node pos="r" depth="2" NCoef="0" IVar="-1" Cut="0.0000000000000000e+00" cType="1" res="1.1763102374970913e-02" rms="2.7279338240623474e-01" purity="6.2757885456085205e-01" nType="-99"/>
        </Node>
      </Node>
    </BinaryTree>
    <BinaryTree type="DecisionTree" boostWeight="1.0000000000000000e+00" itree="49">
      <Node pos="s" depth="0" NCoef="0" IVar="8" Cut="-1.3446041941642761e-01" cType="1" res="-5.4157739505171776e-03" rms="2.7952563762664795e-01" purity="4.9605330824851990e-01" nType="0">
        <Node pos="l" depth="1" NCoef="0" IVar="8" Cut="-6.2066441774368286e-01" cType="1" res="-4.3201856315135956e-02" rms="2.5958454608917236e-01" purity="2.0175552368164062e-01" nType="0">
          <Node pos="l" depth="2" NCoef="0" IVar="-1" Cut="0.0000000000000000e+00" cType="1" res="-6.3514530658721924e-02" rms="2.1413409709930420e-01" purity="4.5625727623701096e-02" nType="-99"/>
          <Node pos="r" depth="2" NCoef="0" IVar="-1" Cut="0.0000000000000000e+00" cType="1" res="-1.7798613756895065e-02" rms="2.6244953274726868e-01" purity="2.1762114763259888e-01" nType="-99"/>
        </Node>
        <Node pos="r" depth="1" NCoef="0" IVar="7" Cut="2.4894709587097168e+00" cType="1" res="1.3379766605794430e-02" rms="2.8708636760711670e-01" purity="6.4244288206100464e-01" nType="0">
          <Node pos="l" depth="2" NCoef="0" IVar="-1" Cut="0.0000000000000000e+00" cType="1" res="-2.9539085924625397e-02" rms="2.8907412290573120e-01" purity="2.3921255767345428e-01" nType="-99"/>
          <Node pos="r" depth="2" NCoef="0" IVar="-1" Cut="0.0000000000000000e+00" cType="1" res="1.2603080831468105e-02" rms="2.8414431214332581e-01" purity="7.1231198310852051e-01" nType="-99"/>
        </Node>
      </Node>
    </BinaryTree>
    <BinaryTree type="DecisionTree" boostWeight="1.0000000000000000e+00" itree="50">
      <Node pos="s" depth="0" NCoef="0" IVar="8" Cut="4.4012418389320374e-01" cType="1" res="-1.0442737257108092e-03" rms="2.7529004216194153e-01" purity="4.9831506609916687e-01" nType="0">
        <Node pos="l" depth="1" NCoef="0" IVar="4" Cut="2.3289248943328857e+00" cType="1" res="-1.5037649311125278e-02" rms="2.8289625048637390e-01" purity="3.9757353067398071e-01" nType="0">
          <Node pos="l" depth="2" NCoef="0" IVar="-1" Cut="0.0000000000000000e+00" cType="1" res="-1.8460096791386604e-02" rms="2.7834582328796387e-01" purity="2.5606283545494080e-01" nType="-99"/>
          <Node pos="r" depth="2" NCoef="0" IVar="-1" Cut="0.0000000000000000e+00" cType="1" res="6.2948479317128658e-03" rms="2.8517132997512817e-01" purity="5.5644458532333374e-01" nType="-99"/>
        </Node>
        <Node pos="r" depth="1" NCoef="0" IVar="7" Cut="2.7310364246368408e+00" cType="1" res="4.9006797373294830e-02" rms="2.3956900835037231e-01" purity="8.5864436626434326e-01" nType="0">
          <Node pos="l" depth="2" NCoef="0" IVar="-1" Cut="0.0000000000000000e+00" cType="1" res="-1.9211003091186285e-03" rms="3.1193026900291443e-01" purity="6.4272063970565796e-01" nType="-99"/>
          <Node pos="r" depth="2" NCoef="0" IVar="-1" Cut="0.0000000000000000e+00" cType="1" res="3.1985338777303696e-02" rms="2.1605730056762695e-01" purity="9.1169804334640503e-01" nType="-99"/>
        </Node>
      </Node>
    </BinaryTree>
    <BinaryTree type="DecisionTree" boostWeight="1.0000000000000000e+00" itree="51">
      <Node pos="s" depth="0" NCoef="0" IVar="5" Cut="2.0300540924072266e+00" cType="1" res="3.3728440757840872e-03" rms="2.8091457486152649e-01" purity="5.0677210092544556e-01" nType="0">
        <Node pos="l" depth="1" NCoef="0" IVar="2" Cut="9.5238310098648071e-01" cType="1" res="-1.9032482057809830e-02" rms="2.8855451941490173e-01" purity="3.3266061544418335e-01" nType="0">
          <Node pos="l" depth="2" NCoef="0" IVar="-1" Cut="0.0000000000000000e+00" cType="1" res="7.7424645423889160e-03" rms="3.1326550245285034e-01" purity="5.8711570501327515e-01" nType="-99"/>
          <Node pos="r" depth="2" NCoef="0" IVar="-1" Cut="0.0000000000000000e+00" cType="1" res="-1.6472587361931801e-02" rms="2.7631327509880066e-01" purity="2.2941534221172333e-01" nType="-99"/>
        </Node>
        <Node pos="r" depth="1" NCoef="0" IVar="6" Cut="2.6414930820465088e+00" cType="1" res="3.3424675464630127e-02" rms="2.6739677786827087e-01" purity="7.4030452966690063e-01" nType="0">
          <Node pos="l" depth="2" NCoef="0" IVar="-1" Cut="0.0000000000000000e+00" cType="1" res="-4.3783038854598999e-02" rms="3.1139653921127319e-01" purity="2.0412380993366241e-01" nType="-99"/>
          <Node pos="r" depth="2" NCoef="0" IVar="-1" Cut="0.0000000000000000e+00" cType="1" res="2.1088387817144394e-02" rms="2.6165774464607239e-01" purity="7.7651214599609375e-01" nType="-99"/>
        </Node>
      </Node>
    </BinaryTree>
    <BinaryTree type="DecisionTree" boostWeight="1.0000000000000000e+00" itree="52">
      <Node pos="s" depth="0" NCoef="0" IVar="2" Cut="2.3809337615966797e+00" cType="1" res="-1.4405119873117656e-04" rms="2.7330556511878967e-01" purity="4.9952182173728943e-01" nType="0">
        <Node pos="l" depth="1" NCoef="0" IVar="1" Cut="1.3532196998596191e+01" cType="1" res="1.9234120845794678e-02" rms="2.8379201889038086e-01" purity="6.4985835552215576e-01" nType="0">
          <Node pos="l" depth="2" NCoef="0" IVar="-1" Cut="0.0000000000000000e+00" cType="1" res="1.3249757699668407e-02" rms="2.8875339031219482e-01" purity="7.3477798700332642e-01" nType="-99"/>
          <Node pos="r" depth="2" NCoef="0" IVar="-1" Cut="0.0000000000000000e+00" cType="1" res="-2.9298346489667892e-02" rms="2.3496283590793610e-01" purity="7.5211539864540100e-02" nType="-99"/>
        </Node>
        <Node pos="r" depth="1" NCoef="0" IVar="3" Cut="2.8868069648742676e+00" cType="1" res="-3.7986263632774353e-02" rms="2.4722909927368164e-01" purity="2.0594066381454468e-01" nType="0">
          <Node pos="l" depth="2" NCoef="0" IVar="-1" Cut="0.0000000000000000e+00" cType="1" res="-2.4499958381056786e-02" rms="2.4026362597942352e-01" purity="1.3991369307041168e-01" nType="-99"/>
          <Node pos="r" depth="2" NCoef="0" IVar="-1" Cut="0.0000000000000000e+00" cType="1" res="1.0844200849533081e-02" rms="2.9118907451629639e-01" purity="7.6431715488433838e-01" nType="-99"/>
        </Node>
      </Node>
    </BinaryTree>
    <BinaryTree type="DecisionTree" boostWeight="1.0000000000000000e+00" itree="53">
      <Node pos="s" depth="0" NCoef="0" IVar="0" Cut="8.5228430107235909e-03" cType="1" res="6.0453196056187153e-03" rms="2.7269309759140015e-01" purity="5.1358300447463989e-01" nType="0">
        <Node pos="l" depth="1" NCoef="0" IVar="3" Cut="9.6945059299468994e-01" cType="1" res="1.8960170447826385e-02" rms="2.9378071427345276e-01" purity="6.4849394559860229e-01" nType="0">
          <Node pos="l" depth="2" NCoef="0" IVar="-1" Cut="0.0000000000000000e+00" cType="1" res="-3.9505302906036377e-02" rms="2.0161521434783936e-01" purity="7.5290940701961517e-02" nType="-99"/>
          <Node pos="r" depth="2" NCoef="0" IVar="-1" Cut="0.0000000000000000e+00" cType="1" res="1.1184889823198318e-02" rms="2.9770901799201965e-01" purity="6.8726521730422974e-01" nType="-99"/>
        </Node>
        <Node pos="r" depth="1" NCoef="0" IVar="0" Cut="1.5415555797517300e-02" cType="1" res="-3.8642607629299164e-02" rms="1.7450886964797974e-01" purity="4.6764638274908066e-02" nType="0">
          <Node pos="l" depth="2" NCoef="0" IVar="-1" Cut="0.0000000000000000e+00" cType="1" res="-1.6391308978199959e-02" rms="2.2063153982162476e-01" purity="7.7853761613368988e-02" nType="-99"/>
          <Node pos="r" depth="2" NCoef="0" IVar="-1" Cut="0.0000000000000000e+00" cType="1" res="-4.6482935547828674e-02" rms="1.0153006017208099e-01" purity="1.3096885755658150e-02" nType="-99"/>
        </Node>
      </Node>
    </BinaryTree>
    <BinaryTree type="DecisionTree" boostWeight="1.0000000000000000e+00" itree="54">
      <Node pos="s" depth="0" NCoef="0" IVar="4" Cut="1.5409137010574341e+00" cType="1" res="-1.4755553565919399e-03" rms="2.7670344710350037e-01" purity="5.0173556804656982e-01" nType="0">
        <Node pos="l" depth="1" NCoef="0" IVar="0" Cut="4.3226764537394047e-03" cType="1" res="-5.2199672907590866e-02" rms="2.5030979514122009e-01" purity="1.9276469945907593e-01" nType="0">
          <Node pos="l" depth="2" NCoef="0" IVar="-1" Cut="0.0000000000000000e+00" cType="1" res="-2.8868252411484718e-02" rms="3.5254320502281189e-01" purity="4.5202186703681946e-01" nType="-99"/>
          <Node pos="r" depth="2" NCoef="0" IVar="-1" Cut="0.0000000000000000e+00" cType="1" res="-2.3320948705077171e-02" rms="1.7778293788433075e-01" purity="6.7269772291183472e-02" nType="-99"/>
        </Node>
        <Node pos="r" depth="1" NCoef="0" IVar="2" Cut="4.7493338584899902e+00" cType="1" res="9.7008347511291504e-03" rms="2.8095874190330505e-01" purity="5.6981313228607178e-01" nType="0">
          <Node pos="l" depth="2" NCoef="0" IVar="-1" Cut="0.0000000000000000e+00" cType="1" res="8.9934235438704491e-03" rms="2.8548380732536316e-01" purity="6.3076430559158325e-01" nType="-99"/>
          <Node pos="r" depth="2" NCoef="0" IVar="-1" Cut="0.0000000000000000e+00" cType="1" res="-2.7478255331516266e-02" rms="2.3760737478733063e-01" purity="1.4943864941596985e-01" nType="-99"/>
        </Node>
      </Node>
    </BinaryTree>
    <BinaryTree type="DecisionTree" boostWeight="1.0000000000000000e+00" itree="55">
      <Node pos="s" depth="0" NCoef="0" IVar="4" Cut="1.8036421537399292e+00" cType="1" res="-3.5230572393629700e-05" rms="2.7415278553962708e-01" purity="5.0572180747985840e-01" nType="0">
        <Node pos="l" depth="1" NCoef="0" IVar="6" Cut="3.8247292041778564e+00" cType="1" res="-3.8985002785921097e-02" rms="2.7030909061431885e-01" purity="2.5139081478118896e-01" nType="0">
          <Node pos="l" depth="2" NCoef="0" IVar="-1" Cut="0.0000000000000000e+00" cType="1" res="-1.4808960258960724e-02" rms="2.5671032071113586e-01" purity="2.4265667796134949e-01" nType="-99"/>
          <Node pos="r" depth="2" NCoef="0" IVar="-1" Cut="0.0000000000000000e+00" cType="1" res="-4.6406239271163940e-02" rms="3.6770567297935486e-01" purity="3.3853268623352051e-01" nType="-99"/>
        </Node>
        <Node pos="r" depth="1" NCoef="0" IVar="7" Cut="2.4775981903076172e+00" cType="1" res="1.5130043961107731e-02" rms="2.7414211630821228e-01" purity="6.0474669933319092e-01" nType="0">
          <Node pos="l" depth="2" NCoef="0" IVar="-1" Cut="0.0000000000000000e+00" cType="1" res="-1.8357342109084129e-02" rms="2.7782359719276428e-01" purity="2.3040254414081573e-01" nType="-99"/>
          <Node pos="r" depth="2" NCoef="0" IVar="-1" Cut="0.0000000000000000e+00" cType="1" res="1.3753324747085571e-02" rms="2.7169978618621826e-01" purity="6.9468998908996582e-01" nType="-99"/>
        </Node>
      </Node>
    </BinaryTree>
    <BinaryTree type="DecisionTree" boostWeight="1.0000000000000000e+00" itree="56">
      <Node pos="s" depth="0" NCoef="0" IVar="1" Cut="1.0733529090881348e+01" cType="1" res="-2.9839219059795141e-03" rms="2.6770180463790894e-01" purity="4.9276182055473328e-01" nType="0">
        <Node pos="l" depth="1" NCoef="0" IVar="8" Cut="-3.2353714108467102e-01" cType="1" res="1.0824383236467838e-02" rms="2.8418117761611938e-01" purity="6.3393360376358032e-01" nType="0">
          <Node pos="l" depth="2" NCoef="0" IVar="-1" Cut="0.0000000000000000e+00" cType="1" res="-2.4736423045396805e-02" rms="2.9787728190422058e-01" purity="2.3981054127216339e-01" nType="-99"/>
          <Node pos="r" depth="2" NCoef="0" IVar="-1" Cut="0.0000000000000000e+00" cType="1" res="1.0164082981646061e-02" rms="2.8022852540016174e-01" purity="6.9866079092025757e-01" nType="-99"/>
        </Node>
        <Node pos="r" depth="1" NCoef="0" IVar="1" Cut="1.9595199584960938e+01" cType="1" res="-4.5519389212131500e-02" rms="2.0310626924037933e-01" purity="5.7892482727766037e-02" nType="0">
          <Node pos="l" depth="2" NCoef="0" IVar="-1" Cut="0.0000000000000000e+00" cType="1" res="-2.0075412467122078e-02" rms="2.2001218795776367e-01" purity="7.8634090721607208e-02" nType="-99"/>
          <Node pos="r" depth="2" NCoef="0" IVar="-1" Cut="0.0000000000000000e+00" cType="1" res="-5.3077593445777893e-02" rms="1.6012960672378540e-01" purity="1.6308601945638657e-02" nType="-99"/>
        </Node>
      </Node>
    </BinaryTree>
    <BinaryTree type="DecisionTree" boostWeight="1.0000000000000000e+00" itree="57">
      <Node pos="s" depth="0" NCoef="0" IVar="8" Cut="-8.5108213126659393e-02" cType="1" res="-2.8467741794884205e-03" rms="2.8000146150588989e-01" purity="4.9852803349494934e-01" nType="0">
        <Node pos="l" depth="1" NCoef="0" IVar="6" Cut="3.7015082836151123e+00" cType="1" res="-3.4458756446838379e-02" rms="2.6170423626899719e-01" purity="2.1338769793510437e-01" nType="0">
          <Node pos="l" depth="2" NCoef="0" IVar="-1" Cut="0.0000000000000000e+00" cType="1" res="-1.5730420127511024e-02" rms="2.5835266709327698e-01" purity="2.1412457525730133e-01" nType="-99"/>
          <Node pos="r" depth="2" NCoef="0" IVar="-1" Cut="0.0000000000000000e+00" cType="1" res="-4.1183397173881531e-02" rms="2.8923887014389038e-01" purity="2.0522743463516235e-01" nType="-99"/>
        </Node>
        <Node pos="r" depth="1" NCoef="0" IVar="6" Cut="2.9299154281616211e+00" cType="1" res="1.6245409846305847e-02" rms="2.8882345557212830e-01" purity="6.7073965072631836e-01" nType="0">
          <Node pos="l" depth="2" NCoef="0" IVar="-1" Cut="0.0000000000000000e+00" cType="1" res="-3.0026167631149292e-02" rms="2.9370129108428955e-01" purity="3.6684623360633850e-01" nType="-99"/>
          <Node pos="r" depth="2" NCoef="0" IVar="-1" Cut="0.0000000000000000e+00" cType="1" res="1.2931013479828835e-02" rms="2.8629320859909058e-01" purity="7.1287447214126587e-01" nType="-99"/>
        </Node>
      </Node>
    </BinaryTree>
    <BinaryTree type="DecisionTree" boostWeight="1.0000000000000000e+00" itree="58">
      <Node pos="s" depth="0" NCoef="0" IVar="5" Cut="1.6021639108657837e+00" cType="1" res="-8.3723699208348989e-04" rms="2.7346751093864441e-01" purity="5.0136464834213257e-01" nType="0">
        <Node pos="l" depth="1" NCoef="0" IVar="2" Cut="9.5137506723403931e-01" cType="1" res="-2.6952259242534637e-02" rms="2.7715077996253967e-01" purity="2.5441989302635193e-01" nType="0">
          <Node pos="l" depth="2" NCoef="0" IVar="-1" Cut="0.0000000000000000e+00" cType="1" res="5.7283514179289341e-03" rms="3.1607475876808167e-01" purity="5.3362667560577393e-01" nType="-99"/>
          <Node pos="r" depth="2" NCoef="0" IVar="-1" Cut="0.0000000000000000e+00" cType="1" res="-2.1667663007974625e-02" rms="2.6084706187248230e-01" purity="1.5828236937522888e-01" nType="-99"/>
        </Node>
        <Node pos="r" depth="1" NCoef="0" IVar="8" Cut="-3.2982793450355530e-01" cType="1" res="1.8256714567542076e-02" rms="2.6914390921592712e-01" purity="6.8191790580749512e-01" nType="0">
          <Node pos="l" depth="2" NCoef="0" IVar="-1" Cut="0.0000000000000000e+00" cType="1" res="-2.6932287961244583e-02" rms="2.8295451402664185e-01" purity="2.4567292630672455e-01" nType="-99"/>
          <Node pos="r" depth="2" NCoef="0" IVar="-1" Cut="0.0000000000000000e+00" cType="1" res="1.5444976277649403e-02" rms="2.6492804288864136e-01" purity="7.5130212306976318e-01" nType="-99"/>
        </Node>
      </Node>
    </BinaryTree>
    <BinaryTree type="DecisionTree" boostWeight="1.0000000000000000e+00" itree="59">
      <Node pos="s" depth="0" NCoef="0" IVar="2" Cut="2.3833887577056885e+00" cType="1" res="1.4496323419734836e-03" rms="2.6749017834663391e-01" purity="5.0125771760940552e-01" nType="0">
        <Node pos="l" depth="1" NCoef="0" IVar="1" Cut="1.3114870071411133e+01" cType="1" res="1.7339015379548073e-02" rms="2.7731764316558838e-01" purity="6.5138578414916992e-01" nType="0">
          <Node pos="l" depth="2" NCoef="0" IVar="-1" Cut="0.0000000000000000e+00" cType="1" res="1.3273596763610840e-02" rms="2.8272420167922974e-01" purity="7.4863046407699585e-01" nType="-99"/>
          <Node pos="r" depth="2" NCoef="0" IVar="-1" Cut="0.0000000000000000e+00" cType="1" res="-2.7705423533916473e-02" rms="2.3293849825859070e-01" purity="7.3833853006362915e-02" nType="-99"/>
        </Node>
        <Node pos="r" depth="1" NCoef="0" IVar="5" Cut="2.4720828533172607e+00" cType="1" res="-2.8847221285104752e-02" rms="2.4483235180377960e-01" purity="2.1500314772129059e-01" nType="0">
          <Node pos="l" depth="2" NCoef="0" IVar="-1" Cut="0.0000000000000000e+00" cType="1" res="-2.2639626637101173e-02" rms="2.3983567953109741e-01" purity="1.3643157482147217e-01" nType="-99"/>
          <Node pos="r" depth="2" NCoef="0" IVar="-1" Cut="0.0000000000000000e+00" cType="1" res="6.2661655247211456e-03" rms="2.6172161102294922e-01" purity="5.6359285116195679e-01" nType="-99"/>
        </Node>
      </Node>
    </BinaryTree>
    <BinaryTree type="DecisionTree" boostWeight="1.0000000000000000e+00" itree="60">
      <Node pos="s" depth="0" NCoef="0" IVar="3" Cut="1.2386401891708374e+00" cType="1" res="5.3771317470818758e-04" rms="2.6806768774986267e-01" purity="4.9943330883979797e-01" nType="0">
        <Node pos="l" depth="1" NCoef="0" IVar="6" Cut="2.8050448894500732e+00" cType="1" res="-5.1725972443819046e-02" rms="1.8979819118976593e-01" purity="8.5049986839294434e-02" nType="0">
          <Node pos="l" depth="2" NCoef="0" IVar="-1" Cut="0.0000000000000000e+00" cType="1" res="-5.9912532567977905e-02" rms="1.6164813935756683e-01" purity="1.5815816819667816e-02" nType="-99"/>
          <Node pos="r" depth="2" NCoef="0" IVar="-1" Cut="0.0000000000000000e+00" cType="1" res="-2.2387409582734108e-02" rms="1.9357380270957947e-01" purity="1.0195585340261459e-01" nType="-99"/>
        </Node>
        <Node pos="r" depth="1" NCoef="0" IVar="1" Cut="9.5419054031372070e+00" cType="1" res="9.0550594031810760e-03" rms="2.7781808376312256e-01" purity="5.6696480512619019e-01" nType="0">
          <Node pos="l" depth="2" NCoef="0" IVar="-1" Cut="0.0000000000000000e+00" cType="1" res="1.1050363071262836e-02" rms="2.8967869281768799e-01" purity="7.3532885313034058e-01" nType="-99"/>
          <Node pos="r" depth="2" NCoef="0" IVar="-1" Cut="0.0000000000000000e+00" cType="1" res="-2.1288480609655380e-02" rms="2.3524086177349091e-01" purity="8.1347517669200897e-02" nType="-99"/>
        </Node>
      </Node>
    </BinaryTree>
    <BinaryTree type="DecisionTree" boostWeight="1.0000000000000000e+00" itree="61">
      <Node pos="s" depth="0" NCoef="0" IVar="4" Cut="1.2697846889495850e+00" cType="1" res="-2.2953432926442474e-04" rms="2.7239051461219788e-01" purity="4.9681422114372253e-01" nType="0">
        <Node pos="l" depth="1" NCoef="0" IVar="0" Cut="6.4721046946942806e-03" cType="1" res="-6.9050401449203491e-02" rms="2.3428577184677124e-01" purity="1.0533779859542847e-01" nType="0">
          <Node pos="l" depth="2" NCoef="0" IVar="-1" Cut="0.0000000000000000e+00" cType="1" res="-4.2336732149124146e-02" rms="3.4949925541877747e-01" purity="2.4908919632434845e-01" nType="-99"/>
          <Node pos="r" depth="2" NCoef="0" IVar="-1" Cut="0.0000000000000000e+00" cType="1" res="-3.6857433617115021e-02" rms="1.0421766340732574e-01" purity="1.9033212214708328e-02" nType="-99"/>
        </Node>
        <Node pos="r" depth="1" NCoef="0" IVar="3" Cut="1.6530067920684814e+00" cType="1" res="7.6931724324822426e-03" rms="2.7533829212188721e-01" purity="5.4188120365142822e-01" nType="0">
          <Node pos="l" depth="2" NCoef="0" IVar="-1" Cut="0.0000000000000000e+00" cType="1" res="-1.5394006855785847e-02" rms="2.4231792986392975e-01" purity="1.6436709463596344e-01" nType="-99"/>
          <Node pos="r" depth="2" NCoef="0" IVar="-1" Cut="0.0000000000000000e+00" cType="1" res="1.0041602887213230e-02" rms="2.8466328978538513e-01" purity="6.7086005210876465e-01" nType="-99"/>
        </Node>
      </Node>
    </BinaryTree>
    <BinaryTree type="DecisionTree" boostWeight="1.0000000000000000e+00" itree="62">
      <Node pos="s" depth="0" NCoef="0" IVar="2" Cut="1.4281842708587646e+00" cType="1" res="-1.5816590748727322e-03" rms="2.6955077052116394e-01" purity="5.0243180990219116e-01" nType="0">
        <Node pos="l" depth="1" NCoef="0" IVar="6" Cut="3.8987693786621094e+00" cType="1" res="1.9313994795084000e-02" rms="2.7700665593147278e-01" purity="7.1110868453979492e-01" nType="0">
          <Node pos="l" depth="2" NCoef="0" IVar="-1" Cut="0.0000000000000000e+00" cType="1" res="1.3501168228685856e-02" rms="2.7272948622703552e-01" purity="7.0765215158462524e-01" nType="-99"/>
