<?xml version="1.0"?>
<MethodSetup Method="BDT::BDTG_Kpi_run2">
  <GeneralInfo>
    <Info name="TMVA Release" value="4.2.1 [262657]"/>
    <Info name="ROOT Release" value="6.06/02 [394754]"/>
    <Info name="Creator" value="pullen"/>
    <Info name="Date" value="Fri Oct 27 15:16:11 2017"/>
    <Info name="Host" value="Linux lcgapp-slc6-physical1.cern.ch 2.6.32-573.8.1.el6.x86_64 #1 SMP Wed Nov 11 15:27:45 CET 2015 x86_64 x86_64 x86_64 GNU/Linux"/>
    <Info name="Dir" value="/home/pullen/analysis/B02DKstar/BDT/Code"/>
    <Info name="Training events" value="34483"/>
    <Info name="TrainingTime" value="4.78980970e+01"/>
    <Info name="AnalysisType" value="Classification"/>
  </GeneralInfo>
  <Options>
    <Option name="V" modified="Yes">False</Option>
    <Option name="VerbosityLevel" modified="No">Default</Option>
    <Option name="VarTransform" modified="No">None</Option>
    <Option name="H" modified="Yes">False</Option>
    <Option name="CreateMVAPdfs" modified="No">False</Option>
    <Option name="IgnoreNegWeightsInTraining" modified="No">False</Option>
    <Option name="NTrees" modified="Yes">1000</Option>
    <Option name="MaxDepth" modified="Yes">2</Option>
    <Option name="MinNodeSize" modified="Yes">2.5%</Option>
    <Option name="nCuts" modified="Yes">20</Option>
    <Option name="BoostType" modified="Yes">Grad</Option>
    <Option name="AdaBoostR2Loss" modified="No">quadratic</Option>
    <Option name="UseBaggedBoost" modified="Yes">True</Option>
    <Option name="Shrinkage" modified="Yes">1.000000e-01</Option>
    <Option name="AdaBoostBeta" modified="No">5.000000e-01</Option>
    <Option name="UseRandomisedTrees" modified="No">False</Option>
    <Option name="UseNvars" modified="No">4</Option>
    <Option name="UsePoissonNvars" modified="No">True</Option>
    <Option name="BaggedSampleFraction" modified="Yes">5.000000e-01</Option>
    <Option name="UseYesNoLeaf" modified="No">True</Option>
    <Option name="NegWeightTreatment" modified="No">ignorenegweightsintraining</Option>
    <Option name="Css" modified="No">1.000000e+00</Option>
    <Option name="Cts_sb" modified="No">1.000000e+00</Option>
    <Option name="Ctb_ss" modified="No">1.000000e+00</Option>
    <Option name="Cbb" modified="No">1.000000e+00</Option>
    <Option name="NodePurityLimit" modified="No">5.000000e-01</Option>
    <Option name="SeparationType" modified="No">giniindex</Option>
    <Option name="DoBoostMonitor" modified="No">False</Option>
    <Option name="UseFisherCuts" modified="No">False</Option>
    <Option name="MinLinCorrForFisher" modified="No">8.000000e-01</Option>
    <Option name="UseExclusiveVars" modified="No">False</Option>
    <Option name="DoPreselection" modified="No">False</Option>
    <Option name="SigToBkgFraction" modified="No">1.000000e+00</Option>
    <Option name="PruneMethod" modified="No">nopruning</Option>
    <Option name="PruneStrength" modified="No">0.000000e+00</Option>
    <Option name="PruningValFraction" modified="No">5.000000e-01</Option>
    <Option name="nEventsMin" modified="No">0</Option>
    <Option name="UseBaggedGrad" modified="No">False</Option>
    <Option name="GradBaggingFraction" modified="No">5.000000e-01</Option>
    <Option name="UseNTrainEvents" modified="No">0</Option>
    <Option name="NNodesMax" modified="No">0</Option>
  </Options>
  <Variables NVar="13">
    <Variable VarIndex="0" Expression="acos(Bd_DIRA_OWNPV)" Label="acos(Bd_DIRA_OWNPV)" Title="acos(Bd_DIRA_OWNPV)" Unit="" Internal="acos_Bd_DIRA_OWNPV_" Type="F" Min="2.51118820e-07" Max="4.47296314e-02"/>
    <Variable VarIndex="1" Expression="Bd_IPCHI2_OWNPV" Label="Bd_IPCHI2_OWNPV" Title="Bd_IPCHI2_OWNPV" Unit="" Internal="Bd_IPCHI2_OWNPV" Type="F" Min="4.27668539e-07" Max="2.50924606e+01"/>
    <Variable VarIndex="2" Expression="Bd_LOKI_VFASPF_VCHI2VDOF" Label="Bd_LOKI_VFASPF_VCHI2VDOF" Title="Bd_LOKI_VFASPF_VCHI2VDOF" Unit="" Internal="Bd_LOKI_VFASPF_VCHI2VDOF" Type="F" Min="1.31156202e-03" Max="9.98351574e+00"/>
    <Variable VarIndex="3" Expression="Bd_ptasy_1.50" Label="Bd_ptasy_1.50" Title="Bd_ptasy_1.50" Unit="" Internal="Bd_ptasy_1.50" Type="F" Min="-9.96516168e-01" Max="1.00000000e+00"/>
    <Variable VarIndex="4" Expression="log10(D0_IPCHI2_OWNPV)" Label="log10(D0_IPCHI2_OWNPV)" Title="log10(D0_IPCHI2_OWNPV)" Unit="" Internal="log10_D0_IPCHI2_OWNPV_" Type="F" Min="-2.80652070e+00" Max="4.98966599e+00"/>
    <Variable VarIndex="5" Expression="log10(KstarK_IPCHI2_OWNPV)" Label="log10(KstarK_IPCHI2_OWNPV)" Title="log10(KstarK_IPCHI2_OWNPV)" Unit="" Internal="log10_KstarK_IPCHI2_OWNPV_" Type="F" Min="6.02707505e-01" Max="5.12319517e+00"/>
    <Variable VarIndex="6" Expression="log10(D0K_IPCHI2_OWNPV)" Label="log10(D0K_IPCHI2_OWNPV)" Title="log10(D0K_IPCHI2_OWNPV)" Unit="" Internal="log10_D0K_IPCHI2_OWNPV_" Type="F" Min="6.02132380e-01" Max="4.86471415e+00"/>
    <Variable VarIndex="7" Expression="log10(D0Pi_IPCHI2_OWNPV)" Label="log10(D0Pi_IPCHI2_OWNPV)" Title="log10(D0Pi_IPCHI2_OWNPV)" Unit="" Internal="log10_D0Pi_IPCHI2_OWNPV_" Type="F" Min="6.02632344e-01" Max="4.84863186e+00"/>
    <Variable VarIndex="8" Expression="log10(KstarPi_IPCHI2_OWNPV)" Label="log10(KstarPi_IPCHI2_OWNPV)" Title="log10(KstarPi_IPCHI2_OWNPV)" Unit="" Internal="log10_KstarPi_IPCHI2_OWNPV_" Type="F" Min="5.38184524e-01" Max="4.83347178e+00"/>
    <Variable VarIndex="9" Expression="log10(D0K_PT)" Label="log10(D0K_PT)" Title="log10(D0K_PT)" Unit="" Internal="log10_D0K_PT_" Type="F" Min="2.00115991e+00" Max="5.03301096e+00"/>
    <Variable VarIndex="10" Expression="log10(D0Pi_PT)" Label="log10(D0Pi_PT)" Title="log10(D0Pi_PT)" Unit="" Internal="log10_D0Pi_PT_" Type="F" Min="2.00328970e+00" Max="4.89070463e+00"/>
    <Variable VarIndex="11" Expression="log10(KstarK_PT)" Label="log10(KstarK_PT)" Title="log10(KstarK_PT)" Unit="" Internal="log10_KstarK_PT_" Type="F" Min="2.24781013e+00" Max="4.75473213e+00"/>
    <Variable VarIndex="12" Expression="log10(KstarPi_PT)" Label="log10(KstarPi_PT)" Title="log10(KstarPi_PT)" Unit="" Internal="log10_KstarPi_PT_" Type="F" Min="2.00000787e+00" Max="4.65504646e+00"/>
  </Variables>
  <Spectators NSpec="0"/>
  <Classes NClass="2">
    <Class Name="Signal" Index="0"/>
    <Class Name="Background" Index="1"/>
  </Classes>
  <Transformations NTransformations="0"/>
  <MVAPdfs/>
  <Weights NTrees="1000" AnalysisType="1">
    <BinaryTree type="DecisionTree" boostWeight="1.0000000000000000e+00" itree="0">
      <Node pos="s" depth="0" NCoef="0" IVar="1" Cut="4.7795166969299316e+00" cType="1" res="-7.5640971772372723e-03" rms="4.9994277954101562e-01" purity="4.9243590235710144e-01" nType="0">
        <Node pos="l" depth="1" NCoef="0" IVar="8" Cut="1.4082629680633545e+00" cType="1" res="2.2617200016975403e-01" rms="4.4592177867889404e-01" purity="7.2617202997207642e-01" nType="0">
          <Node pos="l" depth="2" NCoef="0" IVar="-1" Cut="0.0000000000000000e+00" cType="1" res="-1.0152931325137615e-02" rms="4.9509036540985107e-01" purity="4.3010351061820984e-01" nType="-99"/>
          <Node pos="r" depth="2" NCoef="0" IVar="-1" Cut="0.0000000000000000e+00" cType="1" res="8.1615999341011047e-02" rms="3.5592377185821533e-01" purity="8.5116702318191528e-01" nType="-99"/>
        </Node>
        <Node pos="r" depth="1" NCoef="0" IVar="1" Cut="7.6848878860473633e+00" cType="1" res="-3.6627471446990967e-01" rms="3.4035691618919373e-01" purity="1.3372528553009033e-01" nType="0">
          <Node pos="l" depth="2" NCoef="0" IVar="-1" Cut="0.0000000000000000e+00" cType="1" res="-1.9820179790258408e-02" rms="4.7831407189369202e-01" purity="3.5434401035308838e-01" nType="-99"/>
          <Node pos="r" depth="2" NCoef="0" IVar="-1" Cut="0.0000000000000000e+00" cType="1" res="-4.8343982547521591e-02" rms="2.3072367906570435e-01" purity="5.6416206061840057e-02" nType="-99"/>
        </Node>
      </Node>
    </BinaryTree>
    <BinaryTree type="DecisionTree" boostWeight="1.0000000000000000e+00" itree="1">
      <Node pos="s" depth="0" NCoef="0" IVar="1" Cut="4.7795166969299316e+00" cType="1" res="-2.5962549261748791e-03" rms="4.8103094100952148e-01" purity="5.0630652904510498e-01" nType="0">
        <Node pos="l" depth="1" NCoef="0" IVar="4" Cut="1.9015257358551025e+00" cType="1" res="2.1779333055019379e-01" rms="4.2680364847183228e-01" purity="7.4564445018768311e-01" nType="0">
          <Node pos="l" depth="2" NCoef="0" IVar="-1" Cut="0.0000000000000000e+00" cType="1" res="-1.2095127254724503e-02" rms="4.8841097950935364e-01" purity="4.3548816442489624e-01" nType="-99"/>
          <Node pos="r" depth="2" NCoef="0" IVar="-1" Cut="0.0000000000000000e+00" cType="1" res="7.6722815632820129e-02" rms="3.4323388338088989e-01" purity="8.5710459947586060e-01" nType="-99"/>
        </Node>
        <Node pos="r" depth="1" NCoef="0" IVar="1" Cut="7.6824622154235840e+00" cType="1" res="-3.4143033623695374e-01" rms="3.4291926026344299e-01" purity="1.3834054768085480e-01" nType="0">
          <Node pos="l" depth="2" NCoef="0" IVar="-1" Cut="0.0000000000000000e+00" cType="1" res="-1.9139531999826431e-02" rms="4.7660568356513977e-01" purity="3.4884771704673767e-01" nType="-99"/>
          <Node pos="r" depth="2" NCoef="0" IVar="-1" Cut="0.0000000000000000e+00" cType="1" res="-4.5661997050046921e-02" rms="2.3452259600162506e-01" purity="5.8412093669176102e-02" nType="-99"/>
        </Node>
      </Node>
    </BinaryTree>
    <BinaryTree type="DecisionTree" boostWeight="1.0000000000000000e+00" itree="2">
      <Node pos="s" depth="0" NCoef="0" IVar="1" Cut="4.7796368598937988e+00" cType="1" res="-1.8996035680174828e-02" rms="4.6425104141235352e-01" purity="4.9712011218070984e-01" nType="0">
        <Node pos="l" depth="1" NCoef="0" IVar="8" Cut="1.0051901340484619e+00" cType="1" res="1.8990030884742737e-01" rms="4.2061975598335266e-01" purity="7.4390190839767456e-01" nType="0">
          <Node pos="l" depth="2" NCoef="0" IVar="-1" Cut="0.0000000000000000e+00" cType="1" res="-2.5307359173893929e-02" rms="4.6032679080963135e-01" purity="3.2059389352798462e-01" nType="-99"/>
          <Node pos="r" depth="2" NCoef="0" IVar="-1" Cut="0.0000000000000000e+00" cType="1" res="5.9303238987922668e-02" rms="3.7176048755645752e-01" purity="8.2307082414627075e-01" nType="-99"/>
        </Node>
        <Node pos="r" depth="1" NCoef="0" IVar="3" Cut="3.4203463792800903e-01" cType="1" res="-3.2413348555564880e-01" rms="3.3922460675239563e-01" purity="1.3664284348487854e-01" nType="0">
          <Node pos="l" depth="2" NCoef="0" IVar="-1" Cut="0.0000000000000000e+00" cType="1" res="-4.1720189154148102e-02" rms="2.7977856993675232e-01" purity="8.7989754974842072e-02" nType="-99"/>
          <Node pos="r" depth="2" NCoef="0" IVar="-1" Cut="0.0000000000000000e+00" cType="1" res="-6.0796509496867657e-03" rms="4.8849380016326904e-01" purity="4.2324966192245483e-01" nType="-99"/>
        </Node>
      </Node>
    </BinaryTree>
    <BinaryTree type="DecisionTree" boostWeight="1.0000000000000000e+00" itree="3">
      <Node pos="s" depth="0" NCoef="0" IVar="1" Cut="5.9743957519531250e+00" cType="1" res="-2.8818521648645401e-02" rms="4.4992738962173462e-01" purity="4.9302580952644348e-01" nType="0">
        <Node pos="l" depth="1" NCoef="0" IVar="8" Cut="1.5985518693923950e+00" cType="1" res="1.4442092180252075e-01" rms="4.2831870913505554e-01" purity="7.1126896142959595e-01" nType="0">
          <Node pos="l" depth="2" NCoef="0" IVar="-1" Cut="0.0000000000000000e+00" cType="1" res="-1.1061511002480984e-02" rms="4.8111468553543091e-01" purity="4.5111793279647827e-01" nType="-99"/>
          <Node pos="r" depth="2" NCoef="0" IVar="-1" Cut="0.0000000000000000e+00" cType="1" res="6.6496796905994415e-02" rms="3.3421501517295837e-01" purity="8.6243188381195068e-01" nType="-99"/>
        </Node>
        <Node pos="r" depth="1" NCoef="0" IVar="0" Cut="4.3979948386549950e-03" cType="1" res="-3.4768539667129517e-01" rms="2.8363525867462158e-01" purity="9.1324590146541595e-02" nType="0">
          <Node pos="l" depth="2" NCoef="0" IVar="-1" Cut="0.0000000000000000e+00" cType="1" res="-2.3987632244825363e-02" rms="4.3165996670722961e-01" purity="2.5702214241027832e-01" nType="-99"/>
          <Node pos="r" depth="2" NCoef="0" IVar="-1" Cut="0.0000000000000000e+00" cType="1" res="-4.3219424784183502e-02" rms="2.0201843976974487e-01" purity="4.3963752686977386e-02" nType="-99"/>
        </Node>
      </Node>
    </BinaryTree>
    <BinaryTree type="DecisionTree" boostWeight="1.0000000000000000e+00" itree="4">
      <Node pos="s" depth="0" NCoef="0" IVar="0" Cut="4.2601921595633030e-03" cType="1" res="-2.1909404546022415e-02" rms="4.3742632865905762e-01" purity="5.0676345825195312e-01" nType="0">
        <Node pos="l" depth="1" NCoef="0" IVar="6" Cut="1.7885607481002808e+00" cType="1" res="1.5886919200420380e-01" rms="4.0217232704162598e-01" purity="7.3577529191970825e-01" nType="0">
          <Node pos="l" depth="2" NCoef="0" IVar="-1" Cut="0.0000000000000000e+00" cType="1" res="-1.7039000988006592e-02" rms="4.5565605163574219e-01" purity="4.2090159654617310e-01" nType="-99"/>
          <Node pos="r" depth="2" NCoef="0" IVar="-1" Cut="0.0000000000000000e+00" cType="1" res="5.4269097745418549e-02" rms="3.5160121321678162e-01" purity="8.2074803113937378e-01" nType="-99"/>
        </Node>
        <Node pos="r" depth="1" NCoef="0" IVar="3" Cut="2.7195262908935547e-01" cType="1" res="-2.8507274389266968e-01" rms="3.4292963147163391e-01" purity="1.7338572442531586e-01" nType="0">
          <Node pos="l" depth="2" NCoef="0" IVar="-1" Cut="0.0000000000000000e+00" cType="1" res="-4.0057819336652756e-02" rms="2.7589726448059082e-01" purity="1.0262288898229599e-01" nType="-99"/>
          <Node pos="r" depth="2" NCoef="0" IVar="-1" Cut="0.0000000000000000e+00" cType="1" res="-2.3189971689134836e-03" rms="4.5743820071220398e-01" purity="4.8273283243179321e-01" nType="-99"/>
        </Node>
      </Node>
    </BinaryTree>
    <BinaryTree type="DecisionTree" boostWeight="1.0000000000000000e+00" itree="5">
      <Node pos="s" depth="0" NCoef="0" IVar="1" Cut="5.9658608436584473e+00" cType="1" res="-3.2053954899311066e-02" rms="4.2577144503593445e-01" purity="5.0015383958816528e-01" nType="0">
        <Node pos="l" depth="1" NCoef="0" IVar="4" Cut="1.6158502101898193e+00" cType="1" res="1.1670452356338501e-01" rms="4.1329544782638550e-01" purity="7.1395224332809448e-01" nType="0">
          <Node pos="l" depth="2" NCoef="0" IVar="-1" Cut="0.0000000000000000e+00" cType="1" res="-2.8942545875906944e-02" rms="4.4202980399131775e-01" purity="3.0890399217605591e-01" nType="-99"/>
          <Node pos="r" depth="2" NCoef="0" IVar="-1" Cut="0.0000000000000000e+00" cType="1" res="4.4072896242141724e-02" rms="3.6758729815483093e-01" purity="8.0381363630294800e-01" nType="-99"/>
        </Node>
        <Node pos="r" depth="1" NCoef="0" IVar="1" Cut="9.6042699813842773e+00" cType="1" res="-3.1279304623603821e-01" rms="2.8365519642829895e-01" purity="9.6670515835285187e-02" nType="0">
          <Node pos="l" depth="2" NCoef="0" IVar="-1" Cut="0.0000000000000000e+00" cType="1" res="-2.3804495111107826e-02" rms="4.1366857290267944e-01" purity="2.4098131060600281e-01" nType="-99"/>
          <Node pos="r" depth="2" NCoef="0" IVar="-1" Cut="0.0000000000000000e+00" cType="1" res="-4.1047908365726471e-02" rms="1.7961592972278595e-01" purity="3.5363208502531052e-02" nType="-99"/>
        </Node>
      </Node>
    </BinaryTree>
    <BinaryTree type="DecisionTree" boostWeight="1.0000000000000000e+00" itree="6">
      <Node pos="s" depth="0" NCoef="0" IVar="1" Cut="3.5771253108978271e+00" cType="1" res="-3.7185046821832657e-02" rms="4.1592606902122498e-01" purity="4.9836969375610352e-01" nType="0">
        <Node pos="l" depth="1" NCoef="0" IVar="4" Cut="1.4732530117034912e+00" cType="1" res="1.4219577610492706e-01" rms="3.8583606481552124e-01" purity="7.6671719551086426e-01" nType="0">
          <Node pos="l" depth="2" NCoef="0" IVar="-1" Cut="0.0000000000000000e+00" cType="1" res="-2.5291519239544868e-02" rms="4.5171570777893066e-01" purity="3.3280411362648010e-01" nType="-99"/>
          <Node pos="r" depth="2" NCoef="0" IVar="-1" Cut="0.0000000000000000e+00" cType="1" res="4.7136999666690826e-02" rms="3.4916445612907410e-01" purity="8.3188295364379883e-01" nType="-99"/>
        </Node>
        <Node pos="r" depth="1" NCoef="0" IVar="8" Cut="1.8410371541976929e+00" cType="1" res="-2.4333553016185760e-01" rms="3.4819868206977844e-01" purity="1.8997578322887421e-01" nType="0">
          <Node pos="l" depth="2" NCoef="0" IVar="-1" Cut="0.0000000000000000e+00" cType="1" res="-3.7937629967927933e-02" rms="2.5953888893127441e-01" purity="8.8592007756233215e-02" nType="-99"/>
          <Node pos="r" depth="2" NCoef="0" IVar="-1" Cut="0.0000000000000000e+00" cType="1" res="-9.6505982801318169e-03" rms="4.3890681862831116e-01" purity="4.1211643815040588e-01" nType="-99"/>
        </Node>
      </Node>
    </BinaryTree>
    <BinaryTree type="DecisionTree" boostWeight="1.0000000000000000e+00" itree="7">
      <Node pos="s" depth="0" NCoef="0" IVar="0" Cut="4.2601921595633030e-03" cType="1" res="-3.7906102836132050e-02" rms="4.0834987163543701e-01" purity="5.0154554843902588e-01" nType="0">
        <Node pos="l" depth="1" NCoef="0" IVar="2" Cut="2.3733305931091309e+00" cType="1" res="1.0772050917148590e-01" rms="3.9207413792610168e-01" purity="7.2490119934082031e-01" nType="0">
          <Node pos="l" depth="2" NCoef="0" IVar="-1" Cut="0.0000000000000000e+00" cType="1" res="4.4160649180412292e-02" rms="3.4692585468292236e-01" purity="8.1429702043533325e-01" nType="-99"/>
          <Node pos="r" depth="2" NCoef="0" IVar="-1" Cut="0.0000000000000000e+00" cType="1" res="-2.3529252037405968e-02" rms="4.2773994803428650e-01" purity="4.0719109773635864e-01" nType="-99"/>
        </Node>
        <Node pos="r" depth="1" NCoef="0" IVar="3" Cut="3.5049048066139221e-01" cType="1" res="-2.5354829430580139e-01" rms="3.2884007692337036e-01" purity="1.7080312967300415e-01" nType="0">
          <Node pos="l" depth="2" NCoef="0" IVar="-1" Cut="0.0000000000000000e+00" cType="1" res="-3.6476008594036102e-02" rms="2.7455899119377136e-01" purity="1.0846596956253052e-01" nType="-99"/>
          <Node pos="r" depth="2" NCoef="0" IVar="-1" Cut="0.0000000000000000e+00" cType="1" res="6.2315445393323898e-03" rms="4.4810894131660461e-01" purity="5.3581035137176514e-01" nType="-99"/>
        </Node>
      </Node>
    </BinaryTree>
    <BinaryTree type="DecisionTree" boostWeight="1.0000000000000000e+00" itree="8">
      <Node pos="s" depth="0" NCoef="0" IVar="1" Cut="7.1586222648620605e+00" cType="1" res="-4.6630423516035080e-02" rms="3.9747872948646545e-01" purity="4.9259722232818604e-01" nType="0">
        <Node pos="l" depth="1" NCoef="0" IVar="8" Cut="1.2066786289215088e+00" cType="1" res="6.4705222845077515e-02" rms="4.0469402074813843e-01" purity="6.8307238817214966e-01" nType="0">
          <Node pos="l" depth="2" NCoef="0" IVar="-1" Cut="0.0000000000000000e+00" cType="1" res="-2.6454430073499680e-02" rms="4.2628729343414307e-01" purity="3.1502750515937805e-01" nType="-99"/>
          <Node pos="r" depth="2" NCoef="0" IVar="-1" Cut="0.0000000000000000e+00" cType="1" res="3.5422343760728836e-02" rms="3.6083531379699707e-01" purity="7.9845643043518066e-01" nType="-99"/>
        </Node>
        <Node pos="r" depth="1" NCoef="0" IVar="4" Cut="2.7230381965637207e+00" cType="1" res="-2.9591271281242371e-01" rms="2.3480722308158875e-01" purity="6.6120155155658722e-02" nType="0">
          <Node pos="l" depth="2" NCoef="0" IVar="-1" Cut="0.0000000000000000e+00" cType="1" res="-3.7324305623769760e-02" rms="1.9185672700405121e-01" purity="4.1869457811117172e-02" nType="-99"/>
          <Node pos="r" depth="2" NCoef="0" IVar="-1" Cut="0.0000000000000000e+00" cType="1" res="-1.8871385604143143e-02" rms="4.0917575359344482e-01" purity="2.5046575069427490e-01" nType="-99"/>
        </Node>
      </Node>
    </BinaryTree>
    <BinaryTree type="DecisionTree" boostWeight="1.0000000000000000e+00" itree="9">
      <Node pos="s" depth="0" NCoef="0" IVar="0" Cut="2.1222569048404694e-03" cType="1" res="-4.3703287839889526e-02" rms="3.8943853974342346e-01" purity="4.9740242958068848e-01" nType="0">
        <Node pos="l" depth="1" NCoef="0" IVar="9" Cut="2.6663939952850342e+00" cType="1" res="1.4850530028343201e-01" rms="3.3800432085990906e-01" purity="8.1114619970321655e-01" nType="0">
          <Node pos="l" depth="2" NCoef="0" IVar="-1" Cut="0.0000000000000000e+00" cType="1" res="-3.6094062030315399e-02" rms="4.0241104364395142e-01" purity="3.0780231952667236e-01" nType="-99"/>
          <Node pos="r" depth="2" NCoef="0" IVar="-1" Cut="0.0000000000000000e+00" cType="1" res="5.0419259816408157e-02" rms="3.0504575371742249e-01" purity="8.5839962959289551e-01" nType="-99"/>
        </Node>
        <Node pos="r" depth="1" NCoef="0" IVar="3" Cut="3.4112587571144104e-01" cType="1" res="-1.8309342861175537e-01" rms="3.6410790681838989e-01" purity="2.6987472176551819e-01" nType="0">
          <Node pos="l" depth="2" NCoef="0" IVar="-1" Cut="0.0000000000000000e+00" cType="1" res="-3.1194711104035378e-02" rms="3.2458233833312988e-01" purity="1.9180975854396820e-01" nType="-99"/>
          <Node pos="r" depth="2" NCoef="0" IVar="-1" Cut="0.0000000000000000e+00" cType="1" res="7.5405528768897057e-03" rms="4.2607977986335754e-01" purity="5.9059822559356689e-01" nType="-99"/>
        </Node>
      </Node>
    </BinaryTree>
    <BinaryTree type="DecisionTree" boostWeight="1.0000000000000000e+00" itree="10">
      <Node pos="s" depth="0" NCoef="0" IVar="0" Cut="4.2694499716162682e-03" cType="1" res="-4.1132755577564240e-02" rms="3.8035804033279419e-01" purity="5.0009310245513916e-01" nType="0">
        <Node pos="l" depth="1" NCoef="0" IVar="9" Cut="2.5815067291259766e+00" cType="1" res="8.9496478438377380e-02" rms="3.6854249238967896e-01" purity="7.3811531066894531e-01" nType="0">
          <Node pos="l" depth="2" NCoef="0" IVar="-1" Cut="0.0000000000000000e+00" cType="1" res="-3.9572842419147491e-02" rms="3.5353577136993408e-01" purity="2.1137996017932892e-01" nType="-99"/>
          <Node pos="r" depth="2" NCoef="0" IVar="-1" Cut="0.0000000000000000e+00" cType="1" res="3.0701909214258194e-02" rms="3.4799814224243164e-01" purity="7.8700202703475952e-01" nType="-99"/>
        </Node>
        <Node pos="r" depth="1" NCoef="0" IVar="3" Cut="3.3723974227905273e-01" cType="1" res="-2.2716362774372101e-01" rms="3.1363233923912048e-01" purity="1.6112254559993744e-01" nType="0">
          <Node pos="l" depth="2" NCoef="0" IVar="-1" Cut="0.0000000000000000e+00" cType="1" res="-3.4000642597675323e-02" rms="2.6255828142166138e-01" purity="9.9700100719928741e-02" nType="-99"/>
          <Node pos="r" depth="2" NCoef="0" IVar="-1" Cut="0.0000000000000000e+00" cType="1" res="5.9935031458735466e-03" rms="4.4275617599487305e-01" purity="5.3307402133941650e-01" nType="-99"/>
        </Node>
      </Node>
    </BinaryTree>
    <BinaryTree type="DecisionTree" boostWeight="1.0000000000000000e+00" itree="11">
      <Node pos="s" depth="0" NCoef="0" IVar="1" Cut="3.5846376419067383e+00" cType="1" res="-4.2589627206325531e-02" rms="3.7634199857711792e-01" purity="5.0256413221359253e-01" nType="0">
        <Node pos="l" depth="1" NCoef="0" IVar="2" Cut="1.8939335346221924e+00" cType="1" res="9.3077436089515686e-02" rms="3.6472252011299133e-01" purity="7.7369123697280884e-01" nType="0">
          <Node pos="l" depth="2" NCoef="0" IVar="-1" Cut="0.0000000000000000e+00" cType="1" res="4.3341241776943207e-02" rms="3.1671357154846191e-01" purity="8.5168862342834473e-01" nType="-99"/>
          <Node pos="r" depth="2" NCoef="0" IVar="-1" Cut="0.0000000000000000e+00" cType="1" res="-1.6705021262168884e-02" rms="4.2779925465583801e-01" purity="5.4289793968200684e-01" nType="-99"/>
        </Node>
        <Node pos="r" depth="1" NCoef="0" IVar="6" Cut="2.5422041416168213e+00" cType="1" res="-1.9630797207355499e-01" rms="3.2696476578712463e-01" purity="1.9536201655864716e-01" nType="0">
          <Node pos="l" depth="2" NCoef="0" IVar="-1" Cut="0.0000000000000000e+00" cType="1" res="-3.2667323946952820e-02" rms="2.7199453115463257e-01" purity="1.1282890290021896e-01" nType="-99"/>
          <Node pos="r" depth="2" NCoef="0" IVar="-1" Cut="0.0000000000000000e+00" cType="1" res="1.9709155894815922e-03" rms="4.0804648399353027e-01" purity="4.8411315679550171e-01" nType="-99"/>
        </Node>
      </Node>
    </BinaryTree>
    <BinaryTree type="DecisionTree" boostWeight="1.0000000000000000e+00" itree="12">
      <Node pos="s" depth="0" NCoef="0" IVar="0" Cut="4.2601921595633030e-03" cType="1" res="-4.5359171926975250e-02" rms="3.7056475877761841e-01" purity="4.9906879663467407e-01" nType="0">
        <Node pos="l" depth="1" NCoef="0" IVar="6" Cut="2.2279880046844482e+00" cType="1" res="6.7396312952041626e-02" rms="3.6697831749916077e-01" purity="7.3402613401412964e-01" nType="0">
          <Node pos="l" depth="2" NCoef="0" IVar="-1" Cut="0.0000000000000000e+00" cType="1" res="-1.3913241215050220e-02" rms="4.2110306024551392e-01" purity="5.1910579204559326e-01" nType="-99"/>
          <Node pos="r" depth="2" NCoef="0" IVar="-1" Cut="0.0000000000000000e+00" cType="1" res="4.6611841768026352e-02" rms="2.9378554224967957e-01" purity="8.6734801530838013e-01" nType="-99"/>
        </Node>
        <Node pos="r" depth="1" NCoef="0" IVar="3" Cut="2.4255970120429993e-01" cType="1" res="-2.0400390028953552e-01" rms="3.1302353739738464e-01" purity="1.6848854720592499e-01" nType="0">
          <Node pos="l" depth="2" NCoef="0" IVar="-1" Cut="0.0000000000000000e+00" cType="1" res="-3.2363153994083405e-02" rms="2.5673392415046692e-01" purity="9.7496069967746735e-02" nType="-99"/>
          <Node pos="r" depth="2" NCoef="0" IVar="-1" Cut="0.0000000000000000e+00" cType="1" res="-3.4101898781955242e-03" rms="4.3211555480957031e-01" purity="4.5700964331626892e-01" nType="-99"/>
        </Node>
      </Node>
    </BinaryTree>
    <BinaryTree type="DecisionTree" boostWeight="1.0000000000000000e+00" itree="13">
      <Node pos="s" depth="0" NCoef="0" IVar="1" Cut="7.1694636344909668e+00" cType="1" res="-4.6003270894289017e-02" rms="3.6251497268676758e-01" purity="4.9539250135421753e-01" nType="0">
        <Node pos="l" depth="1" NCoef="0" IVar="8" Cut="1.4082629680633545e+00" cType="1" res="4.2122151702642441e-02" rms="3.7807402014732361e-01" purity="6.9060736894607544e-01" nType="0">
          <Node pos="l" depth="2" NCoef="0" IVar="-1" Cut="0.0000000000000000e+00" cType="1" res="-2.1323254331946373e-02" rms="4.2102023959159851e-01" purity="3.6895206570625305e-01" nType="-99"/>
          <Node pos="r" depth="2" NCoef="0" IVar="-1" Cut="0.0000000000000000e+00" cType="1" res="3.5217586904764175e-02" rms="3.2396009564399719e-01" purity="8.3424073457717896e-01" nType="-99"/>
        </Node>
        <Node pos="r" depth="1" NCoef="0" IVar="8" Cut="2.3400425910949707e+00" cType="1" res="-2.3916083574295044e-01" rms="2.2765931487083435e-01" purity="6.7510962486267090e-02" nType="0">
          <Node pos="l" depth="2" NCoef="0" IVar="-1" Cut="0.0000000000000000e+00" cType="1" res="-3.3805396407842636e-02" rms="1.8397003412246704e-01" purity="4.0228769183158875e-02" nType="-99"/>
          <Node pos="r" depth="2" NCoef="0" IVar="-1" Cut="0.0000000000000000e+00" cType="1" res="-1.5832494944334030e-02" rms="3.8779467344284058e-01" purity="2.4576976895332336e-01" nType="-99"/>
        </Node>
      </Node>
    </BinaryTree>
    <BinaryTree type="DecisionTree" boostWeight="1.0000000000000000e+00" itree="14">
      <Node pos="s" depth="0" NCoef="0" IVar="1" Cut="5.9653716087341309e+00" cType="1" res="-4.2103972285985947e-02" rms="3.5730379819869995e-01" purity="5.0328958034515381e-01" nType="0">
        <Node pos="l" depth="1" NCoef="0" IVar="4" Cut="1.9601913690567017e+00" cType="1" res="4.7815293073654175e-02" rms="3.6953535676002502e-01" purity="7.2116905450820923e-01" nType="0">
          <Node pos="l" depth="2" NCoef="0" IVar="-1" Cut="0.0000000000000000e+00" cType="1" res="-1.9373700022697449e-02" rms="4.2938950657844543e-01" purity="4.2363992333412170e-01" nType="-99"/>
          <Node pos="r" depth="2" NCoef="0" IVar="-1" Cut="0.0000000000000000e+00" cType="1" res="3.6305066198110580e-02" rms="3.1194669008255005e-01" purity="8.4978330135345459e-01" nType="-99"/>
        </Node>
        <Node pos="r" depth="1" NCoef="0" IVar="6" Cut="2.9300041198730469e+00" cType="1" res="-2.1003879606723785e-01" rms="2.6030656695365906e-01" purity="9.6374139189720154e-02" nType="0">
          <Node pos="l" depth="2" NCoef="0" IVar="-1" Cut="0.0000000000000000e+00" cType="1" res="-3.1140793114900589e-02" rms="2.2697052359580994e-01" purity="6.6803254187107086e-02" nType="-99"/>
          <Node pos="r" depth="2" NCoef="0" IVar="-1" Cut="0.0000000000000000e+00" cType="1" res="-1.9828204531222582e-03" rms="4.1737836599349976e-01" purity="3.6880141496658325e-01" nType="-99"/>
        </Node>
      </Node>
    </BinaryTree>
    <BinaryTree type="DecisionTree" boostWeight="1.0000000000000000e+00" itree="15">
      <Node pos="s" depth="0" NCoef="0" IVar="1" Cut="3.5792825222015381e+00" cType="1" res="-4.4232875108718872e-02" rms="3.5328316688537598e-01" purity="5.0434696674346924e-01" nType="0">
        <Node pos="l" depth="1" NCoef="0" IVar="8" Cut="9.8506253957748413e-01" cType="1" res="6.0867093503475189e-02" rms="3.5358589887619019e-01" purity="7.6947534084320068e-01" nType="0">
          <Node pos="l" depth="2" NCoef="0" IVar="-1" Cut="0.0000000000000000e+00" cType="1" res="-2.5654533877968788e-02" rms="4.2753165960311890e-01" purity="3.3531418442726135e-01" nType="-99"/>
          <Node pos="r" depth="2" NCoef="0" IVar="-1" Cut="0.0000000000000000e+00" cType="1" res="3.0180290341377258e-02" rms="3.2263216376304626e-01" purity="8.4091460704803467e-01" nType="-99"/>
        </Node>
        <Node pos="r" depth="1" NCoef="0" IVar="8" Cut="1.8836605548858643e+00" cType="1" res="-1.6783800721168518e-01" rms="3.1030344963073730e-01" purity="1.9253690540790558e-01" nType="0">
          <Node pos="l" depth="2" NCoef="0" IVar="-1" Cut="0.0000000000000000e+00" cType="1" res="-3.1131191179156303e-02" rms="2.4499945342540741e-01" purity="9.2777378857135773e-02" nType="-99"/>
          <Node pos="r" depth="2" NCoef="0" IVar="-1" Cut="0.0000000000000000e+00" cType="1" res="-5.6856134906411171e-03" rms="3.8899213075637817e-01" purity="4.1542795300483704e-01" nType="-99"/>
        </Node>
      </Node>
    </BinaryTree>
    <BinaryTree type="DecisionTree" boostWeight="1.0000000000000000e+00" itree="16">
      <Node pos="s" depth="0" NCoef="0" IVar="3" Cut="1.4787967503070831e-01" cType="1" res="-3.9885692298412323e-02" rms="3.4995949268341064e-01" purity="5.0813210010528564e-01" nType="0">
        <Node pos="l" depth="1" NCoef="0" IVar="8" Cut="2.1279284954071045e+00" cType="1" res="-1.3491538166999817e-01" rms="3.3128187060356140e-01" purity="3.3391398191452026e-01" nType="0">
          <Node pos="l" depth="2" NCoef="0" IVar="-1" Cut="0.0000000000000000e+00" cType="1" res="-2.9340282082557678e-02" rms="3.0791372060775757e-01" purity="2.0816461741924286e-01" nType="-99"/>
          <Node pos="r" depth="2" NCoef="0" IVar="-1" Cut="0.0000000000000000e+00" cType="1" res="3.2788398675620556e-03" rms="3.3851891756057739e-01" purity="6.3936346769332886e-01" nType="-99"/>
        </Node>
        <Node pos="r" depth="1" NCoef="0" IVar="4" Cut="1.1077370643615723e+00" cType="1" res="8.0421566963195801e-02" rms="3.3566883206367493e-01" purity="7.2869163751602173e-01" nType="0">
          <Node pos="l" depth="2" NCoef="0" IVar="-1" Cut="0.0000000000000000e+00" cType="1" res="-3.2217696309089661e-02" rms="3.2868078351020813e-01" purity="1.7349827289581299e-01" nType="-99"/>
          <Node pos="r" depth="2" NCoef="0" IVar="-1" Cut="0.0000000000000000e+00" cType="1" res="3.0661771073937416e-02" rms="3.1807875633239746e-01" purity="7.8571254014968872e-01" nType="-99"/>
        </Node>
      </Node>
    </BinaryTree>
    <BinaryTree type="DecisionTree" boostWeight="1.0000000000000000e+00" itree="17">
      <Node pos="s" depth="0" NCoef="0" IVar="2" Cut="1.4192204475402832e+00" cType="1" res="-4.6264246106147766e-02" rms="3.4620627760887146e-01" purity="4.9697715044021606e-01" nType="0">
        <Node pos="l" depth="1" NCoef="0" IVar="1" Cut="8.3642683029174805e+00" cType="1" res="5.6476838886737823e-02" rms="3.3176299929618835e-01" purity="6.7177957296371460e-01" nType="0">
          <Node pos="l" depth="2" NCoef="0" IVar="-1" Cut="0.0000000000000000e+00" cType="1" res="3.0324595049023628e-02" rms="3.2346409559249878e-01" purity="8.0223262310028076e-01" nType="-99"/>
          <Node pos="r" depth="2" NCoef="0" IVar="-1" Cut="0.0000000000000000e+00" cType="1" res="-2.6583053171634674e-02" rms="2.5583106279373169e-01" purity="8.7880969047546387e-02" nType="-99"/>
        </Node>
        <Node pos="r" depth="1" NCoef="0" IVar="8" Cut="2.2673721313476562e+00" cType="1" res="-1.6332712769508362e-01" rms="3.2447648048400879e-01" purity="2.9780787229537964e-01" nType="0">
          <Node pos="l" depth="2" NCoef="0" IVar="-1" Cut="0.0000000000000000e+00" cType="1" res="-3.2401777803897858e-02" rms="2.9556721448898315e-01" purity="1.8306683003902435e-01" nType="-99"/>
          <Node pos="r" depth="2" NCoef="0" IVar="-1" Cut="0.0000000000000000e+00" cType="1" res="5.4896338842809200e-03" rms="3.3979299664497375e-01" purity="6.5853071212768555e-01" nType="-99"/>
        </Node>
      </Node>
    </BinaryTree>
    <BinaryTree type="DecisionTree" boostWeight="1.0000000000000000e+00" itree="18">
      <Node pos="s" depth="0" NCoef="0" IVar="0" Cut="6.3901627436280251e-03" cType="1" res="-4.2710188776254654e-02" rms="3.4201809763908386e-01" purity="5.0339692831039429e-01" nType="0">
        <Node pos="l" depth="1" NCoef="0" IVar="2" Cut="2.8480288982391357e+00" cType="1" res="2.3359699174761772e-02" rms="3.5526683926582336e-01" purity="6.8155616521835327e-01" nType="0">
          <Node pos="l" depth="2" NCoef="0" IVar="-1" Cut="0.0000000000000000e+00" cType="1" res="1.9688827916979790e-02" rms="3.3392488956451416e-01" purity="7.6535159349441528e-01" nType="-99"/>
          <Node pos="r" depth="2" NCoef="0" IVar="-1" Cut="0.0000000000000000e+00" cType="1" res="-3.0294511467218399e-02" rms="3.6118826270103455e-01" purity="3.0706417560577393e-01" nType="-99"/>
        </Node>
        <Node pos="r" depth="1" NCoef="0" IVar="3" Cut="4.3525072932243347e-01" cType="1" res="-1.8989409506320953e-01" rms="2.5496861338615417e-01" purity="1.0651163756847382e-01" nType="0">
          <Node pos="l" depth="2" NCoef="0" IVar="-1" Cut="0.0000000000000000e+00" cType="1" res="-3.0396612361073494e-02" rms="2.2563563287258148e-01" purity="7.2874478995800018e-02" nType="-99"/>
          <Node pos="r" depth="2" NCoef="0" IVar="-1" Cut="0.0000000000000000e+00" cType="1" res="7.5870996806770563e-04" rms="4.1943633556365967e-01" purity="4.6973595023155212e-01" nType="-99"/>
        </Node>
      </Node>
    </BinaryTree>
    <BinaryTree type="DecisionTree" boostWeight="1.0000000000000000e+00" itree="19">
      <Node pos="s" depth="0" NCoef="0" IVar="6" Cut="2.3499374389648438e+00" cType="1" res="-4.6328023076057434e-02" rms="3.4037005901336670e-01" purity="4.9849858880043030e-01" nType="0">
        <Node pos="l" depth="1" NCoef="0" IVar="2" Cut="9.4494485855102539e-01" cType="1" res="-1.3320712745189667e-01" rms="3.4042072296142578e-01" purity="3.1630614399909973e-01" nType="0">
          <Node pos="l" depth="2" NCoef="0" IVar="-1" Cut="0.0000000000000000e+00" cType="1" res="-2.5535472668707371e-03" rms="3.7641623616218567e-01" purity="5.3701710700988770e-01" nType="-99"/>
          <Node pos="r" depth="2" NCoef="0" IVar="-1" Cut="0.0000000000000000e+00" cType="1" res="-2.9699923470616341e-02" rms="3.0212503671646118e-01" purity="2.0268476009368896e-01" nType="-99"/>
        </Node>
        <Node pos="r" depth="1" NCoef="0" IVar="1" Cut="9.5311946868896484e+00" cType="1" res="6.6689401865005493e-02" rms="3.0531153082847595e-01" purity="7.3550522327423096e-01" nType="0">
          <Node pos="l" depth="2" NCoef="0" IVar="-1" Cut="0.0000000000000000e+00" cType="1" res="3.2688908278942108e-02" rms="2.9452028870582581e-01" purity="8.3547586202621460e-01" nType="-99"/>
          <Node pos="r" depth="2" NCoef="0" IVar="-1" Cut="0.0000000000000000e+00" cType="1" res="-2.6072593405842781e-02" rms="2.5988209247589111e-01" purity="9.3977510929107666e-02" nType="-99"/>
        </Node>
      </Node>
    </BinaryTree>
    <BinaryTree type="DecisionTree" boostWeight="1.0000000000000000e+00" itree="20">
      <Node pos="s" depth="0" NCoef="0" IVar="4" Cut="2.2802429199218750e+00" cType="1" res="-4.1534863412380219e-02" rms="3.3329415321350098e-01" purity="4.9948975443840027e-01" nType="0">
        <Node pos="l" depth="1" NCoef="0" IVar="3" Cut="3.3723974227905273e-01" cType="1" res="-1.2810611724853516e-01" rms="3.3398732542991638e-01" purity="3.0311796069145203e-01" nType="0">
          <Node pos="l" depth="2" NCoef="0" IVar="-1" Cut="0.0000000000000000e+00" cType="1" res="-2.7770418673753738e-02" rms="3.0161353945732117e-01" purity="2.0318984985351562e-01" nType="-99"/>
          <Node pos="r" depth="2" NCoef="0" IVar="-1" Cut="0.0000000000000000e+00" cType="1" res="7.1087591350078583e-03" rms="3.8022631406784058e-01" purity="6.3088870048522949e-01" nType="-99"/>
        </Node>
        <Node pos="r" depth="1" NCoef="0" IVar="9" Cut="2.7111823558807373e+00" cType="1" res="5.9594079852104187e-02" rms="3.0259335041046143e-01" purity="7.2888314723968506e-01" nType="0">
          <Node pos="l" depth="2" NCoef="0" IVar="-1" Cut="0.0000000000000000e+00" cType="1" res="-3.3963564783334732e-02" rms="3.3002677559852600e-01" purity="2.3302276432514191e-01" nType="-99"/>
          <Node pos="r" depth="2" NCoef="0" IVar="-1" Cut="0.0000000000000000e+00" cType="1" res="3.4638285636901855e-02" rms="2.6938134431838989e-01" purity="8.1707799434661865e-01" nType="-99"/>
        </Node>
      </Node>
    </BinaryTree>
    <BinaryTree type="DecisionTree" boostWeight="1.0000000000000000e+00" itree="21">
      <Node pos="s" depth="0" NCoef="0" IVar="8" Cut="1.5708018541336060e+00" cType="1" res="-4.3532758951187134e-02" rms="3.2884126901626587e-01" purity="4.9345892667770386e-01" nType="0">
        <Node pos="l" depth="1" NCoef="0" IVar="11" Cut="3.3441786766052246e+00" cType="1" res="-1.4619143307209015e-01" rms="3.1881144642829895e-01" purity="2.3990428447723389e-01" nType="0">
          <Node pos="l" depth="2" NCoef="0" IVar="-1" Cut="0.0000000000000000e+00" cType="1" res="-3.3401690423488617e-02" rms="2.5827428698539734e-01" purity="1.1020285636186600e-01" nType="-99"/>
          <Node pos="r" depth="2" NCoef="0" IVar="-1" Cut="0.0000000000000000e+00" cType="1" res="-1.0123313404619694e-02" rms="3.5323011875152588e-01" purity="3.8251107931137085e-01" nType="-99"/>
        </Node>
        <Node pos="r" depth="1" NCoef="0" IVar="1" Cut="9.5445203781127930e+00" cType="1" res="3.9743933826684952e-02" rms="3.1292480230331421e-01" purity="6.9914239645004272e-01" nType="0">
          <Node pos="l" depth="2" NCoef="0" IVar="-1" Cut="0.0000000000000000e+00" cType="1" res="2.6801999658346176e-02" rms="3.0672720074653625e-01" purity="8.2467323541641235e-01" nType="-99"/>
          <Node pos="r" depth="2" NCoef="0" IVar="-1" Cut="0.0000000000000000e+00" cType="1" res="-2.7633357793092728e-02" rms="2.3802919685840607e-01" purity="7.5057633221149445e-02" nType="-99"/>
        </Node>
      </Node>
    </BinaryTree>
    <BinaryTree type="DecisionTree" boostWeight="1.0000000000000000e+00" itree="22">
      <Node pos="s" depth="0" NCoef="0" IVar="1" Cut="2.3846235275268555e+00" cType="1" res="-4.1670482605695724e-02" rms="3.2537606358528137e-01" purity="5.0057220458984375e-01" nType="0">
        <Node pos="l" depth="1" NCoef="0" IVar="12" Cut="2.4415025711059570e+00" cType="1" res="6.0510590672492981e-02" rms="3.2030925154685974e-01" purity="8.0750167369842529e-01" nType="0">
          <Node pos="l" depth="2" NCoef="0" IVar="-1" Cut="0.0000000000000000e+00" cType="1" res="-2.7654472738504410e-02" rms="3.8610270619392395e-01" purity="4.0923959016799927e-01" nType="-99"/>
          <Node pos="r" depth="2" NCoef="0" IVar="-1" Cut="0.0000000000000000e+00" cType="1" res="2.9378615319728851e-02" rms="3.0032330751419067e-01" purity="8.5357916355133057e-01" nType="-99"/>
        </Node>
        <Node pos="r" depth="1" NCoef="0" IVar="6" Cut="2.4150238037109375e+00" cType="1" res="-1.1975945532321930e-01" rms="3.0707114934921265e-01" purity="2.6601016521453857e-01" nType="0">
          <Node pos="l" depth="2" NCoef="0" IVar="-1" Cut="0.0000000000000000e+00" cType="1" res="-2.7148723602294922e-02" rms="2.7504730224609375e-01" purity="1.4815351366996765e-01" nType="-99"/>
          <Node pos="r" depth="2" NCoef="0" IVar="-1" Cut="0.0000000000000000e+00" cType="1" res="3.2211851794272661e-04" rms="3.4107616543769836e-01" purity="5.3859722614288330e-01" nType="-99"/>
        </Node>
      </Node>
    </BinaryTree>
    <BinaryTree type="DecisionTree" boostWeight="1.0000000000000000e+00" itree="23">
      <Node pos="s" depth="0" NCoef="0" IVar="8" Cut="1.5804868936538696e+00" cType="1" res="-3.4593369811773300e-02" rms="3.2195937633514404e-01" purity="5.0837814807891846e-01" nType="0">
        <Node pos="l" depth="1" NCoef="0" IVar="11" Cut="3.3441786766052246e+00" cType="1" res="-1.2834210693836212e-01" rms="3.1938982009887695e-01" purity="2.5634497404098511e-01" nType="0">
          <Node pos="l" depth="2" NCoef="0" IVar="-1" Cut="0.0000000000000000e+00" cType="1" res="-3.1111525371670723e-02" rms="2.6243224740028381e-01" purity="1.2074626982212067e-01" nType="-99"/>
          <Node pos="r" depth="2" NCoef="0" IVar="-1" Cut="0.0000000000000000e+00" cType="1" res="-8.8640507310628891e-03" rms="3.5376325249671936e-01" purity="4.0208247303962708e-01" nType="-99"/>
        </Node>
        <Node pos="r" depth="1" NCoef="0" IVar="1" Cut="1.1930517196655273e+01" cType="1" res="4.2325690388679504e-02" rms="3.0312106013298035e-01" purity="7.1516656875610352e-01" nType="0">
          <Node pos="l" depth="2" NCoef="0" IVar="-1" Cut="0.0000000000000000e+00" cType="1" res="2.4758821353316307e-02" rms="3.0129292607307434e-01" purity="8.1435692310333252e-01" nType="-99"/>
          <Node pos="r" depth="2" NCoef="0" IVar="-1" Cut="0.0000000000000000e+00" cType="1" res="-2.9961217194795609e-02" rms="1.8882636725902557e-01" purity="4.3682195246219635e-02" nType="-99"/>
        </Node>
      </Node>
    </BinaryTree>
    <BinaryTree type="DecisionTree" boostWeight="1.0000000000000000e+00" itree="24">
      <Node pos="s" depth="0" NCoef="0" IVar="7" Cut="2.0122368335723877e+00" cType="1" res="-4.2901728302240372e-02" rms="3.2405072450637817e-01" purity="4.9753490090370178e-01" nType="0">
        <Node pos="l" depth="1" NCoef="0" IVar="2" Cut="9.4848001003265381e-01" cType="1" res="-1.5152329206466675e-01" rms="3.1957009434700012e-01" purity="2.6166057586669922e-01" nType="0">
          <Node pos="l" depth="2" NCoef="0" IVar="-1" Cut="0.0000000000000000e+00" cType="1" res="-9.1053955256938934e-03" rms="3.5406768321990967e-01" purity="4.6508920192718506e-01" nType="-99"/>
          <Node pos="r" depth="2" NCoef="0" IVar="-1" Cut="0.0000000000000000e+00" cType="1" res="-3.2150484621524811e-02" rms="2.8909957408905029e-01" purity="1.6698732972145081e-01" nType="-99"/>
        </Node>
        <Node pos="r" depth="1" NCoef="0" IVar="9" Cut="2.6935954093933105e+00" cType="1" res="1.7317948862910271e-02" rms="3.1054806709289551e-01" purity="6.2830334901809692e-01" nType="0">
          <Node pos="l" depth="2" NCoef="0" IVar="-1" Cut="0.0000000000000000e+00" cType="1" res="-3.4930974245071411e-02" rms="2.9485526680946350e-01" purity="1.6969868540763855e-01" nType="-99"/>
          <Node pos="r" depth="2" NCoef="0" IVar="-1" Cut="0.0000000000000000e+00" cType="1" res="1.7995584756135941e-02" rms="2.9151904582977295e-01" purity="7.1620976924896240e-01" nType="-99"/>
        </Node>
      </Node>
    </BinaryTree>
    <BinaryTree type="DecisionTree" boostWeight="1.0000000000000000e+00" itree="25">
      <Node pos="s" depth="0" NCoef="0" IVar="8" Cut="1.9666841030120850e+00" cType="1" res="-3.5953681915998459e-02" rms="3.1584852933883667e-01" purity="4.9913105368614197e-01" nType="0">
        <Node pos="l" depth="1" NCoef="0" IVar="2" Cut="1.4198936223983765e+00" cType="1" res="-1.0331508517265320e-01" rms="3.1969511508941650e-01" purity="3.1195032596588135e-01" nType="0">
          <Node pos="l" depth="2" NCoef="0" IVar="-1" Cut="0.0000000000000000e+00" cType="1" res="-4.7868988476693630e-03" rms="3.4788548946380615e-01" purity="4.8454612493515015e-01" nType="-99"/>
          <Node pos="r" depth="2" NCoef="0" IVar="-1" Cut="0.0000000000000000e+00" cType="1" res="-2.8546646237373352e-02" rms="2.7233627438545227e-01" purity="1.5590986609458923e-01" nType="-99"/>
        </Node>
        <Node pos="r" depth="1" NCoef="0" IVar="6" Cut="1.2132711410522461e+00" cType="1" res="6.2378827482461929e-02" rms="2.8266322612762451e-01" purity="7.7237290143966675e-01" nType="0">
          <Node pos="l" depth="2" NCoef="0" IVar="-1" Cut="0.0000000000000000e+00" cType="1" res="-3.3450148999691010e-02" rms="3.4261530637741089e-01" purity="2.5470167398452759e-01" nType="-99"/>
          <Node pos="r" depth="2" NCoef="0" IVar="-1" Cut="0.0000000000000000e+00" cType="1" res="2.9611267149448395e-02" rms="2.6426905393600464e-01" purity="8.1863242387771606e-01" nType="-99"/>
        </Node>
      </Node>
    </BinaryTree>
    <BinaryTree type="DecisionTree" boostWeight="1.0000000000000000e+00" itree="26">
      <Node pos="s" depth="0" NCoef="0" IVar="3" Cut="4.9278013408184052e-02" cType="1" res="-4.0521834045648575e-02" rms="3.1450372934341431e-01" purity="4.9930071830749512e-01" nType="0">
        <Node pos="l" depth="1" NCoef="0" IVar="0" Cut="2.1278583444654942e-03" cType="1" res="-1.2589840590953827e-01" rms="2.9293230175971985e-01" purity="2.9328262805938721e-01" nType="0">
          <Node pos="l" depth="2" NCoef="0" IVar="-1" Cut="0.0000000000000000e+00" cType="1" res="-4.2706038802862167e-03" rms="3.4566679596900940e-01" purity="7.1244204044342041e-01" nType="-99"/>
          <Node pos="r" depth="2" NCoef="0" IVar="-1" Cut="0.0000000000000000e+00" cType="1" res="-2.7840541675686836e-02" rms="2.6023620367050171e-01" purity="1.4199966192245483e-01" nType="-99"/>
        </Node>
        <Node pos="r" depth="1" NCoef="0" IVar="4" Cut="1.1769496202468872e+00" cType="1" res="4.0400225669145584e-02" rms="3.1284973025321960e-01" purity="6.9456976652145386e-01" nType="0">
          <Node pos="l" depth="2" NCoef="0" IVar="-1" Cut="0.0000000000000000e+00" cType="1" res="-2.8203696012496948e-02" rms="3.0343231558799744e-01" purity="1.6507513821125031e-01" nType="-99"/>
          <Node pos="r" depth="2" NCoef="0" IVar="-1" Cut="0.0000000000000000e+00" cType="1" res="2.0163482055068016e-02" rms="3.0235803127288818e-01" purity="7.5946539640426636e-01" nType="-99"/>
        </Node>
      </Node>
    </BinaryTree>
    <BinaryTree type="DecisionTree" boostWeight="1.0000000000000000e+00" itree="27">
      <Node pos="s" depth="0" NCoef="0" IVar="6" Cut="2.0134356021881104e+00" cType="1" res="-3.3552002161741257e-02" rms="3.1160914897918701e-01" purity="5.0222522020339966e-01" nType="0">
        <Node pos="l" depth="1" NCoef="0" IVar="3" Cut="3.4112587571144104e-01" cType="1" res="-1.1854387074708939e-01" rms="3.0625110864639282e-01" purity="2.5685122609138489e-01" nType="0">
          <Node pos="l" depth="2" NCoef="0" IVar="-1" Cut="0.0000000000000000e+00" cType="1" res="-2.6709755882620811e-02" rms="2.7726951241493225e-01" purity="1.7424175143241882e-01" nType="-99"/>
          <Node pos="r" depth="2" NCoef="0" IVar="-1" Cut="0.0000000000000000e+00" cType="1" res="5.0054597668349743e-03" rms="3.6909720301628113e-01" purity="5.8902108669281006e-01" nType="-99"/>
        </Node>
        <Node pos="r" depth="1" NCoef="0" IVar="7" Cut="1.3955432176589966e+00" cType="1" res="2.9845206066966057e-02" rms="3.0027022957801819e-01" purity="6.8525481224060059e-01" nType="0">
          <Node pos="l" depth="2" NCoef="0" IVar="-1" Cut="0.0000000000000000e+00" cType="1" res="-3.4160953015089035e-02" rms="3.4135663509368896e-01" purity="2.6256415247917175e-01" nType="-99"/>
          <Node pos="r" depth="2" NCoef="0" IVar="-1" Cut="0.0000000000000000e+00" cType="1" res="1.7808262258768082e-02" rms="2.8202885389328003e-01" purity="7.4033367633819580e-01" nType="-99"/>
        </Node>
      </Node>
    </BinaryTree>
    <BinaryTree type="DecisionTree" boostWeight="1.0000000000000000e+00" itree="28">
      <Node pos="s" depth="0" NCoef="0" IVar="2" Cut="1.4196058511734009e+00" cType="1" res="-3.5291280597448349e-02" rms="3.1299576163291931e-01" purity="5.0484120845794678e-01" nType="0">
        <Node pos="l" depth="1" NCoef="0" IVar="9" Cut="2.6382465362548828e+00" cType="1" res="3.5176560282707214e-02" rms="3.0970546603202820e-01" purity="6.7509269714355469e-01" nType="0">
          <Node pos="l" depth="2" NCoef="0" IVar="-1" Cut="0.0000000000000000e+00" cType="1" res="-3.2537430524826050e-02" rms="3.3176276087760925e-01" purity="2.2145201265811920e-01" nType="-99"/>
          <Node pos="r" depth="2" NCoef="0" IVar="-1" Cut="0.0000000000000000e+00" cType="1" res="1.7858704552054405e-02" rms="2.9660907387733459e-01" purity="7.2341370582580566e-01" nType="-99"/>
        </Node>
        <Node pos="r" depth="1" NCoef="0" IVar="4" Cut="2.4876959323883057e+00" cType="1" res="-1.1736626923084259e-01" rms="2.9636591672897339e-01" purity="3.0654665827751160e-01" nType="0">
          <Node pos="l" depth="2" NCoef="0" IVar="-1" Cut="0.0000000000000000e+00" cType="1" res="-2.8015257790684700e-02" rms="2.7525952458381653e-01" purity="1.7280228435993195e-01" nType="-99"/>
          <Node pos="r" depth="2" NCoef="0" IVar="-1" Cut="0.0000000000000000e+00" cType="1" res="-2.9623575974255800e-03" rms="3.1561350822448730e-01" purity="6.1395287513732910e-01" nType="-99"/>
        </Node>
      </Node>
    </BinaryTree>
    <BinaryTree type="DecisionTree" boostWeight="1.0000000000000000e+00" itree="29">
      <Node pos="s" depth="0" NCoef="0" IVar="7" Cut="1.8157750368118286e+00" cType="1" res="-3.6884699016809464e-02" rms="3.0979344248771667e-01" purity="5.0089591741561890e-01" nType="0">
        <Node pos="l" depth="1" NCoef="0" IVar="3" Cut="9.0926110744476318e-02" cType="1" res="-1.4790824055671692e-01" rms="3.0395168066024780e-01" purity="2.3001830279827118e-01" nType="0">
          <Node pos="l" depth="2" NCoef="0" IVar="-1" Cut="0.0000000000000000e+00" cType="1" res="-3.2500706613063812e-02" rms="2.5606587529182434e-01" purity="1.2120913714170456e-01" nType="-99"/>
          <Node pos="r" depth="2" NCoef="0" IVar="-1" Cut="0.0000000000000000e+00" cType="1" res="-1.4074693433940411e-02" rms="3.6483874917030334e-01" purity="4.3005412817001343e-01" nType="-99"/>
        </Node>
        <Node pos="r" depth="1" NCoef="0" IVar="9" Cut="2.6587545871734619e+00" cType="1" res="6.5805017948150635e-03" rms="3.0109924077987671e-01" purity="6.0694330930709839e-01" nType="0">
          <Node pos="l" depth="2" NCoef="0" IVar="-1" Cut="0.0000000000000000e+00" cType="1" res="-3.2967284321784973e-02" rms="2.8309574723243713e-01" purity="1.4859259128570557e-01" nType="-99"/>
          <Node pos="r" depth="2" NCoef="0" IVar="-1" Cut="0.0000000000000000e+00" cType="1" res="1.1762298643589020e-02" rms="2.8969609737396240e-01" purity="6.8438303470611572e-01" nType="-99"/>
        </Node>
      </Node>
    </BinaryTree>
    <BinaryTree type="DecisionTree" boostWeight="1.0000000000000000e+00" itree="30">
      <Node pos="s" depth="0" NCoef="0" IVar="0" Cut="2.1324767731130123e-03" cType="1" res="-3.7809070199728012e-02" rms="3.0517736077308655e-01" purity="4.9668893218040466e-01" nType="0">
        <Node pos="l" depth="1" NCoef="0" IVar="7" Cut="1.4113941192626953e+00" cType="1" res="4.4358219951391220e-02" rms="2.9209566116333008e-01" purity="8.1719821691513062e-01" nType="0">
          <Node pos="l" depth="2" NCoef="0" IVar="-1" Cut="0.0000000000000000e+00" cType="1" res="-4.0308676660060883e-02" rms="4.3872871994972229e-01" purity="4.2691034078598022e-01" nType="-99"/>
          <Node pos="r" depth="2" NCoef="0" IVar="-1" Cut="0.0000000000000000e+00" cType="1" res="2.2825401276350021e-02" rms="2.6984193921089172e-01" purity="8.4391480684280396e-01" nType="-99"/>
        </Node>
        <Node pos="r" depth="1" NCoef="0" IVar="3" Cut="5.2937561273574829e-01" cType="1" res="-9.7398206591606140e-02" rms="3.0058684945106506e-01" purity="2.6425004005432129e-01" nType="0">
          <Node pos="l" depth="2" NCoef="0" IVar="-1" Cut="0.0000000000000000e+00" cType="1" res="-2.1971542388200760e-02" rms="2.8541353344917297e-01" purity="2.1017839014530182e-01" nType="-99"/>
          <Node pos="r" depth="2" NCoef="0" IVar="-1" Cut="0.0000000000000000e+00" cType="1" res="2.6583561673760414e-02" rms="3.4308689832687378e-01" purity="7.1799957752227783e-01" nType="-99"/>
        </Node>
      </Node>
    </BinaryTree>
    <BinaryTree type="DecisionTree" boostWeight="1.0000000000000000e+00" itree="31">
      <Node pos="s" depth="0" NCoef="0" IVar="2" Cut="1.4251097440719604e+00" cType="1" res="-3.1342752277851105e-02" rms="3.0609238147735596e-01" purity="5.0369316339492798e-01" nType="0">
        <Node pos="l" depth="1" NCoef="0" IVar="1" Cut="8.3642530441284180e+00" cType="1" res="3.2551325857639313e-02" rms="3.0240929126739502e-01" purity="6.7130732536315918e-01" nType="0">
          <Node pos="l" depth="2" NCoef="0" IVar="-1" Cut="0.0000000000000000e+00" cType="1" res="2.1196024492383003e-02" rms="3.0335792899131775e-01" purity="7.9555308818817139e-01" nType="-99"/>
          <Node pos="r" depth="2" NCoef="0" IVar="-1" Cut="0.0000000000000000e+00" cType="1" res="-2.3825269192457199e-02" rms="2.3728406429290771e-01" purity="8.0958493053913116e-02" nType="-99"/>
        </Node>
        <Node pos="r" depth="1" NCoef="0" IVar="8" Cut="2.1525833606719971e+00" cType="1" res="-1.0545437783002853e-01" rms="2.9336714744567871e-01" purity="3.0927515029907227e-01" nType="0">
          <Node pos="l" depth="2" NCoef="0" IVar="-1" Cut="0.0000000000000000e+00" cType="1" res="-2.5963004678487778e-02" rms="2.7603983879089355e-01" purity="1.8195177614688873e-01" nType="-99"/>
          <Node pos="r" depth="2" NCoef="0" IVar="-1" Cut="0.0000000000000000e+00" cType="1" res="-2.3116292431950569e-03" rms="3.1277993321418762e-01" purity="6.2951242923736572e-01" nType="-99"/>
        </Node>
      </Node>
    </BinaryTree>
    <BinaryTree type="DecisionTree" boostWeight="1.0000000000000000e+00" itree="32">
      <Node pos="s" depth="0" NCoef="0" IVar="1" Cut="7.1590032577514648e+00" cType="1" res="-2.9761120676994324e-02" rms="3.0213928222656250e-01" purity="5.0674396753311157e-01" nType="0">
        <Node pos="l" depth="1" NCoef="0" IVar="7" Cut="1.1897100210189819e+00" cType="1" res="1.3131964951753616e-02" rms="3.2683289051055908e-01" purity="7.0071578025817871e-01" nType="0">
          <Node pos="l" depth="2" NCoef="0" IVar="-1" Cut="0.0000000000000000e+00" cType="1" res="-3.8199879229068756e-02" rms="3.7155750393867493e-01" purity="2.3968371748924255e-01" nType="-99"/>
          <Node pos="r" depth="2" NCoef="0" IVar="-1" Cut="0.0000000000000000e+00" cType="1" res="9.5665585249662399e-03" rms="3.1399390101432800e-01" purity="7.3718619346618652e-01" nType="-99"/>
        </Node>
        <Node pos="r" depth="1" NCoef="0" IVar="1" Cut="1.2273473739624023e+01" cType="1" res="-1.2706983089447021e-01" rms="2.0593635737895966e-01" purity="6.6693022847175598e-02" nType="0">
          <Node pos="l" depth="2" NCoef="0" IVar="-1" Cut="0.0000000000000000e+00" cType="1" res="-1.7585461959242821e-02" rms="2.8034210205078125e-01" purity="1.3795106112957001e-01" nType="-99"/>
          <Node pos="r" depth="2" NCoef="0" IVar="-1" Cut="0.0000000000000000e+00" cType="1" res="-2.9166577383875847e-02" rms="1.3789510726928711e-01" purity="2.2560555487871170e-02" nType="-99"/>
        </Node>
      </Node>
    </BinaryTree>
    <BinaryTree type="DecisionTree" boostWeight="1.0000000000000000e+00" itree="33">
      <Node pos="s" depth="0" NCoef="0" IVar="3" Cut="1.4787967503070831e-01" cType="1" res="-2.7908368036150932e-02" rms="3.0039581656455994e-01" purity="5.0277149677276611e-01" nType="0">
        <Node pos="l" depth="1" NCoef="0" IVar="4" Cut="2.3481554985046387e+00" cType="1" res="-8.5866615176200867e-02" rms="2.8900000452995300e-01" purity="3.2661959528923035e-01" nType="0">
          <Node pos="l" depth="2" NCoef="0" IVar="-1" Cut="0.0000000000000000e+00" cType="1" res="-2.5249155238270760e-02" rms="2.6915118098258972e-01" purity="1.6816194355487823e-01" nType="-99"/>
          <Node pos="r" depth="2" NCoef="0" IVar="-1" Cut="0.0000000000000000e+00" cType="1" res="-2.3169808555394411e-03" rms="3.0298957228660583e-01" purity="5.8260077238082886e-01" nType="-99"/>
        </Node>
        <Node pos="r" depth="1" NCoef="0" IVar="4" Cut="1.0826599597930908e+00" cType="1" res="4.3885152786970139e-02" rms="2.9873451590538025e-01" purity="7.2097277641296387e-01" nType="0">
          <Node pos="l" depth="2" NCoef="0" IVar="-1" Cut="0.0000000000000000e+00" cType="1" res="-2.8543729335069656e-02" rms="2.9878640174865723e-01" purity="1.3723474740982056e-01" nType="-99"/>
          <Node pos="r" depth="2" NCoef="0" IVar="-1" Cut="0.0000000000000000e+00" cType="1" res="2.1720388904213905e-02" rms="2.8860026597976685e-01" purity="7.8336721658706665e-01" nType="-99"/>
        </Node>
      </Node>
    </BinaryTree>
    <BinaryTree type="DecisionTree" boostWeight="1.0000000000000000e+00" itree="34">
      <Node pos="s" depth="0" NCoef="0" IVar="3" Cut="-1.4086638391017914e-01" cType="1" res="-2.7487032115459442e-02" rms="2.9862666130065918e-01" purity="5.0346374511718750e-01" nType="0">
        <Node pos="l" depth="1" NCoef="0" IVar="8" Cut="2.2116789817810059e+00" cType="1" res="-1.1468212306499481e-01" rms="2.6983073353767395e-01" purity="2.3882670700550079e-01" nType="0">
          <Node pos="l" depth="2" NCoef="0" IVar="-1" Cut="0.0000000000000000e+00" cType="1" res="-2.7896471321582794e-02" rms="2.4278227984905243e-01" purity="1.3217517733573914e-01" nType="-99"/>
          <Node pos="r" depth="2" NCoef="0" IVar="-1" Cut="0.0000000000000000e+00" cType="1" res="-5.5220462381839752e-03" rms="3.2531476020812988e-01" purity="5.7956546545028687e-01" nType="-99"/>
        </Node>
        <Node pos="r" depth="1" NCoef="0" IVar="4" Cut="9.8120671510696411e-01" cType="1" res="1.5312485396862030e-02" rms="3.0273583531379700e-01" purity="6.3336020708084106e-01" nType="0">
          <Node pos="l" depth="2" NCoef="0" IVar="-1" Cut="0.0000000000000000e+00" cType="1" res="-3.1814500689506531e-02" rms="2.3303475975990295e-01" purity="7.6723016798496246e-02" nType="-99"/>
          <Node pos="r" depth="2" NCoef="0" IVar="-1" Cut="0.0000000000000000e+00" cType="1" res="1.1611361987888813e-02" rms="3.0083480477333069e-01" purity="6.9912803173065186e-01" nType="-99"/>
        </Node>
      </Node>
    </BinaryTree>
    <BinaryTree type="DecisionTree" boostWeight="1.0000000000000000e+00" itree="35">
      <Node pos="s" depth="0" NCoef="0" IVar="9" Cut="2.7876057624816895e+00" cType="1" res="-2.6678409427404404e-02" rms="2.9782655835151672e-01" purity="5.0403529405593872e-01" nType="0">
        <Node pos="l" depth="1" NCoef="0" IVar="6" Cut="1.3982950448989868e+00" cType="1" res="-1.6721054911613464e-01" rms="2.9784721136093140e-01" purity="1.9481256604194641e-01" nType="0">
          <Node pos="l" depth="2" NCoef="0" IVar="-1" Cut="0.0000000000000000e+00" cType="1" res="-3.7369813770055771e-02" rms="2.4644404649734497e-01" purity="6.8526148796081543e-02" nType="-99"/>
          <Node pos="r" depth="2" NCoef="0" IVar="-1" Cut="0.0000000000000000e+00" cType="1" res="-1.6511270776391029e-02" rms="3.5256233811378479e-01" purity="4.1476663947105408e-01" nType="-99"/>
        </Node>
        <Node pos="r" depth="1" NCoef="0" IVar="12" Cut="2.4937751293182373e+00" cType="1" res="6.0572393704205751e-04" rms="2.9003372788429260e-01" purity="5.6407052278518677e-01" nType="0">
          <Node pos="l" depth="2" NCoef="0" IVar="-1" Cut="0.0000000000000000e+00" cType="1" res="-2.6251209899783134e-02" rms="2.5795701146125793e-01" purity="1.8628402054309845e-01" nType="-99"/>
          <Node pos="r" depth="2" NCoef="0" IVar="-1" Cut="0.0000000000000000e+00" cType="1" res="1.0749922133982182e-02" rms="2.8679031133651733e-01" purity="6.5957254171371460e-01" nType="-99"/>
        </Node>
      </Node>
    </BinaryTree>
    <BinaryTree type="DecisionTree" boostWeight="1.0000000000000000e+00" itree="36">
      <Node pos="s" depth="0" NCoef="0" IVar="6" Cut="2.0223236083984375e+00" cType="1" res="-2.9344778507947922e-02" rms="2.9727351665496826e-01" purity="5.0212639570236206e-01" nType="0">
        <Node pos="l" depth="1" NCoef="0" IVar="9" Cut="2.7239933013916016e+00" cType="1" res="-9.7916051745414734e-02" rms="2.9701760411262512e-01" purity="2.6125958561897278e-01" nType="0">
          <Node pos="l" depth="2" NCoef="0" IVar="-1" Cut="0.0000000000000000e+00" cType="1" res="-3.2913018018007278e-02" rms="2.6004815101623535e-01" purity="1.0220032930374146e-01" nType="-99"/>
          <Node pos="r" depth="2" NCoef="0" IVar="-1" Cut="0.0000000000000000e+00" cType="1" res="-1.3293246738612652e-02" rms="3.0399534106254578e-01" purity="3.2470819354057312e-01" nType="-99"/>
        </Node>
        <Node pos="r" depth="1" NCoef="0" IVar="12" Cut="2.4450495243072510e+00" cType="1" res="2.2052288055419922e-02" rms="2.8691378235816956e-01" purity="6.8266618251800537e-01" nType="0">
          <Node pos="l" depth="2" NCoef="0" IVar="-1" Cut="0.0000000000000000e+00" cType="1" res="-2.6420516893267632e-02" rms="2.9704675078392029e-01" purity="2.6700550317764282e-01" nType="-99"/>
          <Node pos="r" depth="2" NCoef="0" IVar="-1" Cut="0.0000000000000000e+00" cType="1" res="1.6430741176009178e-02" rms="2.7606815099716187e-01" purity="7.4979877471923828e-01" nType="-99"/>
        </Node>
      </Node>
    </BinaryTree>
    <BinaryTree type="DecisionTree" boostWeight="1.0000000000000000e+00" itree="37">
      <Node pos="s" depth="0" NCoef="0" IVar="2" Cut="1.4273407459259033e+00" cType="1" res="-2.7102898806333542e-02" rms="2.9443052411079407e-01" purity="5.0156682729721069e-01" nType="0">
        <Node pos="l" depth="1" NCoef="0" IVar="1" Cut="9.5445051193237305e+00" cType="1" res="3.0161755159497261e-02" rms="2.9242911934852600e-01" purity="6.7355465888977051e-01" nType="0">
          <Node pos="l" depth="2" NCoef="0" IVar="-1" Cut="0.0000000000000000e+00" cType="1" res="1.8818220123648643e-02" rms="2.9812207818031311e-01" purity="7.8912901878356934e-01" nType="-99"/>
          <Node pos="r" depth="2" NCoef="0" IVar="-1" Cut="0.0000000000000000e+00" cType="1" res="-2.3532414808869362e-02" rms="2.0742753148078918e-01" purity="6.1232805252075195e-02" nType="-99"/>
        </Node>
        <Node pos="r" depth="1" NCoef="0" IVar="4" Cut="2.1589102745056152e+00" cType="1" res="-9.3610279262065887e-02" rms="2.8252738714218140e-01" purity="3.0181956291198730e-01" nType="0">
          <Node pos="l" depth="2" NCoef="0" IVar="-1" Cut="0.0000000000000000e+00" cType="1" res="-2.7257077395915985e-02" rms="2.5343886017799377e-01" purity="1.2605111300945282e-01" nType="-99"/>
          <Node pos="r" depth="2" NCoef="0" IVar="-1" Cut="0.0000000000000000e+00" cType="1" res="-7.0822825655341148e-03" rms="3.0312621593475342e-01" purity="5.2343696355819702e-01" nType="-99"/>
        </Node>
      </Node>
    </BinaryTree>
    <BinaryTree type="DecisionTree" boostWeight="1.0000000000000000e+00" itree="38">
      <Node pos="s" depth="0" NCoef="0" IVar="4" Cut="1.2771961688995361e+00" cType="1" res="-3.0400501564145088e-02" rms="2.9304298758506775e-01" purity="4.9759197235107422e-01" nType="0">
        <Node pos="l" depth="1" NCoef="0" IVar="11" Cut="2.9959793090820312e+00" cType="1" res="-1.6199968755245209e-01" rms="2.3936061561107635e-01" purity="9.5151737332344055e-02" nType="0">
          <Node pos="l" depth="2" NCoef="0" IVar="-1" Cut="0.0000000000000000e+00" cType="1" res="-3.8391746580600739e-02" rms="2.3620116710662842e-01" purity="6.4058795571327209e-02" nType="-99"/>
          <Node pos="r" depth="2" NCoef="0" IVar="-1" Cut="0.0000000000000000e+00" cType="1" res="-2.3010475561022758e-02" rms="2.3010791838169098e-01" purity="1.1416167765855789e-01" nType="-99"/>
        </Node>
        <Node pos="r" depth="1" NCoef="0" IVar="9" Cut="2.6059787273406982e+00" cType="1" res="-6.7352810874581337e-03" rms="2.9553246498107910e-01" purity="5.6996196508407593e-01" nType="0">
          <Node pos="l" depth="2" NCoef="0" IVar="-1" Cut="0.0000000000000000e+00" cType="1" res="-3.3979289233684540e-02" rms="2.6465162634849548e-01" purity="1.0782876610755920e-01" nType="-99"/>
          <Node pos="r" depth="2" NCoef="0" IVar="-1" Cut="0.0000000000000000e+00" cType="1" res="5.8978511951863766e-03" rms="2.9027155041694641e-01" purity="6.3757878541946411e-01" nType="-99"/>
        </Node>
      </Node>
    </BinaryTree>
    <BinaryTree type="DecisionTree" boostWeight="1.0000000000000000e+00" itree="39">
      <Node pos="s" depth="0" NCoef="0" IVar="2" Cut="1.8983771800994873e+00" cType="1" res="-2.5151519104838371e-02" rms="2.9403245449066162e-01" purity="5.0308990478515625e-01" nType="0">
        <Node pos="l" depth="1" NCoef="0" IVar="9" Cut="2.7230291366577148e+00" cType="1" res="1.6344396397471428e-02" rms="2.9480528831481934e-01" purity="6.3472330570220947e-01" nType="0">
          <Node pos="l" depth="2" NCoef="0" IVar="-1" Cut="0.0000000000000000e+00" cType="1" res="-2.6013655588030815e-02" rms="3.1888121366500854e-01" purity="2.2804217040538788e-01" nType="-99"/>
          <Node pos="r" depth="2" NCoef="0" IVar="-1" Cut="0.0000000000000000e+00" cType="1" res="1.2284413911402225e-02" rms="2.8426870703697205e-01" purity="6.9583147764205933e-01" nType="-99"/>
        </Node>
        <Node pos="r" depth="1" NCoef="0" IVar="8" Cut="2.5613520145416260e+00" cType="1" res="-1.0051438957452774e-01" rms="2.7716740965843201e-01" purity="2.6402378082275391e-01" nType="0">
          <Node pos="l" depth="2" NCoef="0" IVar="-1" Cut="0.0000000000000000e+00" cType="1" res="-2.4277938529849052e-02" rms="2.6859426498413086e-01" purity="1.8741582334041595e-01" nType="-99"/>
          <Node pos="r" depth="2" NCoef="0" IVar="-1" Cut="0.0000000000000000e+00" cType="1" res="4.7604753635823727e-03" rms="2.9090279340744019e-01" purity="6.6162019968032837e-01" nType="-99"/>
        </Node>
      </Node>
    </BinaryTree>
    <BinaryTree type="DecisionTree" boostWeight="1.0000000000000000e+00" itree="40">
      <Node pos="s" depth="0" NCoef="0" IVar="8" Cut="9.4632726907730103e-01" cType="1" res="-2.2679029032588005e-02" rms="2.8866595029830933e-01" purity="4.9624642729759216e-01" nType="0">
        <Node pos="l" depth="1" NCoef="0" IVar="11" Cut="3.2408258914947510e+00" cType="1" res="-1.2721303105354309e-01" rms="2.4616740643978119e-01" purity="1.2180732190608978e-01" nType="0">
          <Node pos="l" depth="2" NCoef="0" IVar="-1" Cut="0.0000000000000000e+00" cType="1" res="-3.1990464776754379e-02" rms="1.7974124848842621e-01" purity="3.8640033453702927e-02" nType="-99"/>
          <Node pos="r" depth="2" NCoef="0" IVar="-1" Cut="0.0000000000000000e+00" cType="1" res="-1.7495248466730118e-02" rms="2.9095304012298584e-01" purity="2.0239420235157013e-01" nType="-99"/>
        </Node>
        <Node pos="r" depth="1" NCoef="0" IVar="1" Cut="8.3521614074707031e+00" cType="1" res="5.8759520761668682e-03" rms="2.9280814528465271e-01" purity="5.9852993488311768e-01" nType="0">
          <Node pos="l" depth="2" NCoef="0" IVar="-1" Cut="0.0000000000000000e+00" cType="1" res="1.2426214292645454e-02" rms="3.0504378676414490e-01" purity="7.6436549425125122e-01" nType="-99"/>
          <Node pos="r" depth="2" NCoef="0" IVar="-1" Cut="0.0000000000000000e+00" cType="1" res="-2.1407801657915115e-02" rms="2.1869951486587524e-01" purity="7.3678188025951385e-02" nType="-99"/>
        </Node>
      </Node>
    </BinaryTree>
    <BinaryTree type="DecisionTree" boostWeight="1.0000000000000000e+00" itree="41">
      <Node pos="s" depth="0" NCoef="0" IVar="1" Cut="2.3899562358856201e+00" cType="1" res="-2.2906774654984474e-02" rms="2.8847026824951172e-01" purity="5.0439631938934326e-01" nType="0">
        <Node pos="l" depth="1" NCoef="0" IVar="12" Cut="2.4872570037841797e+00" cType="1" res="3.6194361746311188e-02" rms="2.9030758142471313e-01" purity="8.0340099334716797e-01" nType="0">
          <Node pos="l" depth="2" NCoef="0" IVar="-1" Cut="0.0000000000000000e+00" cType="1" res="-2.0527487620711327e-02" rms="3.5868582129478455e-01" purity="4.0319257974624634e-01" nType="-99"/>
          <Node pos="r" depth="2" NCoef="0" IVar="-1" Cut="0.0000000000000000e+00" cType="1" res="2.2312492132186890e-02" rms="2.7388486266136169e-01" purity="8.5624605417251587e-01" nType="-99"/>
        </Node>
        <Node pos="r" depth="1" NCoef="0" IVar="8" Cut="2.4406807422637939e+00" cType="1" res="-6.8356357514858246e-02" rms="2.7864947915077209e-01" purity="2.7445763349533081e-01" nType="0">
          <Node pos="l" depth="2" NCoef="0" IVar="-1" Cut="0.0000000000000000e+00" cType="1" res="-1.9503708928823471e-02" rms="2.6532125473022461e-01" purity="1.9395162165164948e-01" nType="-99"/>
          <Node pos="r" depth="2" NCoef="0" IVar="-1" Cut="0.0000000000000000e+00" cType="1" res="9.8656192421913147e-03" rms="3.1040522456169128e-01" purity="6.3252234458923340e-01" nType="-99"/>
        </Node>
      </Node>
    </BinaryTree>
    <BinaryTree type="DecisionTree" boostWeight="1.0000000000000000e+00" itree="42">
      <Node pos="s" depth="0" NCoef="0" IVar="2" Cut="2.8477344512939453e+00" cType="1" res="-2.6526875793933868e-02" rms="2.9289901256561279e-01" purity="5.0590336322784424e-01" nType="0">
        <Node pos="l" depth="1" NCoef="0" IVar="7" Cut="1.2092037200927734e+00" cType="1" res="-1.5515233098994941e-04" rms="2.9441675543785095e-01" purity="5.8107858896255493e-01" nType="0">
          <Node pos="l" depth="2" NCoef="0" IVar="-1" Cut="0.0000000000000000e+00" cType="1" res="-3.1481660902500153e-02" rms="3.0034857988357544e-01" purity="1.7997486889362335e-01" nType="-99"/>
          <Node pos="r" depth="2" NCoef="0" IVar="-1" Cut="0.0000000000000000e+00" cType="1" res="5.4035210050642490e-03" rms="2.8826221823692322e-01" purity="6.2626898288726807e-01" nType="-99"/>
        </Node>
        <Node pos="r" depth="1" NCoef="0" IVar="6" Cut="2.7773127555847168e+00" cType="1" res="-1.3390311598777771e-01" rms="2.6038250327110291e-01" purity="1.9981683790683746e-01" nType="0">
          <Node pos="l" depth="2" NCoef="0" IVar="-1" Cut="0.0000000000000000e+00" cType="1" res="-3.0137510970234871e-02" rms="2.4185964465141296e-01" purity="1.1819876730442047e-01" nType="-99"/>
          <Node pos="r" depth="2" NCoef="0" IVar="-1" Cut="0.0000000000000000e+00" cType="1" res="-8.9527284726500511e-03" rms="3.1336465477943420e-01" purity="5.6867134571075439e-01" nType="-99"/>
        </Node>
      </Node>
    </BinaryTree>
    <BinaryTree type="DecisionTree" boostWeight="1.0000000000000000e+00" itree="43">
      <Node pos="s" depth="0" NCoef="0" IVar="11" Cut="3.0834507942199707e+00" cType="1" res="-2.2628759965300560e-02" rms="2.8902849555015564e-01" purity="4.9413496255874634e-01" nType="0">
        <Node pos="l" depth="1" NCoef="0" IVar="12" Cut="3.0595955848693848e+00" cType="1" res="-1.0469536483287811e-01" rms="2.8008183836936951e-01" purity="3.2348281145095825e-01" nType="0">
          <Node pos="l" depth="2" NCoef="0" IVar="-1" Cut="0.0000000000000000e+00" cType="1" res="-3.0971365049481392e-02" rms="2.6497000455856323e-01" purity="2.1242950856685638e-01" nType="-99"/>
          <Node pos="r" depth="2" NCoef="0" IVar="-1" Cut="0.0000000000000000e+00" cType="1" res="1.9158158684149384e-03" rms="2.8441876173019409e-01" purity="5.9249651432037354e-01" nType="-99"/>
        </Node>
        <Node pos="r" depth="1" NCoef="0" IVar="9" Cut="2.7230291366577148e+00" cType="1" res="1.0523600503802299e-02" rms="2.8596249222755432e-01" purity="5.6307315826416016e-01" nType="0">
          <Node pos="l" depth="2" NCoef="0" IVar="-1" Cut="0.0000000000000000e+00" cType="1" res="-2.7086799964308739e-02" rms="2.8024709224700928e-01" purity="1.6889762878417969e-01" nType="-99"/>
          <Node pos="r" depth="2" NCoef="0" IVar="-1" Cut="0.0000000000000000e+00" cType="1" res="1.1720721609890461e-02" rms="2.7898579835891724e-01" purity="6.3838571310043335e-01" nType="-99"/>
        </Node>
      </Node>
    </BinaryTree>
    <BinaryTree type="DecisionTree" boostWeight="1.0000000000000000e+00" itree="44">
      <Node pos="s" depth="0" NCoef="0" IVar="8" Cut="1.3544700145721436e+00" cType="1" res="-2.3923112079501152e-02" rms="2.8614756464958191e-01" purity="5.0225222110748291e-01" nType="0">
        <Node pos="l" depth="1" NCoef="0" IVar="11" Cut="3.4232277870178223e+00" cType="1" res="-8.7388649582862854e-02" rms="2.7616599202156067e-01" purity="2.0492826402187347e-01" nType="0">
          <Node pos="l" depth="2" NCoef="0" IVar="-1" Cut="0.0000000000000000e+00" cType="1" res="-2.6914406567811966e-02" rms="2.4219319224357605e-01" purity="1.0719921439886093e-01" nType="-99"/>
          <Node pos="r" depth="2" NCoef="0" IVar="-1" Cut="0.0000000000000000e+00" cType="1" res="-4.6167215332388878e-03" rms="3.0721125006675720e-01" purity="3.4752303361892700e-01" nType="-99"/>
        </Node>
        <Node pos="r" depth="1" NCoef="0" IVar="11" Cut="2.8186569213867188e+00" cType="1" res="1.2177431024610996e-02" rms="2.8544476628303528e-01" purity="6.7137640714645386e-01" nType="0">
          <Node pos="l" depth="2" NCoef="0" IVar="-1" Cut="0.0000000000000000e+00" cType="1" res="-3.4740380942821503e-02" rms="3.1276428699493408e-01" purity="3.1337147951126099e-01" nType="-99"/>
          <Node pos="r" depth="2" NCoef="0" IVar="-1" Cut="0.0000000000000000e+00" cType="1" res="1.2319965288043022e-02" rms="2.7317437529563904e-01" purity="7.1691840887069702e-01" nType="-99"/>
        </Node>
      </Node>
    </BinaryTree>
    <BinaryTree type="DecisionTree" boostWeight="1.0000000000000000e+00" itree="45">
      <Node pos="s" depth="0" NCoef="0" IVar="7" Cut="1.6135846376419067e+00" cType="1" res="-2.6854064315557480e-02" rms="2.8590318560600281e-01" purity="4.9155205488204956e-01" nType="0">
        <Node pos="l" depth="1" NCoef="0" IVar="10" Cut="2.8257195949554443e+00" cType="1" res="-1.2077356129884720e-01" rms="2.7400064468383789e-01" purity="1.9330319762229919e-01" nType="0">
          <Node pos="l" depth="2" NCoef="0" IVar="-1" Cut="0.0000000000000000e+00" cType="1" res="-3.7910595536231995e-02" rms="2.5938004255294800e-01" purity="9.7172997891902924e-02" nType="-99"/>
          <Node pos="r" depth="2" NCoef="0" IVar="-1" Cut="0.0000000000000000e+00" cType="1" res="-1.4747313223779202e-02" rms="2.7083817124366760e-01" purity="2.6279541850090027e-01" nType="-99"/>
        </Node>
        <Node pos="r" depth="1" NCoef="0" IVar="9" Cut="2.7980036735534668e+00" cType="1" res="-1.4941038098186255e-03" rms="2.8375196456909180e-01" purity="5.7208466529846191e-01" nType="0">
          <Node pos="l" depth="2" NCoef="0" IVar="-1" Cut="0.0000000000000000e+00" cType="1" res="-2.7908416464924812e-02" rms="2.9712879657745361e-01" purity="2.0556943118572235e-01" nType="-99"/>
          <Node pos="r" depth="2" NCoef="0" IVar="-1" Cut="0.0000000000000000e+00" cType="1" res="8.9621385559439659e-03" rms="2.7201342582702637e-01" purity="6.5530914068222046e-01" nType="-99"/>
        </Node>
      </Node>
    </BinaryTree>
    <BinaryTree type="DecisionTree" boostWeight="1.0000000000000000e+00" itree="46">
      <Node pos="s" depth="0" NCoef="0" IVar="7" Cut="1.5939128398895264e+00" cType="1" res="-2.1749012172222137e-02" rms="2.8056412935256958e-01" purity="4.9973112344741821e-01" nType="0">
        <Node pos="l" depth="1" NCoef="0" IVar="10" Cut="2.8533420562744141e+00" cType="1" res="-1.1953289061784744e-01" rms="2.8397428989410400e-01" purity="1.9500814378261566e-01" nType="0">
          <Node pos="l" depth="2" NCoef="0" IVar="-1" Cut="0.0000000000000000e+00" cType="1" res="-3.9870407432317734e-02" rms="2.6696488261222839e-01" purity="9.1752275824546814e-02" nType="-99"/>
          <Node pos="r" depth="2" NCoef="0" IVar="-1" Cut="0.0000000000000000e+00" cType="1" res="-1.2950791977345943e-02" rms="2.8021490573883057e-01" purity="2.7281060814857483e-01" nType="-99"/>
        </Node>
        <Node pos="r" depth="1" NCoef="0" IVar="6" Cut="1.2083156108856201e+00" cType="1" res="3.2886059489101171e-03" rms="2.7413162589073181e-01" purity="5.7775563001632690e-01" nType="0">
          <Node pos="l" depth="2" NCoef="0" IVar="-1" Cut="0.0000000000000000e+00" cType="1" res="-2.7809830382466316e-02" rms="2.4285650253295898e-01" purity="1.3359966874122620e-01" nType="-99"/>
          <Node pos="r" depth="2" NCoef="0" IVar="-1" Cut="0.0000000000000000e+00" cType="1" res="8.7628848850727081e-03" rms="2.7222263813018799e-01" purity="6.5751564502716064e-01" nType="-99"/>
        </Node>
      </Node>
    </BinaryTree>
    <BinaryTree type="DecisionTree" boostWeight="1.0000000000000000e+00" itree="47">
      <Node pos="s" depth="0" NCoef="0" IVar="1" Cut="2.3899562358856201e+00" cType="1" res="-2.2253714501857758e-02" rms="2.7999234199523926e-01" purity="4.9864068627357483e-01" nType="0">
        <Node pos="l" depth="1" NCoef="0" IVar="9" Cut="2.7206308841705322e+00" cType="1" res="3.4109763801097870e-02" rms="2.8094190359115601e-01" purity="8.1086307764053345e-01" nType="0">
          <Node pos="l" depth="2" NCoef="0" IVar="-1" Cut="0.0000000000000000e+00" cType="1" res="-2.3161282762885094e-02" rms="4.1518816351890564e-01" purity="4.2597472667694092e-01" nType="-99"/>
          <Node pos="r" depth="2" NCoef="0" IVar="-1" Cut="0.0000000000000000e+00" cType="1" res="2.0492786541581154e-02" rms="2.5943428277969360e-01" purity="8.4680509567260742e-01" nType="-99"/>
        </Node>
        <Node pos="r" depth="1" NCoef="0" IVar="4" Cut="2.3909370899200439e+00" cType="1" res="-6.4751185476779938e-02" rms="2.7164825797080994e-01" purity="2.6322823762893677e-01" nType="0">
          <Node pos="l" depth="2" NCoef="0" IVar="-1" Cut="0.0000000000000000e+00" cType="1" res="-2.1028447896242142e-02" rms="2.4905718863010406e-01" purity="1.4736784994602203e-01" nType="-99"/>
          <Node pos="r" depth="2" NCoef="0" IVar="-1" Cut="0.0000000000000000e+00" cType="1" res="-5.9077225159853697e-04" rms="3.0375999212265015e-01" purity="5.0231581926345825e-01" nType="-99"/>
        </Node>
      </Node>
    </BinaryTree>
    <BinaryTree type="DecisionTree" boostWeight="1.0000000000000000e+00" itree="48">
      <Node pos="s" depth="0" NCoef="0" IVar="4" Cut="1.8780770301818848e+00" cType="1" res="-1.9722064957022667e-02" rms="2.7790263295173645e-01" purity="5.0063043832778931e-01" nType="0">
        <Node pos="l" depth="1" NCoef="0" IVar="11" Cut="3.1266651153564453e+00" cType="1" res="-8.2467399537563324e-02" rms="2.6842138171195984e-01" purity="2.1138481795787811e-01" nType="0">
          <Node pos="l" depth="2" NCoef="0" IVar="-1" Cut="0.0000000000000000e+00" cType="1" res="-2.7185993269085884e-02" rms="2.4959681928157806e-01" purity="1.4691984653472900e-01" nType="-99"/>
          <Node pos="r" depth="2" NCoef="0" IVar="-1" Cut="0.0000000000000000e+00" cType="1" res="-8.5298605263233185e-03" rms="2.7744504809379578e-01" purity="2.7265694737434387e-01" nType="-99"/>
        </Node>
        <Node pos="r" depth="1" NCoef="0" IVar="9" Cut="2.8347892761230469e+00" cType="1" res="1.5458460897207260e-02" rms="2.7692791819572449e-01" purity="6.6280686855316162e-01" nType="0">
          <Node pos="l" depth="2" NCoef="0" IVar="-1" Cut="0.0000000000000000e+00" cType="1" res="-2.2461900487542152e-02" rms="3.1275621056556702e-01" purity="2.8415516018867493e-01" nType="-99"/>
          <Node pos="r" depth="2" NCoef="0" IVar="-1" Cut="0.0000000000000000e+00" cType="1" res="1.6901317983865738e-02" rms="2.5932320952415466e-01" purity="7.5715255737304688e-01" nType="-99"/>
        </Node>
      </Node>
    </BinaryTree>
    <BinaryTree type="DecisionTree" boostWeight="1.0000000000000000e+00" itree="49">
      <Node pos="s" depth="0" NCoef="0" IVar="7" Cut="1.2092037200927734e+00" cType="1" res="-1.9395586103200912e-02" rms="2.7867543697357178e-01" purity="4.9742445349693298e-01" nType="0">
        <Node pos="l" depth="1" NCoef="0" IVar="10" Cut="2.8292074203491211e+00" cType="1" res="-1.4869868755340576e-01" rms="2.7168831229209900e-01" purity="1.2263268232345581e-01" nType="0">
          <Node pos="l" depth="2" NCoef="0" IVar="-1" Cut="0.0000000000000000e+00" cType="1" res="-4.0778215974569321e-02" rms="2.5018319487571716e-01" purity="5.2834048867225647e-02" nType="-99"/>
          <Node pos="r" depth="2" NCoef="0" IVar="-1" Cut="0.0000000000000000e+00" cType="1" res="-1.4143997803330421e-02" rms="2.8576508164405823e-01" purity="2.4973320960998535e-01" nType="-99"/>
        </Node>
        <Node pos="r" depth="1" NCoef="0" IVar="4" Cut="8.2688182592391968e-01" cType="1" res="-3.6602215841412544e-03" rms="2.7540105581283569e-01" purity="5.4303419589996338e-01" nType="0">
          <Node pos="l" depth="2" NCoef="0" IVar="-1" Cut="0.0000000000000000e+00" cType="1" res="-3.3332705497741699e-02" rms="1.8095517158508301e-01" purity="3.4134902060031891e-02" nType="-99"/>
          <Node pos="r" depth="2" NCoef="0" IVar="-1" Cut="0.0000000000000000e+00" cType="1" res="3.4604859538376331e-03" rms="2.7804070711135864e-01" purity="5.9132164716720581e-01" nType="-99"/>
        </Node>
      </Node>
    </BinaryTree>
    <BinaryTree type="DecisionTree" boostWeight="1.0000000000000000e+00" itree="50">
      <Node pos="s" depth="0" NCoef="0" IVar="2" Cut="9.5055967569351196e-01" cType="1" res="-1.6651069745421410e-02" rms="2.7769768238067627e-01" purity="5.0571233034133911e-01" nType="0">
        <Node pos="l" depth="1" NCoef="0" IVar="11" Cut="2.8246707916259766e+00" cType="1" res="4.1770730167627335e-02" rms="2.7476492524147034e-01" purity="7.2142434120178223e-01" nType="0">
          <Node pos="l" depth="2" NCoef="0" IVar="-1" Cut="0.0000000000000000e+00" cType="1" res="-3.0472459271550179e-02" rms="3.4479188919067383e-01" purity="4.4512623548507690e-01" nType="-99"/>
          <Node pos="r" depth="2" NCoef="0" IVar="-1" Cut="0.0000000000000000e+00" cType="1" res="2.0900661125779152e-02" rms="2.6215469837188721e-01" purity="7.4662655591964722e-01" nType="-99"/>
        </Node>
        <Node pos="r" depth="1" NCoef="0" IVar="8" Cut="2.3956906795501709e+00" cType="1" res="-5.3779255598783493e-02" rms="2.7312654256820679e-01" purity="3.6862316727638245e-01" nType="0">
          <Node pos="l" depth="2" NCoef="0" IVar="-1" Cut="0.0000000000000000e+00" cType="1" res="-1.8443718552589417e-02" rms="2.6945888996124268e-01" purity="2.5709635019302368e-01" nType="-99"/>
          <Node pos="r" depth="2" NCoef="0" IVar="-1" Cut="0.0000000000000000e+00" cType="1" res="1.2677660211920738e-02" rms="2.6775026321411133e-01" purity="7.5862306356430054e-01" nType="-99"/>
        </Node>
      </Node>
    </BinaryTree>
    <BinaryTree type="DecisionTree" boostWeight="1.0000000000000000e+00" itree="51">
      <Node pos="s" depth="0" NCoef="0" IVar="5" Cut="1.6786563396453857e+00" cType="1" res="-1.7106579616665840e-02" rms="2.7927267551422119e-01" purity="5.0221544504165649e-01" nType="0">
        <Node pos="l" depth="1" NCoef="0" IVar="3" Cut="4.3525072932243347e-01" cType="1" res="-9.3779623508453369e-02" rms="2.7404546737670898e-01" purity="2.3684738576412201e-01" nType="0">
          <Node pos="l" depth="2" NCoef="0" IVar="-1" Cut="0.0000000000000000e+00" cType="1" res="-2.5167424231767654e-02" rms="2.5749185681343079e-01" purity="1.7201201617717743e-01" nType="-99"/>
          <Node pos="r" depth="2" NCoef="0" IVar="-1" Cut="0.0000000000000000e+00" cType="1" res="7.5904731638729572e-03" rms="3.3309468626976013e-01" purity="6.3215994834899902e-01" nType="-99"/>
        </Node>
        <Node pos="r" depth="1" NCoef="0" IVar="12" Cut="2.4816849231719971e+00" cType="1" res="1.1500035412609577e-02" rms="2.7579095959663391e-01" purity="6.0122400522232056e-01" nType="0">
          <Node pos="l" depth="2" NCoef="0" IVar="-1" Cut="0.0000000000000000e+00" cType="1" res="-1.9813399761915207e-02" rms="2.6619890332221985e-01" purity="2.1874639391899109e-01" nType="-99"/>
          <Node pos="r" depth="2" NCoef="0" IVar="-1" Cut="0.0000000000000000e+00" cType="1" res="1.3333411887288094e-02" rms="2.7241647243499756e-01" purity="7.0057713985443115e-01" nType="-99"/>
        </Node>
      </Node>
    </BinaryTree>
    <BinaryTree type="DecisionTree" boostWeight="1.0000000000000000e+00" itree="52">
      <Node pos="s" depth="0" NCoef="0" IVar="9" Cut="2.5786552429199219e+00" cType="1" res="-1.4297562651336193e-02" rms="2.7087551355361938e-01" purity="5.0258231163024902e-01" nType="0">
        <Node pos="l" depth="1" NCoef="0" IVar="1" Cut="7.1146306991577148e+00" cType="1" res="-1.4193734526634216e-01" rms="2.5567880272865295e-01" purity="9.4260245561599731e-02" nType="0">
          <Node pos="l" depth="2" NCoef="0" IVar="-1" Cut="0.0000000000000000e+00" cType="1" res="-3.2215535640716553e-02" rms="3.4874260425567627e-01" purity="1.9585637748241425e-01" nType="-99"/>
          <Node pos="r" depth="2" NCoef="0" IVar="-1" Cut="0.0000000000000000e+00" cType="1" res="-2.6936827227473259e-02" rms="1.1200941354036331e-01" purity="1.2082948349416256e-02" nType="-99"/>
        </Node>
        <Node pos="r" depth="1" NCoef="0" IVar="7" Cut="2.0184626579284668e+00" cType="1" res="7.5520132668316364e-04" rms="2.6864343881607056e-01" purity="5.5073642730712891e-01" nType="0">
          <Node pos="l" depth="2" NCoef="0" IVar="-1" Cut="0.0000000000000000e+00" cType="1" res="-1.4903459697961807e-02" rms="2.8044402599334717e-01" purity="2.7741801738739014e-01" nType="-99"/>
          <Node pos="r" depth="2" NCoef="0" IVar="-1" Cut="0.0000000000000000e+00" cType="1" res="1.4208203181624413e-02" rms="2.5356209278106689e-01" purity="7.1997046470642090e-01" nType="-99"/>
        </Node>
      </Node>
    </BinaryTree>
    <BinaryTree type="DecisionTree" boostWeight="1.0000000000000000e+00" itree="53">
      <Node pos="s" depth="0" NCoef="0" IVar="11" Cut="3.0685369968414307e+00" cType="1" res="-1.6241811215877533e-02" rms="2.7613085508346558e-01" purity="5.0601911544799805e-01" nType="0">
        <Node pos="l" depth="1" NCoef="0" IVar="12" Cut="3.0332782268524170e+00" cType="1" res="-8.4442786872386932e-02" rms="2.7974572777748108e-01" purity="3.4226271510124207e-01" nType="0">
          <Node pos="l" depth="2" NCoef="0" IVar="-1" Cut="0.0000000000000000e+00" cType="1" res="-2.7876755222678185e-02" rms="2.6421710848808289e-01" purity="2.2724172472953796e-01" nType="-99"/>
          <Node pos="r" depth="2" NCoef="0" IVar="-1" Cut="0.0000000000000000e+00" cType="1" res="-3.4026247449219227e-03" rms="2.9406869411468506e-01" purity="5.6377655267715454e-01" nType="-99"/>
        </Node>
        <Node pos="r" depth="1" NCoef="0" IVar="7" Cut="1.0075640678405762e+00" cType="1" res="9.1887265443801880e-03" rms="2.7040317654609680e-01" purity="5.6708008050918579e-01" nType="0">
          <Node pos="l" depth="2" NCoef="0" IVar="-1" Cut="0.0000000000000000e+00" cType="1" res="-3.4223016351461411e-02" rms="2.6104664802551270e-01" purity="9.1817818582057953e-02" nType="-99"/>
          <Node pos="r" depth="2" NCoef="0" IVar="-1" Cut="0.0000000000000000e+00" cType="1" res="7.8788464888930321e-03" rms="2.6603481173515320e-01" purity="6.0963523387908936e-01" nType="-99"/>
        </Node>
      </Node>
    </BinaryTree>
    <BinaryTree type="DecisionTree" boostWeight="1.0000000000000000e+00" itree="54">
      <Node pos="s" depth="0" NCoef="0" IVar="2" Cut="2.8477344512939453e+00" cType="1" res="-1.4858027920126915e-02" rms="2.7088329195976257e-01" purity="5.0217318534851074e-01" nType="0">
        <Node pos="l" depth="1" NCoef="0" IVar="1" Cut="9.5392827987670898e+00" cType="1" res="6.1388490721583366e-03" rms="2.7167263627052307e-01" purity="5.7663887739181519e-01" nType="0">
          <Node pos="l" depth="2" NCoef="0" IVar="-1" Cut="0.0000000000000000e+00" cType="1" res="9.8233241587877274e-03" rms="2.8846666216850281e-01" purity="7.1628952026367188e-01" nType="-99"/>
          <Node pos="r" depth="2" NCoef="0" IVar="-1" Cut="0.0000000000000000e+00" cType="1" res="-2.3486526682972908e-02" rms="1.6516797244548798e-01" purity="4.1739922016859055e-02" nType="-99"/>
        </Node>
        <Node pos="r" depth="1" NCoef="0" IVar="2" Cut="4.5433692932128906e+00" cType="1" res="-9.9208638072013855e-02" rms="2.5054177641868591e-01" purity="2.0302282273769379e-01" nType="0">
          <Node pos="l" depth="2" NCoef="0" IVar="-1" Cut="0.0000000000000000e+00" cType="1" res="-1.7149344086647034e-02" rms="2.4769121408462524e-01" purity="2.3102357983589172e-01" nType="-99"/>
          <Node pos="r" depth="2" NCoef="0" IVar="-1" Cut="0.0000000000000000e+00" cType="1" res="-3.1088676303625107e-02" rms="2.4662575125694275e-01" purity="1.5641508996486664e-01" nType="-99"/>
        </Node>
      </Node>
    </BinaryTree>
    <BinaryTree type="DecisionTree" boostWeight="1.0000000000000000e+00" itree="55">
      <Node pos="s" depth="0" NCoef="0" IVar="3" Cut="5.2889692783355713e-01" cType="1" res="-1.4636009931564331e-02" rms="2.7256000041961670e-01" purity="5.0217950344085693e-01" nType="0">
        <Node pos="l" depth="1" NCoef="0" IVar="2" Cut="2.3674058914184570e+00" cType="1" res="-3.3814195543527603e-02" rms="2.7262464165687561e-01" purity="4.3402975797653198e-01" nType="0">
          <Node pos="l" depth="2" NCoef="0" IVar="-1" Cut="0.0000000000000000e+00" cType="1" res="-2.2902442142367363e-03" rms="2.8003412485122681e-01" purity="5.3430318832397461e-01" nType="-99"/>
          <Node pos="r" depth="2" NCoef="0" IVar="-1" Cut="0.0000000000000000e+00" cType="1" res="-2.3513827472925186e-02" rms="2.4038152396678925e-01" purity="1.8008506298065186e-01" nType="-99"/>
        </Node>
        <Node pos="r" depth="1" NCoef="0" IVar="11" Cut="3.1005854606628418e+00" cType="1" res="8.2861259579658508e-02" rms="2.5046807527542114e-01" purity="8.4863626956939697e-01" nType="0">
          <Node pos="l" depth="2" NCoef="0" IVar="-1" Cut="0.0000000000000000e+00" cType="1" res="5.6733945384621620e-03" rms="3.0219516158103943e-01" purity="6.9725030660629272e-01" nType="-99"/>
          <Node pos="r" depth="2" NCoef="0" IVar="-1" Cut="0.0000000000000000e+00" cType="1" res="4.3916430324316025e-02" rms="2.3576164245605469e-01" purity="8.8086920976638794e-01" nType="-99"/>
        </Node>
      </Node>
    </BinaryTree>
    <BinaryTree type="DecisionTree" boostWeight="1.0000000000000000e+00" itree="56">
      <Node pos="s" depth="0" NCoef="0" IVar="2" Cut="1.4277579784393311e+00" cType="1" res="-1.6744187101721764e-02" rms="2.6605013012886047e-01" purity="4.9501433968544006e-01" nType="0">
        <Node pos="l" depth="1" NCoef="0" IVar="9" Cut="2.6070806980133057e+00" cType="1" res="2.2176722064614296e-02" rms="2.6956105232238770e-01" purity="6.6545027494430542e-01" nType="0">
          <Node pos="l" depth="2" NCoef="0" IVar="-1" Cut="0.0000000000000000e+00" cType="1" res="-2.3742256686091423e-02" rms="2.8988054394721985e-01" purity="1.8322084844112396e-01" nType="-99"/>
          <Node pos="r" depth="2" NCoef="0" IVar="-1" Cut="0.0000000000000000e+00" cType="1" res="1.3573637232184410e-02" rms="2.6306480169296265e-01" purity="7.1614789962768555e-01" nType="-99"/>
        </Node>
        <Node pos="r" depth="1" NCoef="0" IVar="8" Cut="2.5050306320190430e+00" cType="1" res="-6.1232089996337891e-02" rms="2.5479897856712341e-01" purity="3.0020040273666382e-01" nType="0">
          <Node pos="l" depth="2" NCoef="0" IVar="-1" Cut="0.0000000000000000e+00" cType="1" res="-1.9571302458643913e-02" rms="2.4873322248458862e-01" purity="2.0514868199825287e-01" nType="-99"/>
          <Node pos="r" depth="2" NCoef="0" IVar="-1" Cut="0.0000000000000000e+00" cType="1" res="7.3525719344615936e-03" rms="2.6393735408782959e-01" purity="7.0864498615264893e-01" nType="-99"/>
        </Node>
      </Node>
    </BinaryTree>
    <BinaryTree type="DecisionTree" boostWeight="1.0000000000000000e+00" itree="57">
      <Node pos="s" depth="0" NCoef="0" IVar="7" Cut="1.8153780698776245e+00" cType="1" res="-1.6589593142271042e-02" rms="2.7221781015396118e-01" purity="4.9867945909500122e-01" nType="0">
        <Node pos="l" depth="1" NCoef="0" IVar="10" Cut="2.8291113376617432e+00" cType="1" res="-7.9246252775192261e-02" rms="2.7130520343780518e-01" purity="2.2404347360134125e-01" nType="0">
          <Node pos="l" depth="2" NCoef="0" IVar="-1" Cut="0.0000000000000000e+00" cType="1" res="-3.4280780702829361e-02" rms="2.6140016317367554e-01" purity="1.2219137698411942e-01" nType="-99"/>
          <Node pos="r" depth="2" NCoef="0" IVar="-1" Cut="0.0000000000000000e+00" cType="1" res="-1.0968070477247238e-02" rms="2.6858481764793396e-01" purity="2.7359917759895325e-01" nType="-99"/>
        </Node>
        <Node pos="r" depth="1" NCoef="0" IVar="4" Cut="1.1677389144897461e+00" cType="1" res="8.5849063470959663e-03" rms="2.6849716901779175e-01" purity="6.0902404785156250e-01" nType="0">
          <Node pos="l" depth="2" NCoef="0" IVar="-1" Cut="0.0000000000000000e+00" cType="1" res="-2.9710568487644196e-02" rms="2.2291357815265656e-01" purity="7.9507656395435333e-02" nType="-99"/>
          <Node pos="r" depth="2" NCoef="0" IVar="-1" Cut="0.0000000000000000e+00" cType="1" res="8.1451833248138428e-03" rms="2.6806059479713440e-01" purity="6.6142719984054565e-01" nType="-99"/>
        </Node>
      </Node>
    </BinaryTree>
    <BinaryTree type="DecisionTree" boostWeight="1.0000000000000000e+00" itree="58">
      <Node pos="s" depth="0" NCoef="0" IVar="3" Cut="-4.5794181525707245e-02" cType="1" res="-1.5496135689318180e-02" rms="2.6761057972908020e-01" purity="4.9485278129577637e-01" nType="0">
        <Node pos="l" depth="1" NCoef="0" IVar="5" Cut="2.3462560176849365e+00" cType="1" res="-6.3110262155532837e-02" rms="2.5037431716918945e-01" purity="2.6515540480613708e-01" nType="0">
          <Node pos="l" depth="2" NCoef="0" IVar="-1" Cut="0.0000000000000000e+00" cType="1" res="-2.2864960134029388e-02" rms="2.3881369829177856e-01" purity="1.8012511730194092e-01" nType="-99"/>
          <Node pos="r" depth="2" NCoef="0" IVar="-1" Cut="0.0000000000000000e+00" cType="1" res="-4.9397144466638565e-03" rms="2.6260322332382202e-01" purity="4.1228726506233215e-01" nType="-99"/>
        </Node>
        <Node pos="r" depth="1" NCoef="0" IVar="12" Cut="2.4565365314483643e+00" cType="1" res="1.7715102061629295e-02" rms="2.7415060997009277e-01" purity="6.5506851673126221e-01" nType="0">
          <Node pos="l" depth="2" NCoef="0" IVar="-1" Cut="0.0000000000000000e+00" cType="1" res="-2.4747924879193306e-02" rms="2.9374191164970398e-01" purity="2.3534774780273438e-01" nType="-99"/>
          <Node pos="r" depth="2" NCoef="0" IVar="-1" Cut="0.0000000000000000e+00" cType="1" res="1.3317105360329151e-02" rms="2.6559928059577942e-01" purity="7.1439605951309204e-01" nType="-99"/>
        </Node>
      </Node>
    </BinaryTree>
    <BinaryTree type="DecisionTree" boostWeight="1.0000000000000000e+00" itree="59">
      <Node pos="s" depth="0" NCoef="0" IVar="8" Cut="1.1503986120223999e+00" cType="1" res="-1.3954427093267441e-02" rms="2.6708307862281799e-01" purity="5.0089067220687866e-01" nType="0">
        <Node pos="l" depth="1" NCoef="0" IVar="11" Cut="3.2648177146911621e+00" cType="1" res="-7.3722332715988159e-02" rms="2.5661036372184753e-01" purity="1.7012016475200653e-01" nType="0">
          <Node pos="l" depth="2" NCoef="0" IVar="-1" Cut="0.0000000000000000e+00" cType="1" res="-2.9458416625857353e-02" rms="1.9423326849937439e-01" purity="5.1362250000238419e-02" nType="-99"/>
          <Node pos="r" depth="2" NCoef="0" IVar="-1" Cut="0.0000000000000000e+00" cType="1" res="-7.2331535629928112e-03" rms="2.9551005363464355e-01" purity="2.7853792905807495e-01" nType="-99"/>
        </Node>
        <Node pos="r" depth="1" NCoef="0" IVar="11" Cut="2.9572002887725830e+00" cType="1" res="1.0471682064235210e-02" rms="2.6742896437644958e-01" purity="6.3607084751129150e-01" nType="0">
          <Node pos="l" depth="2" NCoef="0" IVar="-1" Cut="0.0000000000000000e+00" cType="1" res="-2.1357197314500809e-02" rms="2.8865584731101990e-01" purity="3.7324726581573486e-01" nType="-99"/>
          <Node pos="r" depth="2" NCoef="0" IVar="-1" Cut="0.0000000000000000e+00" cType="1" res="1.2416501529514790e-02" rms="2.5701496005058289e-01" purity="6.9862526655197144e-01" nType="-99"/>
        </Node>
      </Node>
    </BinaryTree>
    <BinaryTree type="DecisionTree" boostWeight="1.0000000000000000e+00" itree="60">
      <Node pos="s" depth="0" NCoef="0" IVar="6" Cut="1.6137132644653320e+00" cType="1" res="-1.6397878527641296e-02" rms="2.6718282699584961e-01" purity="4.9059161543846130e-01" nType="0">
        <Node pos="l" depth="1" NCoef="0" IVar="9" Cut="2.9688930511474609e+00" cType="1" res="-8.2155182957649231e-02" rms="2.5744971632957458e-01" purity="1.8477749824523926e-01" nType="0">
          <Node pos="l" depth="2" NCoef="0" IVar="-1" Cut="0.0000000000000000e+00" cType="1" res="-2.9425492510199547e-02" rms="2.3060570657253265e-01" purity="9.0130388736724854e-02" nType="-99"/>
          <Node pos="r" depth="2" NCoef="0" IVar="-1" Cut="0.0000000000000000e+00" cType="1" res="-9.5099676400423050e-03" rms="2.7628663182258606e-01" purity="2.8575518727302551e-01" nType="-99"/>
        </Node>
        <Node pos="r" depth="1" NCoef="0" IVar="11" Cut="3.1341073513031006e+00" cType="1" res="7.4232849292457104e-03" rms="2.6665073633193970e-01" purity="6.0137546062469482e-01" nType="0">
          <Node pos="l" depth="2" NCoef="0" IVar="-1" Cut="0.0000000000000000e+00" cType="1" res="-1.6144616529345512e-02" rms="2.6890423893928528e-01" purity="3.9782863855361938e-01" nType="-99"/>
          <Node pos="r" depth="2" NCoef="0" IVar="-1" Cut="0.0000000000000000e+00" cType="1" res="1.5830308198928833e-02" rms="2.5898289680480957e-01" purity="7.0968407392501831e-01" nType="-99"/>
        </Node>
      </Node>
    </BinaryTree>
    <BinaryTree type="DecisionTree" boostWeight="1.0000000000000000e+00" itree="61">
      <Node pos="s" depth="0" NCoef="0" IVar="1" Cut="2.3864550590515137e+00" cType="1" res="-1.4781039208173752e-02" rms="2.6413628458976746e-01" purity="4.9772119522094727e-01" nType="0">
        <Node pos="l" depth="1" NCoef="0" IVar="6" Cut="1.2111304998397827e+00" cType="1" res="2.8393415734171867e-02" rms="2.6948717236518860e-01" purity="8.0481064319610596e-01" nType="0">
          <Node pos="l" depth="2" NCoef="0" IVar="-1" Cut="0.0000000000000000e+00" cType="1" res="-2.3226024582982063e-02" rms="3.6242040991783142e-01" purity="3.5999327898025513e-01" nType="-99"/>
          <Node pos="r" depth="2" NCoef="0" IVar="-1" Cut="0.0000000000000000e+00" cType="1" res="1.8084058538079262e-02" rms="2.5616738200187683e-01" purity="8.4121066331863403e-01" nType="-99"/>
        </Node>
        <Node pos="r" depth="1" NCoef="0" IVar="3" Cut="6.3597631454467773e-01" cType="1" res="-4.7518003731966019e-02" rms="2.5518187880516052e-01" purity="2.6487115025520325e-01" nType="0">
          <Node pos="l" depth="2" NCoef="0" IVar="-1" Cut="0.0000000000000000e+00" cType="1" res="-1.5156845562160015e-02" rms="2.4992063641548157e-01" purity="2.3117497563362122e-01" nType="-99"/>
