<?xml version="1.0"?>
<MethodSetup Method="BDT::BDTG_KK_Ed">
  <GeneralInfo>
    <Info name="TMVA Release" value="4.2.1 [262657]"/>
    <Info name="ROOT Release" value="6.06/02 [394754]"/>
    <Info name="Creator" value="pullen"/>
    <Info name="Date" value="Tue Jan 15 22:46:08 2019"/>
    <Info name="Host" value="Linux lcgapp-slc6-physical1.cern.ch 2.6.32-573.8.1.el6.x86_64 #1 SMP Wed Nov 11 15:27:45 CET 2015 x86_64 x86_64 x86_64 GNU/Linux"/>
    <Info name="Dir" value="/home/pullen/analysis/B02DKstar/BDT/Code"/>
    <Info name="Training events" value="6931"/>
    <Info name="TrainingTime" value="6.74843407e+00"/>
    <Info name="AnalysisType" value="Classification"/>
  </GeneralInfo>
  <Options>
    <Option name="V" modified="Yes">False</Option>
    <Option name="VerbosityLevel" modified="No">Default</Option>
    <Option name="VarTransform" modified="No">None</Option>
    <Option name="H" modified="Yes">False</Option>
    <Option name="CreateMVAPdfs" modified="No">False</Option>
    <Option name="IgnoreNegWeightsInTraining" modified="No">False</Option>
    <Option name="NTrees" modified="Yes">1000</Option>
    <Option name="MaxDepth" modified="Yes">2</Option>
    <Option name="MinNodeSize" modified="Yes">2.5%</Option>
    <Option name="nCuts" modified="Yes">20</Option>
    <Option name="BoostType" modified="Yes">Grad</Option>
    <Option name="AdaBoostR2Loss" modified="No">quadratic</Option>
    <Option name="UseBaggedBoost" modified="Yes">True</Option>
    <Option name="Shrinkage" modified="Yes">1.000000e-01</Option>
    <Option name="AdaBoostBeta" modified="No">5.000000e-01</Option>
    <Option name="UseRandomisedTrees" modified="No">False</Option>
    <Option name="UseNvars" modified="No">3</Option>
    <Option name="UsePoissonNvars" modified="No">True</Option>
    <Option name="BaggedSampleFraction" modified="Yes">5.000000e-01</Option>
    <Option name="UseYesNoLeaf" modified="No">True</Option>
    <Option name="NegWeightTreatment" modified="No">ignorenegweightsintraining</Option>
    <Option name="Css" modified="No">1.000000e+00</Option>
    <Option name="Cts_sb" modified="No">1.000000e+00</Option>
    <Option name="Ctb_ss" modified="No">1.000000e+00</Option>
    <Option name="Cbb" modified="No">1.000000e+00</Option>
    <Option name="NodePurityLimit" modified="No">5.000000e-01</Option>
    <Option name="SeparationType" modified="No">giniindex</Option>
    <Option name="DoBoostMonitor" modified="No">False</Option>
    <Option name="UseFisherCuts" modified="No">False</Option>
    <Option name="MinLinCorrForFisher" modified="No">8.000000e-01</Option>
    <Option name="UseExclusiveVars" modified="No">False</Option>
    <Option name="DoPreselection" modified="No">False</Option>
    <Option name="SigToBkgFraction" modified="No">1.000000e+00</Option>
    <Option name="PruneMethod" modified="No">nopruning</Option>
    <Option name="PruneStrength" modified="No">0.000000e+00</Option>
    <Option name="PruningValFraction" modified="No">5.000000e-01</Option>
    <Option name="nEventsMin" modified="No">0</Option>
    <Option name="UseBaggedGrad" modified="No">False</Option>
    <Option name="GradBaggingFraction" modified="No">5.000000e-01</Option>
    <Option name="UseNTrainEvents" modified="No">0</Option>
    <Option name="NNodesMax" modified="No">0</Option>
  </Options>
  <Variables NVar="10">
    <Variable VarIndex="0" Expression="KstarK_PT" Label="KstarK_PT" Title="KstarK_PT" Unit="" Internal="KstarK_PT" Type="F" Min="1.78926529e+02" Max="2.82794883e+04"/>
    <Variable VarIndex="1" Expression="KstarPi_PT" Label="KstarPi_PT" Title="KstarPi_PT" Unit="" Internal="KstarPi_PT" Type="F" Min="1.00391487e+02" Max="3.15706094e+04"/>
    <Variable VarIndex="2" Expression="D0Kplus_PT" Label="D0Kplus_PT" Title="D0Kplus_PT" Unit="" Internal="D0Kplus_PT" Type="F" Min="1.02136238e+02" Max="3.05688242e+04"/>
    <Variable VarIndex="3" Expression="D0Kminus_PT" Label="D0Kminus_PT" Title="D0Kminus_PT" Unit="" Internal="D0Kminus_PT" Type="F" Min="1.00579659e+02" Max="2.47380918e+04"/>
    <Variable VarIndex="4" Expression="D0_LOKI_VFASPF_VCHI2VDOF" Label="D0_LOKI_VFASPF_VCHI2VDOF" Title="D0_LOKI_VFASPF_VCHI2VDOF" Unit="" Internal="D0_LOKI_VFASPF_VCHI2VDOF" Type="F" Min="2.21459242e-08" Max="9.99461937e+00"/>
    <Variable VarIndex="5" Expression="D0_IPCHI2_OWNPV" Label="D0_IPCHI2_OWNPV" Title="D0_IPCHI2_OWNPV" Unit="" Internal="D0_IPCHI2_OWNPV" Type="F" Min="1.23299204e-03" Max="5.53426680e+04"/>
    <Variable VarIndex="6" Expression="Bd_LOKI_VFASPF_VCHI2VDOF" Label="Bd_LOKI_VFASPF_VCHI2VDOF" Title="Bd_LOKI_VFASPF_VCHI2VDOF" Unit="" Internal="Bd_LOKI_VFASPF_VCHI2VDOF" Type="F" Min="8.46385083e-04" Max="9.99870396e+00"/>
    <Variable VarIndex="7" Expression="Bd_IPCHI2_OWNPV" Label="Bd_IPCHI2_OWNPV" Title="Bd_IPCHI2_OWNPV" Unit="" Internal="Bd_IPCHI2_OWNPV" Type="F" Min="1.33162900e-03" Max="2.50046082e+01"/>
    <Variable VarIndex="8" Expression="Bd_DIRA_OWNPV" Label="Bd_DIRA_OWNPV" Title="Bd_DIRA_OWNPV" Unit="" Internal="Bd_DIRA_OWNPV" Type="F" Min="9.99002576e-01" Max="1.00000000e+00"/>
    <Variable VarIndex="9" Expression="sum_IPs" Label="sum_IPs" Title="sum_IPs" Unit="" Internal="sum_IPs" Type="F" Min="5.61475868e+01" Max="1.55517672e+05"/>
  </Variables>
  <Spectators NSpec="0"/>
  <Classes NClass="2">
    <Class Name="Signal" Index="0"/>
    <Class Name="Background" Index="1"/>
  </Classes>
  <Transformations NTransformations="0"/>
  <MVAPdfs/>
  <Weights NTrees="1000" AnalysisType="1">
    <BinaryTree type="DecisionTree" boostWeight="1.0000000000000000e+00" itree="0">
      <Node pos="s" depth="0" NCoef="0" IVar="7" Cut="4.7617812156677246e+00" cType="1" res="5.0321919843554497e-03" rms="4.9997466802597046e-01" purity="5.0503218173980713e-01" nType="0">
        <Node pos="l" depth="1" NCoef="0" IVar="8" Cut="9.9996793270111084e-01" cType="1" res="2.3334385454654694e-01" rms="4.4221109151840210e-01" purity="7.3334383964538574e-01" nType="0">
          <Node pos="l" depth="2" NCoef="0" IVar="-1" Cut="0.0000000000000000e+00" cType="1" res="-4.8100091516971588e-02" rms="4.4532209634780884e-01" purity="2.7264955639839172e-01" nType="-99"/>
          <Node pos="r" depth="2" NCoef="0" IVar="-1" Cut="0.0000000000000000e+00" cType="1" res="4.3949380517005920e-02" rms="4.2536741495132446e-01" purity="7.6279759407043457e-01" nType="-99"/>
        </Node>
        <Node pos="r" depth="1" NCoef="0" IVar="9" Cut="4.3385170898437500e+03" cType="1" res="-3.0343353748321533e-01" rms="3.9740166068077087e-01" purity="1.9656643271446228e-01" nType="0">
          <Node pos="l" depth="2" NCoef="0" IVar="-1" Cut="0.0000000000000000e+00" cType="1" res="-8.1751093268394470e-02" rms="3.4811195731163025e-01" purity="1.4108765125274658e-01" nType="-99"/>
          <Node pos="r" depth="2" NCoef="0" IVar="-1" Cut="0.0000000000000000e+00" cType="1" res="1.3750808313488960e-02" rms="4.9424469470977783e-01" purity="5.7564514875411987e-01" nType="-99"/>
        </Node>
      </Node>
    </BinaryTree>
    <BinaryTree type="DecisionTree" boostWeight="1.0000000000000000e+00" itree="1">
      <Node pos="s" depth="0" NCoef="0" IVar="7" Cut="7.1308012008666992e+00" cType="1" res="1.5112661058083177e-03" rms="4.8476904630661011e-01" purity="4.9776193499565125e-01" nType="0">
        <Node pos="l" depth="1" NCoef="0" IVar="8" Cut="9.9996793270111084e-01" cType="1" res="1.5512251853942871e-01" rms="4.6590733528137207e-01" purity="6.6569381952285767e-01" nType="0">
          <Node pos="l" depth="2" NCoef="0" IVar="-1" Cut="0.0000000000000000e+00" cType="1" res="-4.4509720057249069e-02" rms="4.3844661116600037e-01" purity="2.6024034619331360e-01" nType="-99"/>
          <Node pos="r" depth="2" NCoef="0" IVar="-1" Cut="0.0000000000000000e+00" cType="1" res="3.3482678234577179e-02" rms="4.5123589038848877e-01" purity="7.1053475141525269e-01" nType="-99"/>
        </Node>
        <Node pos="r" depth="1" NCoef="0" IVar="7" Cut="9.6876287460327148e+00" cType="1" res="-3.4987178444862366e-01" rms="3.1396222114562988e-01" purity="1.1362060904502869e-01" nType="0">
          <Node pos="l" depth="2" NCoef="0" IVar="-1" Cut="0.0000000000000000e+00" cType="1" res="-3.7902470678091049e-02" rms="4.4766804575920105e-01" purity="2.8622174263000488e-01" nType="-99"/>
          <Node pos="r" depth="2" NCoef="0" IVar="-1" Cut="0.0000000000000000e+00" cType="1" res="-1.0141615569591522e-01" rms="2.0458644628524780e-01" purity="4.4895559549331665e-02" nType="-99"/>
        </Node>
      </Node>
    </BinaryTree>
    <BinaryTree type="DecisionTree" boostWeight="1.0000000000000000e+00" itree="2">
      <Node pos="s" depth="0" NCoef="0" IVar="7" Cut="5.9550790786743164e+00" cType="1" res="3.3151593059301376e-02" rms="4.6819859743118286e-01" purity="5.2603876590728760e-01" nType="0">
        <Node pos="l" depth="1" NCoef="0" IVar="6" Cut="1.8188296556472778e+00" cType="1" res="1.9582344591617584e-01" rms="4.3986791372299194e-01" purity="7.2398322820663452e-01" nType="0">
          <Node pos="l" depth="2" NCoef="0" IVar="-1" Cut="0.0000000000000000e+00" cType="1" res="4.2786583304405212e-02" rms="4.0422496199607849e-01" purity="7.8566175699234009e-01" nType="-99"/>
          <Node pos="r" depth="2" NCoef="0" IVar="-1" Cut="0.0000000000000000e+00" cType="1" res="1.0989990085363388e-02" rms="4.8341262340545654e-01" purity="5.8704578876495361e-01" nType="-99"/>
        </Node>
        <Node pos="r" depth="1" NCoef="0" IVar="9" Cut="6.5108969726562500e+03" cType="1" res="-2.6344209909439087e-01" rms="3.6041668057441711e-01" purity="1.6513384878635406e-01" nType="0">
          <Node pos="l" depth="2" NCoef="0" IVar="-1" Cut="0.0000000000000000e+00" cType="1" res="-6.8762846291065216e-02" rms="3.3067694306373596e-01" purity="1.3155034184455872e-01" nType="-99"/>
          <Node pos="r" depth="2" NCoef="0" IVar="-1" Cut="0.0000000000000000e+00" cType="1" res="1.1954807676374912e-02" rms="4.9077221751213074e-01" purity="5.3777366876602173e-01" nType="-99"/>
        </Node>
      </Node>
    </BinaryTree>
    <BinaryTree type="DecisionTree" boostWeight="1.0000000000000000e+00" itree="3">
      <Node pos="s" depth="0" NCoef="0" IVar="7" Cut="3.5732283592224121e+00" cType="1" res="1.6596112400293350e-02" rms="4.5650219917297363e-01" purity="5.0793880224227905e-01" nType="0">
        <Node pos="l" depth="1" NCoef="0" IVar="8" Cut="9.9998021125793457e-01" cType="1" res="2.2077143192291260e-01" rms="4.1351929306983948e-01" purity="7.7221125364303589e-01" nType="0">
          <Node pos="l" depth="2" NCoef="0" IVar="-1" Cut="0.0000000000000000e+00" cType="1" res="-3.7743888795375824e-02" rms="4.5108184218406677e-01" purity="3.2054781913757324e-01" nType="-99"/>
          <Node pos="r" depth="2" NCoef="0" IVar="-1" Cut="0.0000000000000000e+00" cType="1" res="4.1538070887327194e-02" rms="3.9520862698554993e-01" purity="8.0467212200164795e-01" nType="-99"/>
        </Node>
        <Node pos="r" depth="1" NCoef="0" IVar="9" Cut="3.5501328125000000e+03" cType="1" res="-1.8288752436637878e-01" rms="4.0547212958335876e-01" purity="2.4973905086517334e-01" nType="0">
          <Node pos="l" depth="2" NCoef="0" IVar="-1" Cut="0.0000000000000000e+00" cType="1" res="-5.5290527641773224e-02" rms="3.6527326703071594e-01" purity="1.8086461722850800e-01" nType="-99"/>
          <Node pos="r" depth="2" NCoef="0" IVar="-1" Cut="0.0000000000000000e+00" cType="1" res="1.5129653736948967e-02" rms="4.7487077116966248e-01" purity="5.7480776309967041e-01" nType="-99"/>
        </Node>
      </Node>
    </BinaryTree>
    <BinaryTree type="DecisionTree" boostWeight="1.0000000000000000e+00" itree="4">
      <Node pos="s" depth="0" NCoef="0" IVar="7" Cut="8.3224229812622070e+00" cType="1" res="1.0227669030427933e-02" rms="4.4807422161102295e-01" purity="4.9953195452690125e-01" nType="0">
        <Node pos="l" depth="1" NCoef="0" IVar="8" Cut="9.9995917081832886e-01" cType="1" res="1.1850750446319580e-01" rms="4.5266324281692505e-01" purity="6.5493041276931763e-01" nType="0">
          <Node pos="l" depth="2" NCoef="0" IVar="-1" Cut="0.0000000000000000e+00" cType="1" res="-5.9090074151754379e-02" rms="3.6266282200813293e-01" purity="1.5917494893074036e-01" nType="-99"/>
          <Node pos="r" depth="2" NCoef="0" IVar="-1" Cut="0.0000000000000000e+00" cType="1" res="2.7982208877801895e-02" rms="4.4261470437049866e-01" purity="7.1053278446197510e-01" nType="-99"/>
        </Node>
        <Node pos="r" depth="1" NCoef="0" IVar="8" Cut="9.9995285272598267e-01" cType="1" res="-2.7498817443847656e-01" rms="2.7865999937057495e-01" purity="9.0202741324901581e-02" nType="0">
          <Node pos="l" depth="2" NCoef="0" IVar="-1" Cut="0.0000000000000000e+00" cType="1" res="-9.0508244931697845e-02" rms="1.3343530893325806e-01" purity="1.7900779843330383e-02" nType="-99"/>
          <Node pos="r" depth="2" NCoef="0" IVar="-1" Cut="0.0000000000000000e+00" cType="1" res="-5.3053084760904312e-02" rms="3.5290911793708801e-01" purity="1.5494273602962494e-01" nType="-99"/>
        </Node>
      </Node>
    </BinaryTree>
    <BinaryTree type="DecisionTree" boostWeight="1.0000000000000000e+00" itree="5">
      <Node pos="s" depth="0" NCoef="0" IVar="7" Cut="7.1456747055053711e+00" cType="1" res="2.2243971761781722e-04" rms="4.3813169002532959e-01" purity="4.8973536491394043e-01" nType="0">
        <Node pos="l" depth="1" NCoef="0" IVar="9" Cut="5.3152583007812500e+03" cType="1" res="1.0991381853818893e-01" rms="4.5247229933738708e-01" purity="6.6598588228225708e-01" nType="0">
          <Node pos="l" depth="2" NCoef="0" IVar="-1" Cut="0.0000000000000000e+00" cType="1" res="9.7026554867625237e-03" rms="4.7079166769981384e-01" purity="5.9941464662551880e-01" nType="-99"/>
          <Node pos="r" depth="2" NCoef="0" IVar="-1" Cut="0.0000000000000000e+00" cType="1" res="4.7562949359416962e-02" rms="3.3099848031997681e-01" purity="8.7365120649337769e-01" nType="-99"/>
        </Node>
        <Node pos="r" depth="1" NCoef="0" IVar="9" Cut="3.7478215332031250e+03" cType="1" res="-2.4360458552837372e-01" rms="2.7815872430801392e-01" purity="9.7957588732242584e-02" nType="0">
          <Node pos="l" depth="2" NCoef="0" IVar="-1" Cut="0.0000000000000000e+00" cType="1" res="-7.5661532580852509e-02" rms="2.1595439314842224e-01" purity="5.1356926560401917e-02" nType="-99"/>
          <Node pos="r" depth="2" NCoef="0" IVar="-1" Cut="0.0000000000000000e+00" cType="1" res="2.2225014399737120e-03" rms="4.8358091711997986e-01" purity="4.4683748483657837e-01" nType="-99"/>
        </Node>
      </Node>
    </BinaryTree>
    <BinaryTree type="DecisionTree" boostWeight="1.0000000000000000e+00" itree="6">
      <Node pos="s" depth="0" NCoef="0" IVar="7" Cut="7.1456747055053711e+00" cType="1" res="1.4913608320057392e-02" rms="4.2877355217933655e-01" purity="4.9944615364074707e-01" nType="0">
        <Node pos="l" depth="1" NCoef="0" IVar="8" Cut="9.9995917081832886e-01" cType="1" res="1.1616002023220062e-01" rms="4.4349649548530579e-01" purity="6.8054330348968506e-01" nType="0">
          <Node pos="l" depth="2" NCoef="0" IVar="-1" Cut="0.0000000000000000e+00" cType="1" res="-5.4082509130239487e-02" rms="3.7495401501655579e-01" purity="1.7118367552757263e-01" nType="-99"/>
          <Node pos="r" depth="2" NCoef="0" IVar="-1" Cut="0.0000000000000000e+00" cType="1" res="2.5473903864622116e-02" rms="4.3651646375656128e-01" purity="7.2229290008544922e-01" nType="-99"/>
        </Node>
        <Node pos="r" depth="1" NCoef="0" IVar="7" Cut="1.3954897880554199e+01" cType="1" res="-2.0697405934333801e-01" rms="2.8983178734779358e-01" purity="1.0256050527095795e-01" nType="0">
          <Node pos="l" depth="2" NCoef="0" IVar="-1" Cut="0.0000000000000000e+00" cType="1" res="-3.9196241647005081e-02" rms="3.6260393261909485e-01" purity="1.7012913525104523e-01" nType="-99"/>
          <Node pos="r" depth="2" NCoef="0" IVar="-1" Cut="0.0000000000000000e+00" cType="1" res="-7.8660279512405396e-02" rms="1.5773637592792511e-01" purity="2.8492206707596779e-02" nType="-99"/>
        </Node>
      </Node>
    </BinaryTree>
    <BinaryTree type="DecisionTree" boostWeight="1.0000000000000000e+00" itree="7">
      <Node pos="s" depth="0" NCoef="0" IVar="7" Cut="3.5727174282073975e+00" cType="1" res="3.2247873023152351e-03" rms="4.2538523674011230e-01" purity="4.8691186308860779e-01" nType="0">
        <Node pos="l" depth="1" NCoef="0" IVar="6" Cut="1.8637686967849731e+00" cType="1" res="1.3361418247222900e-01" rms="4.3259480595588684e-01" purity="7.3476892709732056e-01" nType="0">
          <Node pos="l" depth="2" NCoef="0" IVar="-1" Cut="0.0000000000000000e+00" cType="1" res="3.3271118998527527e-02" rms="3.9561712741851807e-01" purity="7.9720759391784668e-01" nType="-99"/>
          <Node pos="r" depth="2" NCoef="0" IVar="-1" Cut="0.0000000000000000e+00" cType="1" res="-6.1637831095140427e-05" rms="4.8189368844032288e-01" purity="5.9045201539993286e-01" nType="-99"/>
        </Node>
        <Node pos="r" depth="1" NCoef="0" IVar="9" Cut="4.3385170898437500e+03" cType="1" res="-1.2862810492515564e-01" rms="3.7432619929313660e-01" purity="2.3627287149429321e-01" nType="0">
          <Node pos="l" depth="2" NCoef="0" IVar="-1" Cut="0.0000000000000000e+00" cType="1" res="-4.2926520109176636e-02" rms="3.4522244334220886e-01" purity="1.7427936196327209e-01" nType="-99"/>
          <Node pos="r" depth="2" NCoef="0" IVar="-1" Cut="0.0000000000000000e+00" cType="1" res="1.5642054378986359e-02" rms="4.5549538731575012e-01" purity="5.9253418445587158e-01" nType="-99"/>
        </Node>
      </Node>
    </BinaryTree>
    <BinaryTree type="DecisionTree" boostWeight="1.0000000000000000e+00" itree="8">
      <Node pos="s" depth="0" NCoef="0" IVar="7" Cut="8.3315172195434570e+00" cType="1" res="2.0292589440941811e-02" rms="4.1984787583351135e-01" purity="5.0219923257827759e-01" nType="0">
        <Node pos="l" depth="1" NCoef="0" IVar="3" Cut="1.2326466064453125e+03" cType="1" res="9.7806140780448914e-02" rms="4.4195190072059631e-01" purity="6.6055989265441895e-01" nType="0">
          <Node pos="l" depth="2" NCoef="0" IVar="-1" Cut="0.0000000000000000e+00" cType="1" res="-9.0687265619635582e-03" rms="4.7015175223350525e-01" purity="5.1065182685852051e-01" nType="-99"/>
          <Node pos="r" depth="2" NCoef="0" IVar="-1" Cut="0.0000000000000000e+00" cType="1" res="2.7513703331351280e-02" rms="4.1810190677642822e-01" purity="7.1738797426223755e-01" nType="-99"/>
        </Node>
        <Node pos="r" depth="1" NCoef="0" IVar="3" Cut="1.2741771240234375e+03" cType="1" res="-1.8701402842998505e-01" rms="2.5745043158531189e-01" purity="7.8670628368854523e-02" nType="0">
          <Node pos="l" depth="2" NCoef="0" IVar="-1" Cut="0.0000000000000000e+00" cType="1" res="-7.6166301965713501e-02" rms="1.5526050329208374e-01" purity="2.4062983691692352e-02" nType="-99"/>
          <Node pos="r" depth="2" NCoef="0" IVar="-1" Cut="0.0000000000000000e+00" cType="1" res="-4.5228388160467148e-02" rms="3.0254751443862915e-01" purity="1.1530394107103348e-01" nType="-99"/>
        </Node>
      </Node>
    </BinaryTree>
    <BinaryTree type="DecisionTree" boostWeight="1.0000000000000000e+00" itree="9">
      <Node pos="s" depth="0" NCoef="0" IVar="7" Cut="3.5678775310516357e+00" cType="1" res="1.1888413690030575e-02" rms="4.1447901725769043e-01" purity="4.8948439955711365e-01" nType="0">
        <Node pos="l" depth="1" NCoef="0" IVar="8" Cut="9.9998372793197632e-01" cType="1" res="1.2876079976558685e-01" rms="4.2150175571441650e-01" purity="7.4858832359313965e-01" nType="0">
          <Node pos="l" depth="2" NCoef="0" IVar="-1" Cut="0.0000000000000000e+00" cType="1" res="-3.4335527569055557e-02" rms="4.6700122952461243e-01" purity="3.5266137123107910e-01" nType="-99"/>
          <Node pos="r" depth="2" NCoef="0" IVar="-1" Cut="0.0000000000000000e+00" cType="1" res="2.7470892295241356e-02" rms="4.0743619203567505e-01" purity="7.8318238258361816e-01" nType="-99"/>
        </Node>
        <Node pos="r" depth="1" NCoef="0" IVar="6" Cut="4.7490105032920837e-01" cType="1" res="-1.0093318670988083e-01" rms="3.7444761395454407e-01" purity="2.3936101794242859e-01" nType="0">
          <Node pos="l" depth="2" NCoef="0" IVar="-1" Cut="0.0000000000000000e+00" cType="1" res="2.0719498395919800e-02" rms="4.3631562590599060e-01" purity="4.8122271895408630e-01" nType="-99"/>
          <Node pos="r" depth="2" NCoef="0" IVar="-1" Cut="0.0000000000000000e+00" cType="1" res="-3.4560024738311768e-02" rms="3.5453245043754578e-01" purity="2.0237444341182709e-01" nType="-99"/>
        </Node>
      </Node>
    </BinaryTree>
    <BinaryTree type="DecisionTree" boostWeight="1.0000000000000000e+00" itree="10">
      <Node pos="s" depth="0" NCoef="0" IVar="7" Cut="8.3357572555541992e+00" cType="1" res="2.8458796441555023e-02" rms="4.1685602068901062e-01" purity="5.1365798711776733e-01" nType="0">
        <Node pos="l" depth="1" NCoef="0" IVar="2" Cut="1.2042768554687500e+03" cType="1" res="8.6154587566852570e-02" rms="4.4018042087554932e-01" purity="6.5739208459854126e-01" nType="0">
          <Node pos="l" depth="2" NCoef="0" IVar="-1" Cut="0.0000000000000000e+00" cType="1" res="-1.2790923006832600e-02" rms="4.8090913891792297e-01" purity="5.0324517488479614e-01" nType="-99"/>
          <Node pos="r" depth="2" NCoef="0" IVar="-1" Cut="0.0000000000000000e+00" cType="1" res="2.5398639962077141e-02" rms="4.1278994083404541e-01" purity="7.1066784858703613e-01" nType="-99"/>
        </Node>
        <Node pos="r" depth="1" NCoef="0" IVar="7" Cut="1.3099967956542969e+01" cType="1" res="-1.3797158002853394e-01" rms="2.8072133660316467e-01" purity="9.9040046334266663e-02" nType="0">
          <Node pos="l" depth="2" NCoef="0" IVar="-1" Cut="0.0000000000000000e+00" cType="1" res="-2.0895514637231827e-02" rms="3.6598631739616394e-01" purity="1.8198953568935394e-01" nType="-99"/>
          <Node pos="r" depth="2" NCoef="0" IVar="-1" Cut="0.0000000000000000e+00" cType="1" res="-6.4863793551921844e-02" rms="1.8419039249420166e-01" purity="3.9914160966873169e-02" nType="-99"/>
        </Node>
      </Node>
    </BinaryTree>
    <BinaryTree type="DecisionTree" boostWeight="1.0000000000000000e+00" itree="11">
      <Node pos="s" depth="0" NCoef="0" IVar="7" Cut="8.3357572555541992e+00" cType="1" res="1.6925739124417305e-02" rms="4.0815064311027527e-01" purity="5.0216114521026611e-01" nType="0">
        <Node pos="l" depth="1" NCoef="0" IVar="3" Cut="9.7134185791015625e+02" cType="1" res="7.5830630958080292e-02" rms="4.3875244259834290e-01" purity="6.5543532371520996e-01" nType="0">
          <Node pos="l" depth="2" NCoef="0" IVar="-1" Cut="0.0000000000000000e+00" cType="1" res="-1.8342994153499603e-02" rms="4.7341465950012207e-01" purity="4.6629291772842407e-01" nType="-99"/>
          <Node pos="r" depth="2" NCoef="0" IVar="-1" Cut="0.0000000000000000e+00" cType="1" res="2.3009506985545158e-02" rms="4.1605195403099060e-01" purity="7.1027421951293945e-01" nType="-99"/>
        </Node>
        <Node pos="r" depth="1" NCoef="0" IVar="2" Cut="4.4554521484375000e+03" cType="1" res="-1.5093399584293365e-01" rms="2.3381201922893524e-01" purity="6.5379619598388672e-02" nType="0">
          <Node pos="l" depth="2" NCoef="0" IVar="-1" Cut="0.0000000000000000e+00" cType="1" res="-5.8186471462249756e-02" rms="2.1292121708393097e-01" purity="5.3350538015365601e-02" nType="-99"/>
          <Node pos="r" depth="2" NCoef="0" IVar="-1" Cut="0.0000000000000000e+00" cType="1" res="-1.7417345196008682e-02" rms="3.4679889678955078e-01" purity="1.6396567225456238e-01" nType="-99"/>
        </Node>
      </Node>
    </BinaryTree>
    <BinaryTree type="DecisionTree" boostWeight="1.0000000000000000e+00" itree="12">
      <Node pos="s" depth="0" NCoef="0" IVar="8" Cut="9.9995249509811401e-01" cType="1" res="2.1335560828447342e-02" rms="4.0199044346809387e-01" purity="5.0069838762283325e-01" nType="0">
        <Node pos="l" depth="1" NCoef="0" IVar="1" Cut="9.9704534912109375e+02" cType="1" res="-1.6550526022911072e-01" rms="2.3262730240821838e-01" purity="6.5177448093891144e-02" nType="0">
          <Node pos="l" depth="2" NCoef="0" IVar="-1" Cut="0.0000000000000000e+00" cType="1" res="-6.8710565567016602e-02" rms="1.8739271163940430e-01" purity="3.8110855966806412e-02" nType="-99"/>
          <Node pos="r" depth="2" NCoef="0" IVar="-1" Cut="0.0000000000000000e+00" cType="1" res="-4.0391873568296432e-02" rms="2.8168678283691406e-01" purity="1.0639230906963348e-01" nType="-99"/>
        </Node>
        <Node pos="r" depth="1" NCoef="0" IVar="8" Cut="9.9999547004699707e-01" cType="1" res="6.8223193287849426e-02" rms="4.2143756151199341e-01" purity="6.0999220609664917e-01" nType="0">
          <Node pos="l" depth="2" NCoef="0" IVar="-1" Cut="0.0000000000000000e+00" cType="1" res="-1.9163060933351517e-02" rms="4.2835184931755066e-01" purity="3.4453013539314270e-01" nType="-99"/>
          <Node pos="r" depth="2" NCoef="0" IVar="-1" Cut="0.0000000000000000e+00" cType="1" res="2.8057105839252472e-02" rms="3.9419260621070862e-01" purity="7.5766980648040771e-01" nType="-99"/>
        </Node>
      </Node>
    </BinaryTree>
    <BinaryTree type="DecisionTree" boostWeight="1.0000000000000000e+00" itree="13">
      <Node pos="s" depth="0" NCoef="0" IVar="7" Cut="3.5673727989196777e+00" cType="1" res="4.4990922324359417e-03" rms="3.9794507622718811e-01" purity="4.8703107237815857e-01" nType="0">
        <Node pos="l" depth="1" NCoef="0" IVar="8" Cut="9.9998933076858521e-01" cType="1" res="9.8113417625427246e-02" rms="4.1535532474517822e-01" purity="7.5034379959106445e-01" nType="0">
          <Node pos="l" depth="2" NCoef="0" IVar="-1" Cut="0.0000000000000000e+00" cType="1" res="-2.3157102987170219e-02" rms="4.8089802265167236e-01" purity="4.3389549851417542e-01" nType="-99"/>
          <Node pos="r" depth="2" NCoef="0" IVar="-1" Cut="0.0000000000000000e+00" cType="1" res="2.3655256256461143e-02" rms="3.9705097675323486e-01" purity="7.9339337348937988e-01" nType="-99"/>
        </Node>
        <Node pos="r" depth="1" NCoef="0" IVar="6" Cut="1.9073536396026611e+00" cType="1" res="-8.7639011442661285e-02" rms="3.5680377483367920e-01" purity="2.2787062823772430e-01" nType="0">
          <Node pos="l" depth="2" NCoef="0" IVar="-1" Cut="0.0000000000000000e+00" cType="1" res="-7.8318873420357704e-03" rms="3.9024257659912109e-01" purity="3.0422890186309814e-01" nType="-99"/>
          <Node pos="r" depth="2" NCoef="0" IVar="-1" Cut="0.0000000000000000e+00" cType="1" res="-4.8400934785604477e-02" rms="2.9436457157135010e-01" purity="1.3217489421367645e-01" nType="-99"/>
        </Node>
      </Node>
    </BinaryTree>
    <BinaryTree type="DecisionTree" boostWeight="1.0000000000000000e+00" itree="14">
      <Node pos="s" depth="0" NCoef="0" IVar="2" Cut="1.0891579589843750e+03" cType="1" res="1.8329195678234100e-02" rms="3.9773562550544739e-01" purity="4.9610614776611328e-01" nType="0">
        <Node pos="l" depth="1" NCoef="0" IVar="2" Cut="6.1448345947265625e+02" cType="1" res="-1.4080920815467834e-01" rms="3.7719461321830750e-01" purity="2.8177696466445923e-01" nType="0">
          <Node pos="l" depth="2" NCoef="0" IVar="-1" Cut="0.0000000000000000e+00" cType="1" res="-8.0920338630676270e-02" rms="3.0353260040283203e-01" purity="1.1167960613965988e-01" nType="-99"/>
          <Node pos="r" depth="2" NCoef="0" IVar="-1" Cut="0.0000000000000000e+00" cType="1" res="2.7178304269909859e-02" rms="3.6946389079093933e-01" purity="6.3023269176483154e-01" nType="-99"/>
        </Node>
        <Node pos="r" depth="1" NCoef="0" IVar="3" Cut="1.2745358886718750e+03" cType="1" res="7.6858207583427429e-02" rms="3.8898348808288574e-01" purity="5.7493358850479126e-01" nType="0">
          <Node pos="l" depth="2" NCoef="0" IVar="-1" Cut="0.0000000000000000e+00" cType="1" res="-1.5813177451491356e-02" rms="3.8984221220016479e-01" purity="3.6479204893112183e-01" nType="-99"/>
          <Node pos="r" depth="2" NCoef="0" IVar="-1" Cut="0.0000000000000000e+00" cType="1" res="3.5473018884658813e-02" rms="3.5558971762657166e-01" purity="7.2515159845352173e-01" nType="-99"/>
        </Node>
      </Node>
    </BinaryTree>
    <BinaryTree type="DecisionTree" boostWeight="1.0000000000000000e+00" itree="15">
      <Node pos="s" depth="0" NCoef="0" IVar="9" Cut="7.4649555664062500e+03" cType="1" res="9.7278030589222908e-03" rms="3.9056533575057983e-01" purity="4.8955163359642029e-01" nType="0">
        <Node pos="l" depth="1" NCoef="0" IVar="9" Cut="1.4638206787109375e+03" cType="1" res="-2.4093165993690491e-02" rms="3.9189893007278442e-01" purity="4.2723259329795837e-01" nType="0">
          <Node pos="l" depth="2" NCoef="0" IVar="-1" Cut="0.0000000000000000e+00" cType="1" res="-2.5731829926371574e-02" rms="3.7712207436561584e-01" purity="3.0905750393867493e-01" nType="-99"/>
          <Node pos="r" depth="2" NCoef="0" IVar="-1" Cut="0.0000000000000000e+00" cType="1" res="1.7548706382513046e-02" rms="3.8804221153259277e-01" purity="5.9407055377960205e-01" nType="-99"/>
        </Node>
        <Node pos="r" depth="1" NCoef="0" IVar="3" Cut="2.1932907714843750e+03" cType="1" res="2.0621237158775330e-01" rms="3.1816294789314270e-01" purity="8.5159718990325928e-01" nType="0">
          <Node pos="l" depth="2" NCoef="0" IVar="-1" Cut="0.0000000000000000e+00" cType="1" res="2.3750314489006996e-02" rms="3.8699835538864136e-01" purity="7.4536633491516113e-01" nType="-99"/>
          <Node pos="r" depth="2" NCoef="0" IVar="-1" Cut="0.0000000000000000e+00" cType="1" res="4.9721568822860718e-02" rms="2.3394875228404999e-01" purity="9.3300986289978027e-01" nType="-99"/>
        </Node>
      </Node>
    </BinaryTree>
    <BinaryTree type="DecisionTree" boostWeight="1.0000000000000000e+00" itree="16">
      <Node pos="s" depth="0" NCoef="0" IVar="7" Cut="5.9576749801635742e+00" cType="1" res="3.0518032610416412e-02" rms="3.8048234581947327e-01" purity="5.1208877563476562e-01" nType="0">
        <Node pos="l" depth="1" NCoef="0" IVar="1" Cut="8.7695471191406250e+02" cType="1" res="9.2933349311351776e-02" rms="4.0665584802627563e-01" purity="7.2235822677612305e-01" nType="0">
          <Node pos="l" depth="2" NCoef="0" IVar="-1" Cut="0.0000000000000000e+00" cType="1" res="1.9663022831082344e-03" rms="4.2986568808555603e-01" purity="6.3066887855529785e-01" nType="-99"/>
          <Node pos="r" depth="2" NCoef="0" IVar="-1" Cut="0.0000000000000000e+00" cType="1" res="2.8530348092317581e-02" rms="3.7836304306983948e-01" purity="7.8755450248718262e-01" nType="-99"/>
        </Node>
        <Node pos="r" depth="1" NCoef="0" IVar="1" Cut="1.6000352783203125e+03" cType="1" res="-7.9869396984577179e-02" rms="2.9875525832176208e-01" purity="1.4020717144012451e-01" nType="0">
          <Node pos="l" depth="2" NCoef="0" IVar="-1" Cut="0.0000000000000000e+00" cType="1" res="-4.2020555585622787e-02" rms="2.6599705219268799e-01" purity="9.7889885306358337e-02" nType="-99"/>
          <Node pos="r" depth="2" NCoef="0" IVar="-1" Cut="0.0000000000000000e+00" cType="1" res="7.6991098467260599e-04" rms="3.4873470664024353e-01" purity="2.3653043806552887e-01" nType="-99"/>
        </Node>
      </Node>
    </BinaryTree>
    <BinaryTree type="DecisionTree" boostWeight="1.0000000000000000e+00" itree="17">
      <Node pos="s" depth="0" NCoef="0" IVar="9" Cut="6.0983007812500000e+03" cType="1" res="2.8267381712794304e-02" rms="3.8854607939720154e-01" purity="5.1784169673919678e-01" nType="0">
        <Node pos="l" depth="1" NCoef="0" IVar="9" Cut="9.1810229492187500e+02" cType="1" res="-4.0840888395905495e-03" rms="3.9480951428413391e-01" purity="4.4957035779953003e-01" nType="0">
          <Node pos="l" depth="2" NCoef="0" IVar="-1" Cut="0.0000000000000000e+00" cType="1" res="-2.5269584730267525e-02" rms="3.7673002481460571e-01" purity="2.9059824347496033e-01" nType="-99"/>
          <Node pos="r" depth="2" NCoef="0" IVar="-1" Cut="0.0000000000000000e+00" cType="1" res="1.6098419204354286e-02" rms="3.9364144206047058e-01" purity="5.8664077520370483e-01" nType="-99"/>
        </Node>
        <Node pos="r" depth="1" NCoef="0" IVar="3" Cut="2.7744260253906250e+03" cType="1" res="1.8734729290008545e-01" rms="3.1046527624130249e-01" purity="8.5354822874069214e-01" nType="0">
          <Node pos="l" depth="2" NCoef="0" IVar="-1" Cut="0.0000000000000000e+00" cType="1" res="2.8057156130671501e-02" rms="3.5999172925949097e-01" purity="7.8293251991271973e-01" nType="-99"/>
          <Node pos="r" depth="2" NCoef="0" IVar="-1" Cut="0.0000000000000000e+00" cType="1" res="4.6966742724180222e-02" rms="2.2329132258892059e-01" purity="9.4117480516433716e-01" nType="-99"/>
        </Node>
      </Node>
    </BinaryTree>
    <BinaryTree type="DecisionTree" boostWeight="1.0000000000000000e+00" itree="18">
      <Node pos="s" depth="0" NCoef="0" IVar="7" Cut="8.3227062225341797e+00" cType="1" res="2.0561082288622856e-02" rms="3.8237053155899048e-01" purity="5.0714254379272461e-01" nType="0">
        <Node pos="l" depth="1" NCoef="0" IVar="6" Cut="2.8358762264251709e+00" cType="1" res="6.2523916363716125e-02" rms="4.1457030177116394e-01" purity="6.6712898015975952e-01" nType="0">
          <Node pos="l" depth="2" NCoef="0" IVar="-1" Cut="0.0000000000000000e+00" cType="1" res="1.9156068563461304e-02" rms="4.0101110935211182e-01" purity="7.1045506000518799e-01" nType="-99"/>
          <Node pos="r" depth="2" NCoef="0" IVar="-1" Cut="0.0000000000000000e+00" cType="1" res="-2.3870049044489861e-02" rms="4.3860769271850586e-01" purity="4.4707939028739929e-01" nType="-99"/>
        </Node>
        <Node pos="r" depth="1" NCoef="0" IVar="7" Cut="1.3086490631103516e+01" cType="1" res="-9.1611526906490326e-02" rms="2.4560366570949554e-01" purity="7.9476028680801392e-02" nType="0">
          <Node pos="l" depth="2" NCoef="0" IVar="-1" Cut="0.0000000000000000e+00" cType="1" res="-1.1918938718736172e-02" rms="3.3455079793930054e-01" purity="1.5955781936645508e-01" nType="-99"/>
          <Node pos="r" depth="2" NCoef="0" IVar="-1" Cut="0.0000000000000000e+00" cType="1" res="-6.1465043574571609e-02" rms="1.4739462733268738e-01" purity="2.5646962225437164e-02" nType="-99"/>
        </Node>
      </Node>
    </BinaryTree>
    <BinaryTree type="DecisionTree" boostWeight="1.0000000000000000e+00" itree="19">
      <Node pos="s" depth="0" NCoef="0" IVar="6" Cut="1.4355056285858154e+00" cType="1" res="1.3849474489688873e-02" rms="3.8542512059211731e-01" purity="5.0010651350021362e-01" nType="0">
        <Node pos="l" depth="1" NCoef="0" IVar="8" Cut="9.9995428323745728e-01" cType="1" res="7.8639432787895203e-02" rms="3.8366469740867615e-01" purity="6.1572104692459106e-01" nType="0">
          <Node pos="l" depth="2" NCoef="0" IVar="-1" Cut="0.0000000000000000e+00" cType="1" res="-2.8561079874634743e-02" rms="2.9232883453369141e-01" purity="1.2592157721519470e-01" nType="-99"/>
          <Node pos="r" depth="2" NCoef="0" IVar="-1" Cut="0.0000000000000000e+00" cType="1" res="2.2728031501173973e-02" rms="3.9204993844032288e-01" purity="7.1393179893493652e-01" nType="-99"/>
        </Node>
        <Node pos="r" depth="1" NCoef="0" IVar="9" Cut="5.3044101562500000e+03" cType="1" res="-5.7816810905933380e-02" rms="3.7452748417854309e-01" purity="3.7222149968147278e-01" nType="0">
          <Node pos="l" depth="2" NCoef="0" IVar="-1" Cut="0.0000000000000000e+00" cType="1" res="-2.6187397539615631e-02" rms="3.6858502030372620e-01" purity="2.9247656464576721e-01" nType="-99"/>
          <Node pos="r" depth="2" NCoef="0" IVar="-1" Cut="0.0000000000000000e+00" cType="1" res="2.4691306054592133e-02" rms="3.5015863180160522e-01" purity="7.5698059797286987e-01" nType="-99"/>
        </Node>
      </Node>
    </BinaryTree>
    <BinaryTree type="DecisionTree" boostWeight="1.0000000000000000e+00" itree="20">
      <Node pos="s" depth="0" NCoef="0" IVar="6" Cut="1.4247552156448364e+00" cType="1" res="2.0507799461483955e-02" rms="3.7481132149696350e-01" purity="5.1512140035629272e-01" nType="0">
        <Node pos="l" depth="1" NCoef="0" IVar="8" Cut="9.9995368719100952e-01" cType="1" res="8.3293654024600983e-02" rms="3.6013260483741760e-01" purity="6.3322079181671143e-01" nType="0">
          <Node pos="l" depth="2" NCoef="0" IVar="-1" Cut="0.0000000000000000e+00" cType="1" res="-3.0986294150352478e-02" rms="2.8037619590759277e-01" purity="1.0534495860338211e-01" nType="-99"/>
          <Node pos="r" depth="2" NCoef="0" IVar="-1" Cut="0.0000000000000000e+00" cType="1" res="2.3976139724254608e-02" rms="3.6575967073440552e-01" purity="7.3902684450149536e-01" nType="-99"/>
        </Node>
        <Node pos="r" depth="1" NCoef="0" IVar="9" Cut="2.6300041503906250e+03" cType="1" res="-4.9051038920879364e-02" rms="3.7845683097839355e-01" purity="3.8428205251693726e-01" nType="0">
          <Node pos="l" depth="2" NCoef="0" IVar="-1" Cut="0.0000000000000000e+00" cType="1" res="-3.1213082373142242e-02" rms="3.5907408595085144e-01" purity="2.6236665248870850e-01" nType="-99"/>
          <Node pos="r" depth="2" NCoef="0" IVar="-1" Cut="0.0000000000000000e+00" cType="1" res="2.1261766552925110e-02" rms="3.8166975975036621e-01" purity="6.7440152168273926e-01" nType="-99"/>
        </Node>
      </Node>
    </BinaryTree>
    <BinaryTree type="DecisionTree" boostWeight="1.0000000000000000e+00" itree="21">
      <Node pos="s" depth="0" NCoef="0" IVar="6" Cut="1.4247027635574341e+00" cType="1" res="9.3728573992848396e-03" rms="3.7135139107704163e-01" purity="4.9592319130897522e-01" nType="0">
        <Node pos="l" depth="1" NCoef="0" IVar="3" Cut="1.0581516113281250e+03" cType="1" res="7.0240952074527740e-02" rms="3.6813172698020935e-01" purity="6.2367027997970581e-01" nType="0">
          <Node pos="l" depth="2" NCoef="0" IVar="-1" Cut="0.0000000000000000e+00" cType="1" res="-9.2494376003742218e-03" rms="3.9846813678741455e-01" purity="4.4666212797164917e-01" nType="-99"/>
          <Node pos="r" depth="2" NCoef="0" IVar="-1" Cut="0.0000000000000000e+00" cType="1" res="2.4068059399724007e-02" rms="3.4899687767028809e-01" purity="6.8595874309539795e-01" nType="-99"/>
        </Node>
        <Node pos="r" depth="1" NCoef="0" IVar="1" Cut="1.2816693115234375e+03" cType="1" res="-5.4548218846321106e-02" rms="3.6390316486358643e-01" purity="3.6176860332489014e-01" nType="0">
          <Node pos="l" depth="2" NCoef="0" IVar="-1" Cut="0.0000000000000000e+00" cType="1" res="-2.9910905286669731e-02" rms="3.5094353556632996e-01" purity="2.8409907221794128e-01" nType="-99"/>
          <Node pos="r" depth="2" NCoef="0" IVar="-1" Cut="0.0000000000000000e+00" cType="1" res="5.9088072739541531e-03" rms="3.6923748254776001e-01" purity="4.8066109418869019e-01" nType="-99"/>
        </Node>
      </Node>
    </BinaryTree>
    <BinaryTree type="DecisionTree" boostWeight="1.0000000000000000e+00" itree="22">
      <Node pos="s" depth="0" NCoef="0" IVar="6" Cut="2.8551898002624512e+00" cType="1" res="1.0522606782615185e-02" rms="3.7433165311813354e-01" purity="4.8798459768295288e-01" nType="0">
        <Node pos="l" depth="1" NCoef="0" IVar="8" Cut="9.9995678663253784e-01" cType="1" res="4.8598986119031906e-02" rms="3.7192514538764954e-01" purity="5.5227202177047729e-01" nType="0">
          <Node pos="l" depth="2" NCoef="0" IVar="-1" Cut="0.0000000000000000e+00" cType="1" res="-2.8895087540149689e-02" rms="2.8677687048912048e-01" purity="1.0949730128049850e-01" nType="-99"/>
          <Node pos="r" depth="2" NCoef="0" IVar="-1" Cut="0.0000000000000000e+00" cType="1" res="1.7313636839389801e-02" rms="3.8522601127624512e-01" purity="6.6943734884262085e-01" nType="-99"/>
        </Node>
        <Node pos="r" depth="1" NCoef="0" IVar="9" Cut="2.0297760009765625e+03" cType="1" res="-1.4054089784622192e-01" rms="3.4449532628059387e-01" purity="2.3293176293373108e-01" nType="0">
          <Node pos="l" depth="2" NCoef="0" IVar="-1" Cut="0.0000000000000000e+00" cType="1" res="-6.2938004732131958e-02" rms="3.0069565773010254e-01" purity="1.2309504300355911e-01" nType="-99"/>
          <Node pos="r" depth="2" NCoef="0" IVar="-1" Cut="0.0000000000000000e+00" cType="1" res="-8.8009787723422050e-03" rms="3.9172077178955078e-01" purity="4.3349847197532654e-01" nType="-99"/>
        </Node>
      </Node>
    </BinaryTree>
    <BinaryTree type="DecisionTree" boostWeight="1.0000000000000000e+00" itree="23">
      <Node pos="s" depth="0" NCoef="0" IVar="7" Cut="2.3813846111297607e+00" cType="1" res="8.3682853728532791e-03" rms="3.6829349398612976e-01" purity="4.9338456988334656e-01" nType="0">
        <Node pos="l" depth="1" NCoef="0" IVar="3" Cut="1.0782332763671875e+03" cType="1" res="8.3096362650394440e-02" rms="3.7734192609786987e-01" purity="7.8202193975448608e-01" nType="0">
          <Node pos="l" depth="2" NCoef="0" IVar="-1" Cut="0.0000000000000000e+00" cType="1" res="-3.1487543601542711e-03" rms="4.5684227347373962e-01" purity="6.3558578491210938e-01" nType="-99"/>
          <Node pos="r" depth="2" NCoef="0" IVar="-1" Cut="0.0000000000000000e+00" cType="1" res="2.3097630590200424e-02" rms="3.4717336297035217e-01" purity="8.2265728712081909e-01" nType="-99"/>
        </Node>
        <Node pos="r" depth="1" NCoef="0" IVar="6" Cut="2.3743796348571777e+00" cType="1" res="-3.9912994951009750e-02" rms="3.5403668880462646e-01" purity="3.0689796805381775e-01" nType="0">
          <Node pos="l" depth="2" NCoef="0" IVar="-1" Cut="0.0000000000000000e+00" cType="1" res="-2.1101166494190693e-03" rms="3.6924105882644653e-01" purity="3.7476900219917297e-01" nType="-99"/>
          <Node pos="r" depth="2" NCoef="0" IVar="-1" Cut="0.0000000000000000e+00" cType="1" res="-3.8677062839269638e-02" rms="3.0452382564544678e-01" purity="1.5291976928710938e-01" nType="-99"/>
        </Node>
      </Node>
    </BinaryTree>
    <BinaryTree type="DecisionTree" boostWeight="1.0000000000000000e+00" itree="24">
      <Node pos="s" depth="0" NCoef="0" IVar="1" Cut="9.4255468750000000e+02" cType="1" res="1.3388186693191528e-02" rms="3.6773914098739624e-01" purity="4.9397543072700500e-01" nType="0">
        <Node pos="l" depth="1" NCoef="0" IVar="1" Cut="3.4104818725585938e+02" cType="1" res="-4.7224868088960648e-02" rms="3.5939219594001770e-01" purity="3.8949373364448547e-01" nType="0">
          <Node pos="l" depth="2" NCoef="0" IVar="-1" Cut="0.0000000000000000e+00" cType="1" res="-4.7230191528797150e-02" rms="3.2528641819953918e-01" purity="2.3682847619056702e-01" nType="-99"/>
          <Node pos="r" depth="2" NCoef="0" IVar="-1" Cut="0.0000000000000000e+00" cType="1" res="5.3584920242428780e-03" rms="3.6391353607177734e-01" purity="4.8839315772056580e-01" nType="-99"/>
        </Node>
        <Node pos="r" depth="1" NCoef="0" IVar="2" Cut="1.1615689697265625e+03" cType="1" res="6.9614082574844360e-02" rms="3.6645972728729248e-01" purity="5.9089469909667969e-01" nType="0">
          <Node pos="l" depth="2" NCoef="0" IVar="-1" Cut="0.0000000000000000e+00" cType="1" res="-2.2797647863626480e-02" rms="3.9025095105171204e-01" purity="3.5503688454627991e-01" nType="-99"/>
          <Node pos="r" depth="2" NCoef="0" IVar="-1" Cut="0.0000000000000000e+00" cType="1" res="2.8063002973794937e-02" rms="3.4166091680526733e-01" purity="6.7441409826278687e-01" nType="-99"/>
        </Node>
      </Node>
    </BinaryTree>
    <BinaryTree type="DecisionTree" boostWeight="1.0000000000000000e+00" itree="25">
      <Node pos="s" depth="0" NCoef="0" IVar="9" Cut="7.4689804687500000e+03" cType="1" res="1.4166533946990967e-02" rms="3.6909264326095581e-01" purity="5.0333398580551147e-01" nType="0">
        <Node pos="l" depth="1" NCoef="0" IVar="9" Cut="7.7138873291015625e+02" cType="1" res="-8.0051608383655548e-03" rms="3.7469139695167542e-01" purity="4.4582927227020264e-01" nType="0">
          <Node pos="l" depth="2" NCoef="0" IVar="-1" Cut="0.0000000000000000e+00" cType="1" res="-2.3600921034812927e-02" rms="3.6235633492469788e-01" purity="2.8016492724418640e-01" nType="-99"/>
          <Node pos="r" depth="2" NCoef="0" IVar="-1" Cut="0.0000000000000000e+00" cType="1" res="9.6171069890260696e-03" rms="3.7483754754066467e-01" purity="5.5332028865814209e-01" nType="-99"/>
        </Node>
        <Node pos="r" depth="1" NCoef="0" IVar="3" Cut="1.6647304687500000e+03" cType="1" res="1.5845745801925659e-01" rms="2.9173573851585388e-01" purity="8.7756854295730591e-01" nType="0">
          <Node pos="l" depth="2" NCoef="0" IVar="-1" Cut="0.0000000000000000e+00" cType="1" res="1.4773112721741199e-02" rms="3.8569343090057373e-01" purity="7.3424375057220459e-01" nType="-99"/>
          <Node pos="r" depth="2" NCoef="0" IVar="-1" Cut="0.0000000000000000e+00" cType="1" res="4.2084854096174240e-02" rms="2.3814268410205841e-01" purity="9.3231958150863647e-01" nType="-99"/>
        </Node>
      </Node>
    </BinaryTree>
    <BinaryTree type="DecisionTree" boostWeight="1.0000000000000000e+00" itree="26">
      <Node pos="s" depth="0" NCoef="0" IVar="7" Cut="9.5215435028076172e+00" cType="1" res="1.6484977677464485e-02" rms="3.6179098486900330e-01" purity="5.0356864929199219e-01" nType="0">
        <Node pos="l" depth="1" NCoef="0" IVar="1" Cut="6.3310546875000000e+02" cType="1" res="4.7738414257764816e-02" rms="3.9434114098548889e-01" purity="6.4738738536834717e-01" nType="0">
          <Node pos="l" depth="2" NCoef="0" IVar="-1" Cut="0.0000000000000000e+00" cType="1" res="-1.2530737556517124e-02" rms="4.0658155083656311e-01" purity="4.8869135975837708e-01" nType="-99"/>
          <Node pos="r" depth="2" NCoef="0" IVar="-1" Cut="0.0000000000000000e+00" cType="1" res="1.9810933619737625e-02" rms="3.8002818822860718e-01" purity="7.1852505207061768e-01" nType="-99"/>
        </Node>
        <Node pos="r" depth="1" NCoef="0" IVar="3" Cut="4.5458862304687500e+03" cType="1" res="-8.0081619322299957e-02" rms="2.0616255700588226e-01" purity="5.9198670089244843e-02" nType="0">
          <Node pos="l" depth="2" NCoef="0" IVar="-1" Cut="0.0000000000000000e+00" cType="1" res="-4.7974787652492523e-02" rms="1.8630868196487427e-01" purity="4.5472070574760437e-02" nType="-99"/>
          <Node pos="r" depth="2" NCoef="0" IVar="-1" Cut="0.0000000000000000e+00" cType="1" res="8.4358742460608482e-03" rms="3.0823177099227905e-01" purity="1.7111873626708984e-01" nType="-99"/>
        </Node>
      </Node>
    </BinaryTree>
    <BinaryTree type="DecisionTree" boostWeight="1.0000000000000000e+00" itree="27">
      <Node pos="s" depth="0" NCoef="0" IVar="3" Cut="1.1458948974609375e+03" cType="1" res="1.9704725593328476e-02" rms="3.5514104366302490e-01" purity="5.1176410913467407e-01" nType="0">
        <Node pos="l" depth="1" NCoef="0" IVar="3" Cut="4.9821734619140625e+02" cType="1" res="-6.9141395390033722e-02" rms="3.6988455057144165e-01" purity="3.3899927139282227e-01" nType="0">
          <Node pos="l" depth="2" NCoef="0" IVar="-1" Cut="0.0000000000000000e+00" cType="1" res="-7.8093968331813812e-02" rms="2.9141947627067566e-01" purity="1.0250700265169144e-01" nType="-99"/>
          <Node pos="r" depth="2" NCoef="0" IVar="-1" Cut="0.0000000000000000e+00" cType="1" res="2.6186218485236168e-02" rms="3.6651572585105896e-01" purity="6.1713230609893799e-01" nType="-99"/>
        </Node>
        <Node pos="r" depth="1" NCoef="0" IVar="2" Cut="1.3763171386718750e+03" cType="1" res="5.6141521781682968e-02" rms="3.4231039881706238e-01" purity="5.8261692523956299e-01" nType="0">
          <Node pos="l" depth="2" NCoef="0" IVar="-1" Cut="0.0000000000000000e+00" cType="1" res="-1.4671810902655125e-02" rms="3.5775980353355408e-01" purity="3.7347558140754700e-01" nType="-99"/>
          <Node pos="r" depth="2" NCoef="0" IVar="-1" Cut="0.0000000000000000e+00" cType="1" res="3.2330051064491272e-02" rms="3.0431842803955078e-01" purity="7.4523848295211792e-01" nType="-99"/>
        </Node>
      </Node>
    </BinaryTree>
    <BinaryTree type="DecisionTree" boostWeight="1.0000000000000000e+00" itree="28">
      <Node pos="s" depth="0" NCoef="0" IVar="9" Cut="3.4642353515625000e+03" cType="1" res="1.0938382707536221e-02" rms="3.5688441991806030e-01" purity="5.0242054462432861e-01" nType="0">
        <Node pos="l" depth="1" NCoef="0" IVar="9" Cut="8.6726751708984375e+02" cType="1" res="-2.2896789014339447e-02" rms="3.5707554221153259e-01" purity="3.9024087786674500e-01" nType="0">
          <Node pos="l" depth="2" NCoef="0" IVar="-1" Cut="0.0000000000000000e+00" cType="1" res="-2.5904269888997078e-02" rms="3.4140068292617798e-01" purity="2.6264920830726624e-01" nType="-99"/>
          <Node pos="r" depth="2" NCoef="0" IVar="-1" Cut="0.0000000000000000e+00" cType="1" res="8.9338924735784531e-03" rms="3.6182463169097900e-01" purity="5.1140302419662476e-01" nType="-99"/>
        </Node>
        <Node pos="r" depth="1" NCoef="0" IVar="3" Cut="3.2376958007812500e+03" cType="1" res="9.4981625676155090e-02" rms="3.4222888946533203e-01" purity="7.8106367588043213e-01" nType="0">
          <Node pos="l" depth="2" NCoef="0" IVar="-1" Cut="0.0000000000000000e+00" cType="1" res="1.1881102807819843e-02" rms="3.7316778302192688e-01" purity="7.1473711729049683e-01" nType="-99"/>
          <Node pos="r" depth="2" NCoef="0" IVar="-1" Cut="0.0000000000000000e+00" cType="1" res="4.0296733379364014e-02" rms="2.5725391507148743e-01" purity="9.0428233146667480e-01" nType="-99"/>
        </Node>
      </Node>
    </BinaryTree>
    <BinaryTree type="DecisionTree" boostWeight="1.0000000000000000e+00" itree="29">
      <Node pos="s" depth="0" NCoef="0" IVar="6" Cut="9.3492621183395386e-01" cType="1" res="1.1173796840012074e-02" rms="3.6282595992088318e-01" purity="5.0676220655441284e-01" nType="0">
        <Node pos="l" depth="1" NCoef="0" IVar="2" Cut="1.0277874755859375e+03" cType="1" res="6.9599494338035583e-02" rms="3.5849782824516296e-01" purity="6.5770739316940308e-01" nType="0">
          <Node pos="l" depth="2" NCoef="0" IVar="-1" Cut="0.0000000000000000e+00" cType="1" res="-2.3995801806449890e-02" rms="4.0362352132797241e-01" purity="3.9807826280593872e-01" nType="-99"/>
          <Node pos="r" depth="2" NCoef="0" IVar="-1" Cut="0.0000000000000000e+00" cType="1" res="2.7688898146152496e-02" rms="3.2777068018913269e-01" purity="7.3792004585266113e-01" nType="-99"/>
        </Node>
        <Node pos="r" depth="1" NCoef="0" IVar="9" Cut="5.0033300781250000e+03" cType="1" res="-1.9568862393498421e-02" rms="3.6130893230438232e-01" purity="4.2733725905418396e-01" nType="0">
          <Node pos="l" depth="2" NCoef="0" IVar="-1" Cut="0.0000000000000000e+00" cType="1" res="-1.2819406576454639e-02" rms="3.6132764816284180e-01" purity="3.4236723184585571e-01" nType="-99"/>
          <Node pos="r" depth="2" NCoef="0" IVar="-1" Cut="0.0000000000000000e+00" cType="1" res="2.0322760567069054e-02" rms="3.4021168947219849e-01" purity="7.8955882787704468e-01" nType="-99"/>
        </Node>
      </Node>
    </BinaryTree>
    <BinaryTree type="DecisionTree" boostWeight="1.0000000000000000e+00" itree="30">
      <Node pos="s" depth="0" NCoef="0" IVar="1" Cut="8.6539160156250000e+02" cType="1" res="1.7316319048404694e-02" rms="3.5673218965530396e-01" purity="5.0202637910842896e-01" nType="0">
        <Node pos="l" depth="1" NCoef="0" IVar="9" Cut="5.0039697265625000e+03" cType="1" res="-4.1961424052715302e-02" rms="3.5168901085853577e-01" purity="3.7637192010879517e-01" nType="0">
          <Node pos="l" depth="2" NCoef="0" IVar="-1" Cut="0.0000000000000000e+00" cType="1" res="-2.1929685026407242e-02" rms="3.4488505125045776e-01" purity="2.8710541129112244e-01" nType="-99"/>
          <Node pos="r" depth="2" NCoef="0" IVar="-1" Cut="0.0000000000000000e+00" cType="1" res="2.3184902966022491e-02" rms="3.4795609116554260e-01" purity="8.0834478139877319e-01" nType="-99"/>
        </Node>
        <Node pos="r" depth="1" NCoef="0" IVar="2" Cut="3.2779379882812500e+03" cType="1" res="6.4837627112865448e-02" rms="3.5361951589584351e-01" purity="6.0276007652282715e-01" nType="0">
          <Node pos="l" depth="2" NCoef="0" IVar="-1" Cut="0.0000000000000000e+00" cType="1" res="7.1107484400272369e-03" rms="3.6048036813735962e-01" purity="5.2971780300140381e-01" nType="-99"/>
          <Node pos="r" depth="2" NCoef="0" IVar="-1" Cut="0.0000000000000000e+00" cType="1" res="3.8695201277732849e-02" rms="3.1077644228935242e-01" purity="8.0491948127746582e-01" nType="-99"/>
        </Node>
      </Node>
    </BinaryTree>
    <BinaryTree type="DecisionTree" boostWeight="1.0000000000000000e+00" itree="31">
      <Node pos="s" depth="0" NCoef="0" IVar="3" Cut="1.0550261230468750e+03" cType="1" res="-4.2378832586109638e-03" rms="3.5642927885055542e-01" purity="4.9073302745819092e-01" nType="0">
        <Node pos="l" depth="1" NCoef="0" IVar="3" Cut="4.6414855957031250e+02" cType="1" res="-9.4214670360088348e-02" rms="3.5976639389991760e-01" purity="3.0209165811538696e-01" nType="0">
          <Node pos="l" depth="2" NCoef="0" IVar="-1" Cut="0.0000000000000000e+00" cType="1" res="-7.2801291942596436e-02" rms="2.9338896274566650e-01" purity="1.1478431522846222e-01" nType="-99"/>
          <Node pos="r" depth="2" NCoef="0" IVar="-1" Cut="0.0000000000000000e+00" cType="1" res="1.3684207573533058e-02" rms="3.8132831454277039e-01" purity="5.4685634374618530e-01" nType="-99"/>
        </Node>
        <Node pos="r" depth="1" NCoef="0" IVar="2" Cut="1.5531136474609375e+03" cType="1" res="3.0409365892410278e-02" rms="3.4900376200675964e-01" purity="5.6337285041809082e-01" nType="0">
          <Node pos="l" depth="2" NCoef="0" IVar="-1" Cut="0.0000000000000000e+00" cType="1" res="-2.0498387515544891e-02" rms="3.6720758676528931e-01" purity="3.5743471980094910e-01" nType="-99"/>
          <Node pos="r" depth="2" NCoef="0" IVar="-1" Cut="0.0000000000000000e+00" cType="1" res="2.7505891397595406e-02" rms="3.1043180823326111e-01" purity="7.3053616285324097e-01" nType="-99"/>
        </Node>
      </Node>
    </BinaryTree>
    <BinaryTree type="DecisionTree" boostWeight="1.0000000000000000e+00" itree="32">
      <Node pos="s" depth="0" NCoef="0" IVar="6" Cut="4.7413930892944336e+00" cType="1" res="9.5942998304963112e-03" rms="3.4889063239097595e-01" purity="4.9849569797515869e-01" nType="0">
        <Node pos="l" depth="1" NCoef="0" IVar="3" Cut="9.6517285156250000e+02" cType="1" res="2.1453209221363068e-02" rms="3.5001245141029358e-01" purity="5.2214854955673218e-01" nType="0">
          <Node pos="l" depth="2" NCoef="0" IVar="-1" Cut="0.0000000000000000e+00" cType="1" res="-1.9722703844308853e-02" rms="3.4589827060699463e-01" purity="3.0074557662010193e-01" nType="-99"/>
          <Node pos="r" depth="2" NCoef="0" IVar="-1" Cut="0.0000000000000000e+00" cType="1" res="1.2842244468629360e-02" rms="3.4667971730232239e-01" purity="5.9359109401702881e-01" nType="-99"/>
        </Node>
        <Node pos="r" depth="1" NCoef="0" IVar="7" Cut="5.9747505187988281e+00" cType="1" res="-1.6300389170646667e-01" rms="2.8013652563095093e-01" purity="1.5424455702304840e-01" nType="0">
          <Node pos="l" depth="2" NCoef="0" IVar="-1" Cut="0.0000000000000000e+00" cType="1" res="-6.3106641173362732e-02" rms="3.6628556251525879e-01" purity="2.9254260659217834e-01" nType="-99"/>
          <Node pos="r" depth="2" NCoef="0" IVar="-1" Cut="0.0000000000000000e+00" cType="1" res="-5.1284536719322205e-02" rms="1.6562005877494812e-01" purity="5.1664061844348907e-02" nType="-99"/>
        </Node>
      </Node>
    </BinaryTree>
    <BinaryTree type="DecisionTree" boostWeight="1.0000000000000000e+00" itree="33">
      <Node pos="s" depth="0" NCoef="0" IVar="6" Cut="2.7872011661529541e+00" cType="1" res="2.0896278321743011e-02" rms="3.5267597436904907e-01" purity="4.9864479899406433e-01" nType="0">
        <Node pos="l" depth="1" NCoef="0" IVar="2" Cut="1.0260567626953125e+03" cType="1" res="4.4737190008163452e-02" rms="3.5195502638816833e-01" purity="5.5781841278076172e-01" nType="0">
          <Node pos="l" depth="2" NCoef="0" IVar="-1" Cut="0.0000000000000000e+00" cType="1" res="-1.2724429368972778e-02" rms="3.7849599123001099e-01" purity="3.6000442504882812e-01" nType="-99"/>
          <Node pos="r" depth="2" NCoef="0" IVar="-1" Cut="0.0000000000000000e+00" cType="1" res="1.9884282723069191e-02" rms="3.3545473217964172e-01" purity="6.3155162334442139e-01" nType="-99"/>
        </Node>
        <Node pos="r" depth="1" NCoef="0" IVar="3" Cut="3.1012905273437500e+03" cType="1" res="-6.9748990237712860e-02" rms="3.4049117565155029e-01" purity="2.7366134524345398e-01" nType="0">
          <Node pos="l" depth="2" NCoef="0" IVar="-1" Cut="0.0000000000000000e+00" cType="1" res="-3.1717129051685333e-02" rms="3.2858532667160034e-01" purity="2.2723110020160675e-01" nType="-99"/>
          <Node pos="r" depth="2" NCoef="0" IVar="-1" Cut="0.0000000000000000e+00" cType="1" res="-3.6706562968902290e-04" rms="3.5749733448028564e-01" purity="3.8190245628356934e-01" nType="-99"/>
        </Node>
      </Node>
    </BinaryTree>
    <BinaryTree type="DecisionTree" boostWeight="1.0000000000000000e+00" itree="34">
      <Node pos="s" depth="0" NCoef="0" IVar="3" Cut="1.0706556396484375e+03" cType="1" res="1.4622448943555355e-02" rms="3.4960800409317017e-01" purity="5.1274460554122925e-01" nType="0">
        <Node pos="l" depth="1" NCoef="0" IVar="3" Cut="5.6206286621093750e+02" cType="1" res="-6.8593949079513550e-02" rms="3.5716792941093445e-01" purity="3.1240257620811462e-01" nType="0">
          <Node pos="l" depth="2" NCoef="0" IVar="-1" Cut="0.0000000000000000e+00" cType="1" res="-5.4186813533306122e-02" rms="3.1873348355293274e-01" purity="1.4999769628047943e-01" nType="-99"/>
          <Node pos="r" depth="2" NCoef="0" IVar="-1" Cut="0.0000000000000000e+00" cType="1" res="2.0788680762052536e-02" rms="3.6494642496109009e-01" purity="5.8509993553161621e-01" nType="-99"/>
        </Node>
        <Node pos="r" depth="1" NCoef="0" IVar="2" Cut="1.4176488037109375e+03" cType="1" res="4.3818309903144836e-02" rms="3.4215372800827026e-01" purity="5.8303314447402954e-01" nType="0">
          <Node pos="l" depth="2" NCoef="0" IVar="-1" Cut="0.0000000000000000e+00" cType="1" res="-6.3714641146361828e-03" rms="3.7644830346107483e-01" purity="4.0499502420425415e-01" nType="-99"/>
          <Node pos="r" depth="2" NCoef="0" IVar="-1" Cut="0.0000000000000000e+00" cType="1" res="2.3815756663680077e-02" rms="3.0298492312431335e-01" purity="7.2137743234634399e-01" nType="-99"/>
        </Node>
      </Node>
    </BinaryTree>
    <BinaryTree type="DecisionTree" boostWeight="1.0000000000000000e+00" itree="35">
      <Node pos="s" depth="0" NCoef="0" IVar="9" Cut="6.1015463867187500e+03" cType="1" res="9.0697333216667175e-03" rms="3.5136863589286804e-01" purity="5.0337338447570801e-01" nType="0">
        <Node pos="l" depth="1" NCoef="0" IVar="6" Cut="4.2856426239013672e+00" cType="1" res="-9.0937810018658638e-03" rms="3.5665568709373474e-01" purity="4.3609437346458435e-01" nType="0">
          <Node pos="l" depth="2" NCoef="0" IVar="-1" Cut="0.0000000000000000e+00" cType="1" res="1.1883558472618461e-03" rms="3.6038458347320557e-01" purity="4.6419584751129150e-01" nType="-99"/>
          <Node pos="r" depth="2" NCoef="0" IVar="-1" Cut="0.0000000000000000e+00" cType="1" res="-6.3031159341335297e-02" rms="2.6209616661071777e-01" purity="1.0669139027595520e-01" nType="-99"/>
        </Node>
        <Node pos="r" depth="1" NCoef="0" IVar="2" Cut="1.0996542968750000e+03" cType="1" res="1.0130668431520462e-01" rms="3.0703029036521912e-01" purity="8.4502577781677246e-01" nType="0">
          <Node pos="l" depth="2" NCoef="0" IVar="-1" Cut="0.0000000000000000e+00" cType="1" res="-2.1722763776779175e-03" rms="4.3488973379135132e-01" purity="6.5018862485885620e-01" nType="-99"/>
          <Node pos="r" depth="2" NCoef="0" IVar="-1" Cut="0.0000000000000000e+00" cType="1" res="3.3260792493820190e-02" rms="2.5827974081039429e-01" purity="8.9371925592422485e-01" nType="-99"/>
        </Node>
      </Node>
    </BinaryTree>
    <BinaryTree type="DecisionTree" boostWeight="1.0000000000000000e+00" itree="36">
      <Node pos="s" depth="0" NCoef="0" IVar="1" Cut="1.5991771240234375e+03" cType="1" res="8.5525223985314369e-03" rms="3.4547775983810425e-01" purity="5.0726914405822754e-01" nType="0">
        <Node pos="l" depth="1" NCoef="0" IVar="1" Cut="3.1429028320312500e+02" cType="1" res="-2.5740269571542740e-02" rms="3.5006621479988098e-01" purity="4.4549304246902466e-01" nType="0">
          <Node pos="l" depth="2" NCoef="0" IVar="-1" Cut="0.0000000000000000e+00" cType="1" res="-4.5518673956394196e-02" rms="3.1452727317810059e-01" purity="2.3308335244655609e-01" nType="-99"/>
          <Node pos="r" depth="2" NCoef="0" IVar="-1" Cut="0.0000000000000000e+00" cType="1" res="3.5626702010631561e-03" rms="3.5331726074218750e-01" purity="5.1894068717956543e-01" nType="-99"/>
        </Node>
        <Node pos="r" depth="1" NCoef="0" IVar="3" Cut="1.1335440673828125e+03" cType="1" res="6.7377664148807526e-02" rms="3.2924556732177734e-01" purity="6.1323845386505127e-01" nType="0">
          <Node pos="l" depth="2" NCoef="0" IVar="-1" Cut="0.0000000000000000e+00" cType="1" res="-7.6143313199281693e-03" rms="3.5375005006790161e-01" purity="3.9130097627639771e-01" nType="-99"/>
          <Node pos="r" depth="2" NCoef="0" IVar="-1" Cut="0.0000000000000000e+00" cType="1" res="2.8210896998643875e-02" rms="3.0769231915473938e-01" purity="7.1582543849945068e-01" nType="-99"/>
        </Node>
      </Node>
    </BinaryTree>
    <BinaryTree type="DecisionTree" boostWeight="1.0000000000000000e+00" itree="37">
      <Node pos="s" depth="0" NCoef="0" IVar="8" Cut="9.9995678663253784e-01" cType="1" res="1.4276145957410336e-02" rms="3.4080797433853149e-01" purity="5.0810450315475464e-01" nType="0">
        <Node pos="l" depth="1" NCoef="0" IVar="6" Cut="4.9722769856452942e-01" cType="1" res="-7.0443265140056610e-02" rms="2.2897575795650482e-01" purity="7.4014112353324890e-02" nType="0">
          <Node pos="l" depth="2" NCoef="0" IVar="-1" Cut="0.0000000000000000e+00" cType="1" res="2.2092757746577263e-02" rms="3.7354642152786255e-01" purity="2.5540596246719360e-01" nType="-99"/>
          <Node pos="r" depth="2" NCoef="0" IVar="-1" Cut="0.0000000000000000e+00" cType="1" res="-4.8827245831489563e-02" rms="1.9098797440528870e-01" purity="4.6995125710964203e-02" nType="-99"/>
        </Node>
        <Node pos="r" depth="1" NCoef="0" IVar="8" Cut="9.9997746944427490e-01" cType="1" res="3.4568142145872116e-02" rms="3.5955730080604553e-01" purity="6.1207783222198486e-01" nType="0">
          <Node pos="l" depth="2" NCoef="0" IVar="-1" Cut="0.0000000000000000e+00" cType="1" res="-3.8759112358093262e-02" rms="3.2450804114341736e-01" purity="1.8395918607711792e-01" nType="-99"/>
          <Node pos="r" depth="2" NCoef="0" IVar="-1" Cut="0.0000000000000000e+00" cType="1" res="1.2857862748205662e-02" rms="3.5889068245887756e-01" purity="6.6040909290313721e-01" nType="-99"/>
        </Node>
      </Node>
    </BinaryTree>
    <BinaryTree type="DecisionTree" boostWeight="1.0000000000000000e+00" itree="38">
      <Node pos="s" depth="0" NCoef="0" IVar="6" Cut="9.6920102834701538e-01" cType="1" res="9.9469050765037537e-03" rms="3.4668385982513428e-01" purity="5.1024007797241211e-01" nType="0">
        <Node pos="l" depth="1" NCoef="0" IVar="2" Cut="1.0260567626953125e+03" cType="1" res="6.0701586306095123e-02" rms="3.4222170710563660e-01" purity="6.6111844778060913e-01" nType="0">
          <Node pos="l" depth="2" NCoef="0" IVar="-1" Cut="0.0000000000000000e+00" cType="1" res="-1.9594131037592888e-02" rms="4.2385819554328918e-01" purity="3.9910772442817688e-01" nType="-99"/>
          <Node pos="r" depth="2" NCoef="0" IVar="-1" Cut="0.0000000000000000e+00" cType="1" res="2.6166766881942749e-02" rms="3.0252924561500549e-01" purity="7.3937982320785522e-01" nType="-99"/>
        </Node>
        <Node pos="r" depth="1" NCoef="0" IVar="1" Cut="1.2822846679687500e+03" cType="1" res="-1.9828246906399727e-02" rms="3.4582549333572388e-01" purity="4.2172747850418091e-01" nType="0">
          <Node pos="l" depth="2" NCoef="0" IVar="-1" Cut="0.0000000000000000e+00" cType="1" res="-1.8215388059616089e-02" rms="3.4296533465385437e-01" purity="3.4654325246810913e-01" nType="-99"/>
          <Node pos="r" depth="2" NCoef="0" IVar="-1" Cut="0.0000000000000000e+00" cType="1" res="9.9015533924102783e-03" rms="3.4195175766944885e-01" purity="5.2393841743469238e-01" nType="-99"/>
        </Node>
      </Node>
    </BinaryTree>
    <BinaryTree type="DecisionTree" boostWeight="1.0000000000000000e+00" itree="39">
      <Node pos="s" depth="0" NCoef="0" IVar="6" Cut="1.9014749526977539e+00" cType="1" res="1.6105665126815438e-03" rms="3.4288993477821350e-01" purity="4.8873847723007202e-01" nType="0">
        <Node pos="l" depth="1" NCoef="0" IVar="3" Cut="3.6219858398437500e+03" cType="1" res="2.8799857944250107e-02" rms="3.4971600770950317e-01" purity="5.8761173486709595e-01" nType="0">
          <Node pos="l" depth="2" NCoef="0" IVar="-1" Cut="0.0000000000000000e+00" cType="1" res="1.6602709365542978e-04" rms="3.5979661345481873e-01" purity="5.2418726682662964e-01" nType="-99"/>
          <Node pos="r" depth="2" NCoef="0" IVar="-1" Cut="0.0000000000000000e+00" cType="1" res="2.8815856203436852e-02" rms="3.0256304144859314e-01" purity="7.7669858932495117e-01" nType="-99"/>
        </Node>
        <Node pos="r" depth="1" NCoef="0" IVar="7" Cut="1.1910281181335449e+00" cType="1" res="-4.6478152275085449e-02" rms="3.2494866847991943e-01" purity="3.1386491656303406e-01" nType="0">
          <Node pos="l" depth="2" NCoef="0" IVar="-1" Cut="0.0000000000000000e+00" cType="1" res="1.2160152196884155e-02" rms="3.7923204898834229e-01" purity="7.2189372777938843e-01" nType="-99"/>
          <Node pos="r" depth="2" NCoef="0" IVar="-1" Cut="0.0000000000000000e+00" cType="1" res="-2.3002810776233673e-02" rms="3.1019201874732971e-01" purity="2.3874251544475555e-01" nType="-99"/>
        </Node>
      </Node>
    </BinaryTree>
    <BinaryTree type="DecisionTree" boostWeight="1.0000000000000000e+00" itree="40">
      <Node pos="s" depth="0" NCoef="0" IVar="0" Cut="1.3748989257812500e+03" cType="1" res="3.8704117760062218e-03" rms="3.3747908473014832e-01" purity="4.9502894282341003e-01" nType="0">
        <Node pos="l" depth="1" NCoef="0" IVar="1" Cut="2.6925872802734375e+02" cType="1" res="-5.5903721600770950e-02" rms="3.3082795143127441e-01" purity="4.1912892460823059e-01" nType="0">
          <Node pos="l" depth="2" NCoef="0" IVar="-1" Cut="0.0000000000000000e+00" cType="1" res="-7.4322342872619629e-02" rms="2.6510563492774963e-01" purity="1.1226972937583923e-01" nType="-99"/>
          <Node pos="r" depth="2" NCoef="0" IVar="-1" Cut="0.0000000000000000e+00" cType="1" res="-8.9968936517834663e-03" rms="3.3474060893058777e-01" purity="4.7166568040847778e-01" nType="-99"/>
        </Node>
        <Node pos="r" depth="1" NCoef="0" IVar="3" Cut="3.1994729003906250e+03" cType="1" res="3.0004112049937248e-02" rms="3.3703178167343140e-01" purity="5.2821302413940430e-01" nType="0">
          <Node pos="l" depth="2" NCoef="0" IVar="-1" Cut="0.0000000000000000e+00" cType="1" res="-3.0820812098681927e-03" rms="3.4431672096252441e-01" purity="4.3265992403030396e-01" nType="-99"/>
          <Node pos="r" depth="2" NCoef="0" IVar="-1" Cut="0.0000000000000000e+00" cType="1" res="3.4024309366941452e-02" rms="2.9219031333923340e-01" purity="7.7643704414367676e-01" nType="-99"/>
        </Node>
      </Node>
    </BinaryTree>
    <BinaryTree type="DecisionTree" boostWeight="1.0000000000000000e+00" itree="41">
      <Node pos="s" depth="0" NCoef="0" IVar="8" Cut="9.9995285272598267e-01" cType="1" res="-7.1308619226329029e-05" rms="3.3905103802680969e-01" purity="4.9394384026527405e-01" nType="0">
        <Node pos="l" depth="1" NCoef="0" IVar="1" Cut="1.0116088867187500e+03" cType="1" res="-7.3671862483024597e-02" rms="2.1166530251502991e-01" purity="5.9364527463912964e-02" nType="0">
          <Node pos="l" depth="2" NCoef="0" IVar="-1" Cut="0.0000000000000000e+00" cType="1" res="-6.5515384078025818e-02" rms="1.3705432415008545e-01" purity="1.6705373302102089e-02" nType="-99"/>
          <Node pos="r" depth="2" NCoef="0" IVar="-1" Cut="0.0000000000000000e+00" cType="1" res="-7.8841214999556541e-03" rms="2.8374642133712769e-01" purity="1.2684832513332367e-01" nType="-99"/>
        </Node>
        <Node pos="r" depth="1" NCoef="0" IVar="8" Cut="9.9999326467514038e-01" cType="1" res="1.6911929473280907e-02" rms="3.6000695824623108e-01" purity="5.9422254562377930e-01" nType="0">
          <Node pos="l" depth="2" NCoef="0" IVar="-1" Cut="0.0000000000000000e+00" cType="1" res="-2.5584418326616287e-02" rms="3.6383336782455444e-01" purity="2.6418131589889526e-01" nType="-99"/>
          <Node pos="r" depth="2" NCoef="0" IVar="-1" Cut="0.0000000000000000e+00" cType="1" res="1.4498913660645485e-02" rms="3.4971195459365845e-01" purity="7.2997492551803589e-01" nType="-99"/>
        </Node>
      </Node>
    </BinaryTree>
    <BinaryTree type="DecisionTree" boostWeight="1.0000000000000000e+00" itree="42">
      <Node pos="s" depth="0" NCoef="0" IVar="4" Cut="3.3292090892791748e+00" cType="1" res="1.3971998356282711e-02" rms="3.3663433790206909e-01" purity="5.0199085474014282e-01" nType="0">
        <Node pos="l" depth="1" NCoef="0" IVar="7" Cut="4.7629847526550293e+00" cType="1" res="2.9093017801642418e-02" rms="3.3270147442817688e-01" purity="5.2695137262344360e-01" nType="0">
          <Node pos="l" depth="2" NCoef="0" IVar="-1" Cut="0.0000000000000000e+00" cType="1" res="1.4293425716459751e-02" rms="3.4499654173851013e-01" purity="7.6319909095764160e-01" nType="-99"/>
          <Node pos="r" depth="2" NCoef="0" IVar="-1" Cut="0.0000000000000000e+00" cType="1" res="-5.5332854390144348e-03" rms="3.0984956026077271e-01" purity="2.0019662380218506e-01" nType="-99"/>
        </Node>
        <Node pos="r" depth="1" NCoef="0" IVar="2" Cut="8.3300775146484375e+02" cType="1" res="-7.0275083184242249e-02" rms="3.4585788846015930e-01" purity="3.6292284727096558e-01" nType="0">
          <Node pos="l" depth="2" NCoef="0" IVar="-1" Cut="0.0000000000000000e+00" cType="1" res="-7.6395243406295776e-02" rms="3.1460806727409363e-01" purity="1.3065093755722046e-01" nType="-99"/>
          <Node pos="r" depth="2" NCoef="0" IVar="-1" Cut="0.0000000000000000e+00" cType="1" res="-1.8605317454785109e-03" rms="3.3957552909851074e-01" purity="4.6558594703674316e-01" nType="-99"/>
        </Node>
      </Node>
    </BinaryTree>
    <BinaryTree type="DecisionTree" boostWeight="1.0000000000000000e+00" itree="43">
      <Node pos="s" depth="0" NCoef="0" IVar="2" Cut="1.0891579589843750e+03" cType="1" res="1.4565899036824703e-02" rms="3.3193317055702209e-01" purity="5.1915848255157471e-01" nType="0">
        <Node pos="l" depth="1" NCoef="0" IVar="2" Cut="4.7672817993164062e+02" cType="1" res="-6.3815429806709290e-02" rms="3.4428930282592773e-01" purity="3.2065665721893311e-01" nType="0">
          <Node pos="l" depth="2" NCoef="0" IVar="-1" Cut="0.0000000000000000e+00" cType="1" res="-7.3007598519325256e-02" rms="2.9657521843910217e-01" purity="9.3268066644668579e-02" nType="-99"/>
          <Node pos="r" depth="2" NCoef="0" IVar="-1" Cut="0.0000000000000000e+00" cType="1" res="2.1603984758257866e-02" rms="3.3722534775733948e-01" purity="5.9328168630599976e-01" nType="-99"/>
        </Node>
        <Node pos="r" depth="1" NCoef="0" IVar="3" Cut="1.2310720214843750e+03" cType="1" res="4.3976526707410812e-02" rms="3.2229524850845337e-01" purity="5.9364134073257446e-01" nType="0">
          <Node pos="l" depth="2" NCoef="0" IVar="-1" Cut="0.0000000000000000e+00" cType="1" res="-1.2784749269485474e-02" rms="3.4934207797050476e-01" purity="3.4809985756874084e-01" nType="-99"/>
          <Node pos="r" depth="2" NCoef="0" IVar="-1" Cut="0.0000000000000000e+00" cType="1" res="2.5909028947353363e-02" rms="2.9282793402671814e-01" purity="7.4165654182434082e-01" nType="-99"/>
        </Node>
      </Node>
    </BinaryTree>
    <BinaryTree type="DecisionTree" boostWeight="1.0000000000000000e+00" itree="44">
      <Node pos="s" depth="0" NCoef="0" IVar="8" Cut="9.9995428323745728e-01" cType="1" res="1.7424326390028000e-02" rms="3.3039015531539917e-01" purity="5.1911157369613647e-01" nType="0">
        <Node pos="l" depth="1" NCoef="0" IVar="0" Cut="1.4767783203125000e+03" cType="1" res="-4.6941302716732025e-02" rms="2.3715236783027649e-01" purity="7.2728075087070465e-02" nType="0">
          <Node pos="l" depth="2" NCoef="0" IVar="-1" Cut="0.0000000000000000e+00" cType="1" res="-5.0912551581859589e-02" rms="1.9544279575347900e-01" purity="4.6218439936637878e-02" nType="-99"/>
          <Node pos="r" depth="2" NCoef="0" IVar="-1" Cut="0.0000000000000000e+00" cType="1" res="-2.6799105107784271e-03" rms="2.6108071208000183e-01" purity="9.6031606197357178e-02" nType="-99"/>
        </Node>
        <Node pos="r" depth="1" NCoef="0" IVar="8" Cut="9.9999564886093140e-01" cType="1" res="3.2508697360754013e-02" rms="3.4692996740341187e-01" purity="6.2372344732284546e-01" nType="0">
          <Node pos="l" depth="2" NCoef="0" IVar="-1" Cut="0.0000000000000000e+00" cType="1" res="-9.1597428545355797e-03" rms="3.7153261899948120e-01" purity="3.5238078236579895e-01" nType="-99"/>
          <Node pos="r" depth="2" NCoef="0" IVar="-1" Cut="0.0000000000000000e+00" cType="1" res="1.6826437786221504e-02" rms="3.2732856273651123e-01" purity="7.7258950471878052e-01" nType="-99"/>
        </Node>
      </Node>
    </BinaryTree>
    <BinaryTree type="DecisionTree" boostWeight="1.0000000000000000e+00" itree="45">
      <Node pos="s" depth="0" NCoef="0" IVar="9" Cut="7.4623227539062500e+03" cType="1" res="-1.0647972812876105e-03" rms="3.3152011036872864e-01" purity="4.8859953880310059e-01" nType="0">
        <Node pos="l" depth="1" NCoef="0" IVar="9" Cut="7.6446423339843750e+02" cType="1" res="-1.6020482406020164e-02" rms="3.3888524770736694e-01" purity="4.2384806275367737e-01" nType="0">
          <Node pos="l" depth="2" NCoef="0" IVar="-1" Cut="0.0000000000000000e+00" cType="1" res="-2.3640975356101990e-02" rms="3.2285806536674500e-01" purity="2.5445798039436340e-01" nType="-99"/>
          <Node pos="r" depth="2" NCoef="0" IVar="-1" Cut="0.0000000000000000e+00" cType="1" res="5.1548955962061882e-03" rms="3.4454831480979919e-01" purity="5.3372901678085327e-01" nType="-99"/>
        </Node>
        <Node pos="r" depth="1" NCoef="0" IVar="3" Cut="1.9873663330078125e+03" cType="1" res="9.0376920998096466e-02" rms="2.6455014944076538e-01" purity="8.8450181484222412e-01" nType="0">
          <Node pos="l" depth="2" NCoef="0" IVar="-1" Cut="0.0000000000000000e+00" cType="1" res="1.1627361178398132e-02" rms="3.3580183982849121e-01" purity="7.8774702548980713e-01" nType="-99"/>
          <Node pos="r" depth="2" NCoef="0" IVar="-1" Cut="0.0000000000000000e+00" cType="1" res="3.6619525402784348e-02" rms="2.0624199509620667e-01" purity="9.4209378957748413e-01" nType="-99"/>
        </Node>
      </Node>
    </BinaryTree>
    <BinaryTree type="DecisionTree" boostWeight="1.0000000000000000e+00" itree="46">
      <Node pos="s" depth="0" NCoef="0" IVar="4" Cut="5.7038402557373047e+00" cType="1" res="1.5648970380425453e-02" rms="3.2903921604156494e-01" purity="5.1509475708007812e-01" nType="0">
        <Node pos="l" depth="1" NCoef="0" IVar="6" Cut="2.8490860462188721e+00" cType="1" res="2.3172877728939056e-02" rms="3.2523745298385620e-01" purity="5.2543050050735474e-01" nType="0">
          <Node pos="l" depth="2" NCoef="0" IVar="-1" Cut="0.0000000000000000e+00" cType="1" res="1.1246875859797001e-02" rms="3.2489019632339478e-01" purity="5.8034670352935791e-01" nType="-99"/>
          <Node pos="r" depth="2" NCoef="0" IVar="-1" Cut="0.0000000000000000e+00" cType="1" res="-1.6524571925401688e-02" rms="3.1733578443527222e-01" purity="2.7801686525344849e-01" nType="-99"/>
        </Node>
        <Node pos="r" depth="1" NCoef="0" IVar="7" Cut="4.7596311569213867e+00" cType="1" res="-1.1523427069187164e-01" rms="3.6526924371719360e-01" purity="3.3529728651046753e-01" nType="0">
          <Node pos="l" depth="2" NCoef="0" IVar="-1" Cut="0.0000000000000000e+00" cType="1" res="-4.5413084328174591e-02" rms="3.9819452166557312e-01" purity="4.7734788060188293e-01" nType="-99"/>
          <Node pos="r" depth="2" NCoef="0" IVar="-1" Cut="0.0000000000000000e+00" cType="1" res="-1.8829528242349625e-02" rms="3.1013867259025574e-01" purity="1.7262490093708038e-01" nType="-99"/>
        </Node>
      </Node>
    </BinaryTree>
    <BinaryTree type="DecisionTree" boostWeight="1.0000000000000000e+00" itree="47">
      <Node pos="s" depth="0" NCoef="0" IVar="6" Cut="2.8592772483825684e+00" cType="1" res="1.0898890905082226e-02" rms="3.3472082018852234e-01" purity="5.0545036792755127e-01" nType="0">
        <Node pos="l" depth="1" NCoef="0" IVar="0" Cut="1.4931876220703125e+03" cType="1" res="2.6135656982660294e-02" rms="3.3929473161697388e-01" purity="5.6211191415786743e-01" nType="0">
          <Node pos="l" depth="2" NCoef="0" IVar="-1" Cut="0.0000000000000000e+00" cType="1" res="-5.6948880665004253e-03" rms="3.3467057347297668e-01" purity="4.8595759272575378e-01" nType="-99"/>
          <Node pos="r" depth="2" NCoef="0" IVar="-1" Cut="0.0000000000000000e+00" cType="1" res="1.3833165168762207e-02" rms="3.3934202790260315e-01" purity="6.0063236951828003e-01" nType="-99"/>
        </Node>
        <Node pos="r" depth="1" NCoef="0" IVar="2" Cut="8.3774261474609375e+02" cType="1" res="-5.4372325539588928e-02" rms="3.0590316653251648e-01" purity="2.6272389292716980e-01" nType="0">
          <Node pos="l" depth="2" NCoef="0" IVar="-1" Cut="0.0000000000000000e+00" cType="1" res="-6.9566443562507629e-02" rms="2.2146369516849518e-01" purity="5.5417980998754501e-02" nType="-99"/>
          <Node pos="r" depth="2" NCoef="0" IVar="-1" Cut="0.0000000000000000e+00" cType="1" res="-8.3754528313875198e-03" rms="3.2420355081558228e-01" purity="3.3164691925048828e-01" nType="-99"/>
        </Node>
      </Node>
    </BinaryTree>
    <BinaryTree type="DecisionTree" boostWeight="1.0000000000000000e+00" itree="48">
      <Node pos="s" depth="0" NCoef="0" IVar="3" Cut="1.0706556396484375e+03" cType="1" res="7.8707020729780197e-03" rms="3.2393446564674377e-01" purity="5.0566834211349487e-01" nType="0">
        <Node pos="l" depth="1" NCoef="0" IVar="3" Cut="7.0050781250000000e+02" cType="1" res="-4.9462970346212387e-02" rms="3.3051082491874695e-01" purity="3.1503111124038696e-01" nType="0">
          <Node pos="l" depth="2" NCoef="0" IVar="-1" Cut="0.0000000000000000e+00" cType="1" res="-4.2653948068618774e-02" rms="3.0901440978050232e-01" purity="1.8451152741909027e-01" nType="-99"/>
          <Node pos="r" depth="2" NCoef="0" IVar="-1" Cut="0.0000000000000000e+00" cType="1" res="2.6881800964474678e-02" rms="3.2912167906761169e-01" purity="6.4488065242767334e-01" nType="-99"/>
        </Node>
        <Node pos="r" depth="1" NCoef="0" IVar="2" Cut="1.2056451416015625e+03" cType="1" res="2.9446285218000412e-02" rms="3.1876543164253235e-01" purity="5.7740813493728638e-01" nType="0">
          <Node pos="l" depth="2" NCoef="0" IVar="-1" Cut="0.0000000000000000e+00" cType="1" res="-1.5214757993817329e-02" rms="3.4210595488548279e-01" purity="3.4289470314979553e-01" nType="-99"/>
          <Node pos="r" depth="2" NCoef="0" IVar="-1" Cut="0.0000000000000000e+00" cType="1" res="2.2148104384541512e-02" rms="2.9287466406822205e-01" purity="7.2475558519363403e-01" nType="-99"/>
        </Node>
      </Node>
    </BinaryTree>
    <BinaryTree type="DecisionTree" boostWeight="1.0000000000000000e+00" itree="49">
      <Node pos="s" depth="0" NCoef="0" IVar="2" Cut="1.5531136474609375e+03" cType="1" res="-4.4494993053376675e-03" rms="3.3553811907768250e-01" purity="4.9433380365371704e-01" nType="0">
        <Node pos="l" depth="1" NCoef="0" IVar="2" Cut="5.1623376464843750e+02" cType="1" res="-4.9042474478483200e-02" rms="3.5738256573677063e-01" purity="3.8117799162864685e-01" nType="0">
          <Node pos="l" depth="2" NCoef="0" IVar="-1" Cut="0.0000000000000000e+00" cType="1" res="-7.9247258603572845e-02" rms="3.0357655882835388e-01" purity="9.1049909591674805e-02" nType="-99"/>
          <Node pos="r" depth="2" NCoef="0" IVar="-1" Cut="0.0000000000000000e+00" cType="1" res="2.1078223362565041e-02" rms="3.4732472896575928e-01" purity="6.2421059608459473e-01" nType="-99"/>
        </Node>
        <Node pos="r" depth="1" NCoef="0" IVar="3" Cut="1.2745358886718750e+03" cType="1" res="1.9595080986618996e-02" rms="3.2058364152908325e-01" purity="5.5534756183624268e-01" nType="0">
          <Node pos="l" depth="2" NCoef="0" IVar="-1" Cut="0.0000000000000000e+00" cType="1" res="-1.3746486976742744e-02" rms="3.3885779976844788e-01" purity="3.4276109933853149e-01" nType="-99"/>
          <Node pos="r" depth="2" NCoef="0" IVar="-1" Cut="0.0000000000000000e+00" cType="1" res="2.0013025030493736e-02" rms="2.9681003093719482e-01" purity="7.1996206045150757e-01" nType="-99"/>
        </Node>
      </Node>
    </BinaryTree>
    <BinaryTree type="DecisionTree" boostWeight="1.0000000000000000e+00" itree="50">
      <Node pos="s" depth="0" NCoef="0" IVar="2" Cut="1.0263077392578125e+03" cType="1" res="7.1161207742989063e-03" rms="3.2920479774475098e-01" purity="5.0595295429229736e-01" nType="0">
        <Node pos="l" depth="1" NCoef="0" IVar="2" Cut="4.5460241699218750e+02" cType="1" res="-5.9033535420894623e-02" rms="3.3623513579368591e-01" purity="3.1072005629539490e-01" nType="0">
          <Node pos="l" depth="2" NCoef="0" IVar="-1" Cut="0.0000000000000000e+00" cType="1" res="-6.5400443971157074e-02" rms="2.9214558005332947e-01" purity="9.8403707146644592e-02" nType="-99"/>
          <Node pos="r" depth="2" NCoef="0" IVar="-1" Cut="0.0000000000000000e+00" cType="1" res="1.7338179051876068e-02" rms="3.4242126345634460e-01" purity="5.6247907876968384e-01" nType="-99"/>
        </Node>
        <Node pos="r" depth="1" NCoef="0" IVar="0" Cut="1.3748989257812500e+03" cType="1" res="3.1656060367822647e-02" rms="3.2313272356987000e-01" purity="5.7837969064712524e-01" nType="0">
          <Node pos="l" depth="2" NCoef="0" IVar="-1" Cut="0.0000000000000000e+00" cType="1" res="-1.1689751408994198e-02" rms="3.3021789789199829e-01" purity="4.5826610922813416e-01" nType="-99"/>
          <Node pos="r" depth="2" NCoef="0" IVar="-1" Cut="0.0000000000000000e+00" cType="1" res="1.9632739946246147e-02" rms="3.1349462270736694e-01" purity="6.4091974496841431e-01" nType="-99"/>
        </Node>
      </Node>
    </BinaryTree>
    <BinaryTree type="DecisionTree" boostWeight="1.0000000000000000e+00" itree="51">
      <Node pos="s" depth="0" NCoef="0" IVar="1" Cut="1.3005915527343750e+03" cType="1" res="-7.4502102506812662e-05" rms="3.1810665130615234e-01" purity="5.0951558351516724e-01" nType="0">
        <Node pos="l" depth="1" NCoef="0" IVar="1" Cut="2.7201339721679688e+02" cType="1" res="-2.6901122182607651e-02" rms="3.2774716615676880e-01" purity="4.3712016940116882e-01" nType="0">
          <Node pos="l" depth="2" NCoef="0" IVar="-1" Cut="0.0000000000000000e+00" cType="1" res="-3.9505891501903534e-02" rms="3.0793568491935730e-01" purity="2.1955738961696625e-01" nType="-99"/>
          <Node pos="r" depth="2" NCoef="0" IVar="-1" Cut="0.0000000000000000e+00" cType="1" res="-7.0283313107211143e-05" rms="3.2961359620094299e-01" purity="5.0821661949157715e-01" nType="-99"/>
        </Node>
        <Node pos="r" depth="1" NCoef="0" IVar="2" Cut="8.8582659912109375e+02" cType="1" res="3.7009190768003464e-02" rms="3.0035781860351562e-01" purity="6.0959112644195557e-01" nType="0">
          <Node pos="l" depth="2" NCoef="0" IVar="-1" Cut="0.0000000000000000e+00" cType="1" res="-2.8939276933670044e-02" rms="3.1964832544326782e-01" purity="2.6810809969902039e-01" nType="-99"/>
          <Node pos="r" depth="2" NCoef="0" IVar="-1" Cut="0.0000000000000000e+00" cType="1" res="2.3174766451120377e-02" rms="2.8076046705245972e-01" purity="7.2888702154159546e-01" nType="-99"/>
        </Node>
      </Node>
    </BinaryTree>
    <BinaryTree type="DecisionTree" boostWeight="1.0000000000000000e+00" itree="52">
      <Node pos="s" depth="0" NCoef="0" IVar="3" Cut="1.2306893310546875e+03" cType="1" res="2.7316098567098379e-03" rms="3.2775449752807617e-01" purity="4.9590137600898743e-01" nType="0">
        <Node pos="l" depth="1" NCoef="0" IVar="3" Cut="6.3600408935546875e+02" cType="1" res="-4.2683295905590057e-02" rms="3.4612318873405457e-01" purity="3.4283423423767090e-01" nType="0">
          <Node pos="l" depth="2" NCoef="0" IVar="-1" Cut="0.0000000000000000e+00" cType="1" res="-4.4697888195514679e-02" rms="3.0267572402954102e-01" purity="1.6449588537216187e-01" nType="-99"/>
          <Node pos="r" depth="2" NCoef="0" IVar="-1" Cut="0.0000000000000000e+00" cType="1" res="2.4621924385428429e-02" rms="3.7276908755302429e-01" purity="6.5757793188095093e-01" nType="-99"/>
        </Node>
        <Node pos="r" depth="1" NCoef="0" IVar="0" Cut="1.1384035644531250e+03" cType="1" res="2.1853322163224220e-02" rms="3.1776905059814453e-01" purity="5.6034946441650391e-01" nType="0">
          <Node pos="l" depth="2" NCoef="0" IVar="-1" Cut="0.0000000000000000e+00" cType="1" res="-1.3207829557359219e-02" rms="3.3393901586532593e-01" purity="4.2753332853317261e-01" nType="-99"/>
          <Node pos="r" depth="2" NCoef="0" IVar="-1" Cut="0.0000000000000000e+00" cType="1" res="1.3915981166064739e-02" rms="3.0876743793487549e-01" purity="6.0650569200515747e-01" nType="-99"/>
        </Node>
      </Node>
    </BinaryTree>
    <BinaryTree type="DecisionTree" boostWeight="1.0000000000000000e+00" itree="53">
      <Node pos="s" depth="0" NCoef="0" IVar="3" Cut="1.0195757446289062e+03" cType="1" res="2.2139293141663074e-03" rms="3.1602886319160461e-01" purity="4.9862751364707947e-01" nType="0">
        <Node pos="l" depth="1" NCoef="0" IVar="3" Cut="7.9992938232421875e+02" cType="1" res="-4.7850422561168671e-02" rms="3.2866108417510986e-01" purity="2.9533824324607849e-01" nType="0">
          <Node pos="l" depth="2" NCoef="0" IVar="-1" Cut="0.0000000000000000e+00" cType="1" res="-3.1285107135772705e-02" rms="3.1033357977867126e-01" purity="2.0689883828163147e-01" nType="-99"/>
          <Node pos="r" depth="2" NCoef="0" IVar="-1" Cut="0.0000000000000000e+00" cType="1" res="3.5661887377500534e-02" rms="3.4914529323577881e-01" purity="7.5708615779876709e-01" nType="-99"/>
        </Node>
        <Node pos="r" depth="1" NCoef="0" IVar="2" Cut="1.4168166503906250e+03" cType="1" res="1.9900647923350334e-02" rms="3.0951395630836487e-01" purity="5.7044547796249390e-01" nType="0">
          <Node pos="l" depth="2" NCoef="0" IVar="-1" Cut="0.0000000000000000e+00" cType="1" res="-8.0830426886677742e-03" rms="3.4492287039756775e-01" purity="3.6941438913345337e-01" nType="-99"/>
          <Node pos="r" depth="2" NCoef="0" IVar="-1" Cut="0.0000000000000000e+00" cType="1" res="1.6193101182579994e-02" rms="2.7671465277671814e-01" purity="7.1523922681808472e-01" nType="-99"/>
        </Node>
      </Node>
    </BinaryTree>
    <BinaryTree type="DecisionTree" boostWeight="1.0000000000000000e+00" itree="54">
      <Node pos="s" depth="0" NCoef="0" IVar="0" Cut="1.5111696777343750e+03" cType="1" res="1.0083610191941261e-02" rms="3.1355804204940796e-01" purity="5.0675183534622192e-01" nType="0">
        <Node pos="l" depth="1" NCoef="0" IVar="1" Cut="9.1229583740234375e+02" cType="1" res="-3.1493782997131348e-02" rms="3.1950482726097107e-01" purity="4.4163540005683899e-01" nType="0">
          <Node pos="l" depth="2" NCoef="0" IVar="-1" Cut="0.0000000000000000e+00" cType="1" res="-4.0733013302087784e-02" rms="3.2901251316070557e-01" purity="2.7957373857498169e-01" nType="-99"/>
          <Node pos="r" depth="2" NCoef="0" IVar="-1" Cut="0.0000000000000000e+00" cType="1" res="8.8108871132135391e-03" rms="2.9885852336883545e-01" purity="5.5133032798767090e-01" nType="-99"/>
        </Node>
        <Node pos="r" depth="1" NCoef="0" IVar="3" Cut="3.2001401367187500e+03" cType="1" res="3.2098639756441116e-02" rms="3.0809941887855530e-01" purity="5.4123061895370483e-01" nType="0">
          <Node pos="l" depth="2" NCoef="0" IVar="-1" Cut="0.0000000000000000e+00" cType="1" res="2.9382284265011549e-03" rms="3.1425639986991882e-01" purity="4.6119421720504761e-01" nType="-99"/>
          <Node pos="r" depth="2" NCoef="0" IVar="-1" Cut="0.0000000000000000e+00" cType="1" res="2.9876220971345901e-02" rms="2.7921497821807861e-01" purity="7.7201008796691895e-01" nType="-99"/>
        </Node>
      </Node>
    </BinaryTree>
    <BinaryTree type="DecisionTree" boostWeight="1.0000000000000000e+00" itree="55">
      <Node pos="s" depth="0" NCoef="0" IVar="1" Cut="1.5991771240234375e+03" cType="1" res="4.7967126592993736e-03" rms="3.2107692956924438e-01" purity="5.0509738922119141e-01" nType="0">
        <Node pos="l" depth="1" NCoef="0" IVar="1" Cut="3.1443670654296875e+02" cType="1" res="-2.1331207826733589e-02" rms="3.2487159967422485e-01" purity="4.3529072403907776e-01" nType="0">
          <Node pos="l" depth="2" NCoef="0" IVar="-1" Cut="0.0000000000000000e+00" cType="1" res="-3.7955004721879959e-02" rms="3.2085624337196350e-01" purity="2.2891399264335632e-01" nType="-99"/>
          <Node pos="r" depth="2" NCoef="0" IVar="-1" Cut="0.0000000000000000e+00" cType="1" res="1.7946417210623622e-03" rms="3.2172834873199463e-01" purity="5.0505977869033813e-01" nType="-99"/>
        </Node>
        <Node pos="r" depth="1" NCoef="0" IVar="3" Cut="9.9026379394531250e+02" cType="1" res="4.9739100039005280e-02" rms="3.0932196974754333e-01" purity="6.2517124414443970e-01" nType="0">
          <Node pos="l" depth="2" NCoef="0" IVar="-1" Cut="0.0000000000000000e+00" cType="1" res="-9.6971821039915085e-03" rms="3.4483623504638672e-01" purity="3.7849628925323486e-01" nType="-99"/>
          <Node pos="r" depth="2" NCoef="0" IVar="-1" Cut="0.0000000000000000e+00" cType="1" res="2.4556338787078857e-02" rms="2.8910103440284729e-01" purity="7.1693438291549683e-01" nType="-99"/>
        </Node>
      </Node>
    </BinaryTree>
    <BinaryTree type="DecisionTree" boostWeight="1.0000000000000000e+00" itree="56">
      <Node pos="s" depth="0" NCoef="0" IVar="6" Cut="2.8505027294158936e+00" cType="1" res="4.8454282805323601e-03" rms="3.1667745113372803e-01" purity="4.9909567832946777e-01" nType="0">
        <Node pos="l" depth="1" NCoef="0" IVar="8" Cut="9.9995249509811401e-01" cType="1" res="2.1059764549136162e-02" rms="3.1863147020339966e-01" purity="5.6173014640808105e-01" nType="0">
          <Node pos="l" depth="2" NCoef="0" IVar="-1" Cut="0.0000000000000000e+00" cType="1" res="-2.6470979675650597e-02" rms="2.3382326960563660e-01" purity="7.3210828006267548e-02" nType="-99"/>
          <Node pos="r" depth="2" NCoef="0" IVar="-1" Cut="0.0000000000000000e+00" cType="1" res="1.0132388211786747e-02" rms="3.3381301164627075e-01" purity="6.7730897665023804e-01" nType="-99"/>
        </Node>
        <Node pos="r" depth="1" NCoef="0" IVar="6" Cut="5.8957223892211914e+00" cType="1" res="-6.4195245504379272e-02" rms="2.9851743578910828e-01" purity="2.3239797353744507e-01" nType="0">
          <Node pos="l" depth="2" NCoef="0" IVar="-1" Cut="0.0000000000000000e+00" cType="1" res="-1.6695249825716019e-02" rms="3.1078964471817017e-01" purity="2.6642709970474243e-01" nType="-99"/>
          <Node pos="r" depth="2" NCoef="0" IVar="-1" Cut="0.0000000000000000e+00" cType="1" res="-7.3903404176235199e-02" rms="2.0391768217086792e-01" purity="6.1827089637517929e-02" nType="-99"/>
        </Node>
      </Node>
    </BinaryTree>
    <BinaryTree type="DecisionTree" boostWeight="1.0000000000000000e+00" itree="57">
      <Node pos="s" depth="0" NCoef="0" IVar="8" Cut="9.9995249509811401e-01" cType="1" res="5.7931831106543541e-03" rms="3.2526293396949768e-01" purity="4.9032223224639893e-01" nType="0">
        <Node pos="l" depth="1" NCoef="0" IVar="0" Cut="3.7487678222656250e+03" cType="1" res="-4.5936178416013718e-02" rms="2.0849207043647766e-01" purity="5.9887249022722244e-02" nType="0">
          <Node pos="l" depth="2" NCoef="0" IVar="-1" Cut="0.0000000000000000e+00" cType="1" res="-3.9675429463386536e-02" rms="1.9035117328166962e-01" purity="5.0552397966384888e-02" nType="-99"/>
          <Node pos="r" depth="2" NCoef="0" IVar="-1" Cut="0.0000000000000000e+00" cType="1" res="3.2309591770172119e-02" rms="2.7675360441207886e-01" purity="1.1340161412954330e-01" nType="-99"/>
        </Node>
        <Node pos="r" depth="1" NCoef="0" IVar="8" Cut="9.9999773502349854e-01" cType="1" res="1.8424060195684433e-02" rms="3.4670099616050720e-01" purity="5.9542250633239746e-01" nType="0">
          <Node pos="l" depth="2" NCoef="0" IVar="-1" Cut="0.0000000000000000e+00" cType="1" res="-5.9114629402756691e-03" rms="3.6946678161621094e-01" purity="3.9339029788970947e-01" nType="-99"/>
          <Node pos="r" depth="2" NCoef="0" IVar="-1" Cut="0.0000000000000000e+00" cType="1" res="1.5283656306564808e-02" rms="3.1913557648658752e-01" purity="7.8878307342529297e-01" nType="-99"/>
        </Node>
      </Node>
    </BinaryTree>
    <BinaryTree type="DecisionTree" boostWeight="1.0000000000000000e+00" itree="58">
      <Node pos="s" depth="0" NCoef="0" IVar="1" Cut="2.5003840332031250e+03" cType="1" res="1.2092193588614464e-02" rms="3.1890192627906799e-01" purity="5.0319015979766846e-01" nType="0">
        <Node pos="l" depth="1" NCoef="0" IVar="1" Cut="4.4221063232421875e+02" cType="1" res="-1.5768677694723010e-03" rms="3.1847429275512695e-01" purity="4.6450132131576538e-01" nType="0">
          <Node pos="l" depth="2" NCoef="0" IVar="-1" Cut="0.0000000000000000e+00" cType="1" res="-2.5487173348665237e-02" rms="3.0316415429115295e-01" purity="2.7793580293655396e-01" nType="-99"/>
          <Node pos="r" depth="2" NCoef="0" IVar="-1" Cut="0.0000000000000000e+00" cType="1" res="1.0011430829763412e-02" rms="3.2054984569549561e-01" purity="5.5727547407150269e-01" nType="-99"/>
        </Node>
        <Node pos="r" depth="1" NCoef="0" IVar="3" Cut="1.1335440673828125e+03" cType="1" res="5.8442365378141403e-02" rms="3.1597584486007690e-01" purity="6.3437950611114502e-01" nType="0">
          <Node pos="l" depth="2" NCoef="0" IVar="-1" Cut="0.0000000000000000e+00" cType="1" res="-3.7651136608474189e-06" rms="3.8834509253501892e-01" purity="3.9713528752326965e-01" nType="-99"/>
          <Node pos="r" depth="2" NCoef="0" IVar="-1" Cut="0.0000000000000000e+00" cType="1" res="2.7497036382555962e-02" rms="2.6803046464920044e-01" purity="7.5280505418777466e-01" nType="-99"/>
        </Node>
      </Node>
    </BinaryTree>
    <BinaryTree type="DecisionTree" boostWeight="1.0000000000000000e+00" itree="59">
      <Node pos="s" depth="0" NCoef="0" IVar="2" Cut="1.5531136474609375e+03" cType="1" res="5.1108063198626041e-03" rms="3.1733629107475281e-01" purity="5.0654214620590210e-01" nType="0">
        <Node pos="l" depth="1" NCoef="0" IVar="2" Cut="6.5407598876953125e+02" cType="1" res="-3.4363798797130585e-02" rms="3.3298605680465698e-01" purity="3.9101248979568481e-01" nType="0">
          <Node pos="l" depth="2" NCoef="0" IVar="-1" Cut="0.0000000000000000e+00" cType="1" res="-5.6117229163646698e-02" rms="3.0002740025520325e-01" purity="1.3476905226707458e-01" nType="-99"/>
          <Node pos="r" depth="2" NCoef="0" IVar="-1" Cut="0.0000000000000000e+00" cType="1" res="2.1314525976777077e-02" rms="3.3042016625404358e-01" purity="6.6859018802642822e-01" nType="-99"/>
        </Node>
        <Node pos="r" depth="1" NCoef="0" IVar="3" Cut="1.1451534423828125e+03" cType="1" res="2.6956195011734962e-02" rms="3.0615448951721191e-01" purity="5.7047671079635620e-01" nType="0">
          <Node pos="l" depth="2" NCoef="0" IVar="-1" Cut="0.0000000000000000e+00" cType="1" res="-8.5522904992103577e-03" rms="3.2257395982742310e-01" purity="3.2758864760398865e-01" nType="-99"/>
          <Node pos="r" depth="2" NCoef="0" IVar="-1" Cut="0.0000000000000000e+00" cType="1" res="1.9923955202102661e-02" rms="2.8939819335937500e-01" purity="7.3339992761611938e-01" nType="-99"/>
        </Node>
      </Node>
    </BinaryTree>
    <BinaryTree type="DecisionTree" boostWeight="1.0000000000000000e+00" itree="60">
      <Node pos="s" depth="0" NCoef="0" IVar="4" Cut="6.1871452331542969e+00" cType="1" res="8.2399649545550346e-03" rms="3.1629446148872375e-01" purity="5.0615125894546509e-01" nType="0">
        <Node pos="l" depth="1" NCoef="0" IVar="0" Cut="1.5287374267578125e+03" cType="1" res="1.3923366554081440e-02" rms="3.1613004207611084e-01" purity="5.1817208528518677e-01" nType="0">
          <Node pos="l" depth="2" NCoef="0" IVar="-1" Cut="0.0000000000000000e+00" cType="1" res="-7.6093077659606934e-03" rms="3.1986480951309204e-01" purity="4.5657184720039368e-01" nType="-99"/>
          <Node pos="r" depth="2" NCoef="0" IVar="-1" Cut="0.0000000000000000e+00" cType="1" res="1.0921864770352840e-02" rms="3.1236705183982849e-01" purity="5.5078476667404175e-01" nType="-99"/>
        </Node>
        <Node pos="r" depth="1" NCoef="0" IVar="-1" Cut="0.0000000000000000e+00" cType="1" res="-4.9146339297294617e-02" rms="2.8941062092781067e-01" purity="2.2258311510086060e-01" nType="-99"/>
      </Node>
    </BinaryTree>
    <BinaryTree type="DecisionTree" boostWeight="1.0000000000000000e+00" itree="61">
      <Node pos="s" depth="0" NCoef="0" IVar="6" Cut="2.8573770523071289e+00" cType="1" res="6.6726449877023697e-03" rms="3.1556195020675659e-01" purity="4.9835687875747681e-01" nType="0">
        <Node pos="l" depth="1" NCoef="0" IVar="6" Cut="6.8049222230911255e-01" cType="1" res="1.7674639821052551e-02" rms="3.2096913456916809e-01" purity="5.5522090196609497e-01" nType="0">
          <Node pos="l" depth="2" NCoef="0" IVar="-1" Cut="0.0000000000000000e+00" cType="1" res="1.5982355922460556e-02" rms="3.0879747867584229e-01" purity="6.8885999917984009e-01" nType="-99"/>
          <Node pos="r" depth="2" NCoef="0" IVar="-1" Cut="0.0000000000000000e+00" cType="1" res="5.3387071238830686e-04" rms="3.2527485489845276e-01" purity="4.9258795380592346e-01" nType="-99"/>
        </Node>
        <Node pos="r" depth="1" NCoef="0" IVar="3" Cut="3.2037209472656250e+03" cType="1" res="-3.8110058754682541e-02" rms="2.8822118043899536e-01" purity="2.6689660549163818e-01" nType="0">
          <Node pos="l" depth="2" NCoef="0" IVar="-1" Cut="0.0000000000000000e+00" cType="1" res="-2.8812922537326813e-02" rms="2.6284646987915039e-01" purity="1.9289951026439667e-01" nType="-99"/>
          <Node pos="r" depth="2" NCoef="0" IVar="-1" Cut="0.0000000000000000e+00" cType="1" res="6.6582071594893932e-03" rms="3.2748398184776306e-01" purity="4.2190125584602356e-01" nType="-99"/>
        </Node>
      </Node>
    </BinaryTree>
    <BinaryTree type="DecisionTree" boostWeight="1.0000000000000000e+00" itree="62">
      <Node pos="s" depth="0" NCoef="0" IVar="0" Cut="1.2803631591796875e+03" cType="1" res="6.6155106760561466e-03" rms="3.1726726889610291e-01" purity="5.0223171710968018e-01" nType="0">
        <Node pos="l" depth="1" NCoef="0" IVar="1" Cut="1.0489141845703125e+03" cType="1" res="-4.0428075939416885e-02" rms="3.2148924469947815e-01" purity="4.2863601446151733e-01" nType="0">
          <Node pos="l" depth="2" NCoef="0" IVar="-1" Cut="0.0000000000000000e+00" cType="1" res="-3.6094859242439270e-02" rms="3.2011464238166809e-01" purity="2.9713299870491028e-01" nType="-99"/>
          <Node pos="r" depth="2" NCoef="0" IVar="-1" Cut="0.0000000000000000e+00" cType="1" res="9.8662525415420532e-03" rms="3.0755975842475891e-01" purity="5.7373219728469849e-01" nType="-99"/>
        </Node>
        <Node pos="r" depth="1" NCoef="0" IVar="3" Cut="3.1994729003906250e+03" cType="1" res="2.4115685373544693e-02" rms="3.1388816237449646e-01" purity="5.2960926294326782e-01" nType="0">
